0 0 0 0 0 
0 0 0 0 0 
0 0 0 0 0 
0 0 0 0 0 
0 0 0 0 0 
0 0 0 0 0 
0 0 0 0 0 
0 0 0 0 0 
-0.02 -0.002 -0.0026 0 0 
-0.01999171 -0.001999005 -0.002599005 0 0 
-0.01998344 -0.001998095 -0.002598095 0 0 
-0.01997518 -0.00199727 -0.00259727 0 0 
-0.01996695 -0.001996529 -0.002596529 0 0 
-0.01995878 -0.001995875 -0.00259612 0 0 
-0.01995062 -0.001995304 -0.002595794 5.708086E-07 0 
-0.01994249 -0.001994816 -0.00259555 1.1401E-06 0 
-0.01993438 -0.001994411 -0.002595388 1.707872E-06 0 
-0.01992637 -0.00199425 -0.002595308 2.108353E-06 0 
-0.01991838 -0.001994011 -0.002595308 2.347896E-06 0 
-0.0199104 -0.001993851 -0.002595228 2.427736E-06 0 
-0.03990242 -0.002193771 -0.002995068 -0.0001974924 0 
-0.03988639 -0.002192809 -0.002994587 -0.0001971717 0 
-0.05987025 -0.003192002 -0.003793942 -0.0007966877 0 
-0.0798461 -0.003991036 -0.004393217 -0.001196205 0 
-0.07981402 -0.003990074 -0.004392575 -0.001195242 0 
-0.07978204 -0.003988795 -0.004392256 -0.001194922 0 
-0.07974998 -0.003987192 -0.004392256 -0.001193961 0 
-0.079718 -0.003985913 -0.004391936 -0.001193961 0 
-0.07968604 -0.003984954 -0.004391296 -0.001193961 0 
-2.079654 -0.04398431 -0.06439034 -0.001193961 0 
-4.078822 -0.08396766 -0.1243654 -0.001193961 0 
-6.077182 -0.1039513 -0.2842342 -0.001193961 0 
-6.074734 -0.1035841 -0.2841363 -0.001193961 0 
-6.072283 -0.103241 -0.2839402 -0.001193961 0 
-6.069834 -0.1029227 -0.2837688 -0.001193961 0 
-6.067386 -0.1026289 -0.283573 -0.001193961 0 
-6.06494 -0.1023599 -0.2834018 -0.001193961 0 
-6.0825 -0.1028867 -0.2844554 -0.001193961 0 
-6.080052 -0.1026908 -0.284333 -0.001193961 0 
-6.07761 -0.1025199 -0.2842353 -0.001193961 0 
-6.07517 -0.1023246 -0.2841621 -0.001193961 0 
-6.072731 -0.1021051 -0.2841133 -0.001193961 0 
-6.070293 -0.1018614 -0.2840889 -0.001193961 0 
-6.067849 -0.1015925 -0.2839667 -0.001193961 0 
-6.06542 -0.1013495 -0.2838695 -0.001193961 0.0006073944 
-6.062977 -0.1010809 -0.2837474 -0.001193961 0.001217976 
-6.060537 -0.1008369 -0.2836498 -0.001193961 0.001624604 
-6.058086 -0.1006164 -0.2835518 -0.001193961 0.001930949 
-6.055657 -0.1004706 -0.2835275 -0.001193961 0.00223465 
-6.053225 -0.1003003 -0.2835031 -0.001193961 0.002538681 
-6.050804 -0.1001551 -0.2835031 -0.001193961 0.002841282 
-6.048378 -0.1000338 -0.2834789 -0.001193961 0.003245617 
-6.045959 -0.09988865 -0.2834789 -0.001193961 0.003547949 
-6.04354 -0.09976771 -0.2834547 -0.001193961 0.003850279 
-6.041121 -0.09962255 -0.2834063 -0.001193961 0.004253511 
-6.038702 -0.09950162 -0.2833337 -0.001193961 0.00485813 
-6.036281 -0.09940475 -0.2832369 -0.001193961 0.005463572 
-6.033862 -0.09930798 -0.2831401 -0.001193961 0.006269965 
-6.051443 -0.1000112 -0.2838433 -0.001193961 0.001874599 
-6.049016 -0.09991418 -0.2837463 -0.001193961 0.002359943 
-6.046591 -0.09981714 -0.2836492 -0.001193961 0.002966399 
-6.044167 -0.09972018 -0.2835523 -0.001193961 0.003774392 
-6.061744 -0.1004233 -0.2842554 -0.001193961 -0.0006198281 
-6.059311 -0.100253 -0.2841581 -0.001193961 -0.0001334 
-6.05688 -0.1000828 -0.2840608 -0.001193961 0.000271782 
-6.074451 -0.1007857 -0.2847637 -0.001193961 -0.002238379 
-6.072015 -0.1006882 -0.2846662 -0.001193961 -0.001933865 
-6.069581 -0.1006395 -0.2845689 -0.001193961 -0.001663389 
-6.067145 -0.1005908 -0.2844714 -0.001193961 -0.001419769 
-6.06471 -0.1005178 -0.2843984 -0.001193961 -0.001176298 
-6.062277 -0.1004205 -0.2843497 -0.001193961 -0.001176298 
-6.059846 -0.1002989 -0.2843254 -0.001193961 -0.001176298 
-6.05741 -0.1001527 -0.2842279 -0.001193961 -0.001176298 
-6.054975 -0.100031 -0.2841549 -0.001193961 -0.0007705305 
-6.072544 -0.1003824 -0.2845062 -0.001193961 -0.003698654 
-6.070104 -0.1002116 -0.2844818 -0.001193961 -0.003292092 
-6.067662 -0.1000651 -0.2843597 -0.001193961 -0.00288508 
-6.065222 -0.09994308 -0.2842621 -0.001193961 -0.002275066 
-6.062785 -0.09984558 -0.284189 -0.001193961 -0.001665697 
-6.060349 -0.09977253 -0.2841403 -0.001193961 -0.001056918 
-6.057917 -0.09972388 -0.284116 -0.001193961 -0.0006515363 
-6.055485 -0.09969956 -0.2839943 -0.001193961 -0.0002461628 
-6.053057 -0.09965102 -0.2838973 -0.001193961 0.0001584308 
-6.070631 -0.1000025 -0.2846002 -0.001193961 -0.002352063 
-6.068192 -0.0999537 -0.2844538 -0.001193961 -0.002047171 
-6.045749 -0.09860715 -0.2831073 -0.001193961 0.001158912 
-6.043314 -0.09831495 -0.2829855 -0.001193961 0.001645904 
-6.040884 -0.09819344 -0.2828883 -0.001193961 0.002131932 
-6.038455 -0.09809627 -0.2828154 -0.001193961 0.002941734 
-5.976039 -0.09622381 -0.2815671 -0.001193961 0.06535703 
-5.973648 -0.09615207 -0.2814237 -0.001193961 0.06655267 
-5.971283 -0.09610477 -0.2813054 -0.001170313 0.06773506 
-5.968906 -0.09605724 -0.2811866 -0.001122777 0.06852734 
-5.966525 -0.0960096 -0.2810675 -0.001051328 0.06912275 
-5.964141 -0.09596193 -0.2809483 -0.0009559767 0.0695995 
-5.961756 -0.09591423 -0.2808291 -0.0008367389 0.06999696 
-5.959355 -0.09586621 -0.280661 -0.0006446746 0.07026371 
-5.95697 -0.0958185 -0.2805417 -0.0004777149 0.07056186 
-5.954586 -0.09577081 -0.2804225 -0.0004777149 0.07082683 
-5.952197 -0.09572304 -0.2803031 -0.0004777149 0.07106566 
-5.949811 -0.09565144 -0.2802076 -0.0004777149 0.07130433 
-5.967426 -0.09635604 -0.2807361 -0.0004777149 0.06954282 
-5.965044 -0.09628457 -0.2806884 -0.0004777149 0.06978106 
-5.962653 -0.09623675 -0.2806645 -0.0004777149 0.06978106 
-5.980269 -0.09676525 -0.2806645 -0.0004777149 0.06978106 
-5.977879 -0.09671743 -0.2806406 -0.0004777149 0.06978106 
-5.975488 -0.09669352 -0.2805928 -0.0004777149 0.06978106 
-5.953086 -0.09534941 -0.2799208 -0.0004777149 0.06978106 
-5.9507 -0.09523012 -0.2798015 -0.0004777149 0.06978106 
-5.948309 -0.09513446 -0.279658 -0.0004777149 0.06978106 
-5.945919 -0.09501497 -0.2795385 -0.0004777149 0.06978106 
-5.943531 -0.09487169 -0.279443 -0.0004777149 0.06978106 
-5.941144 -0.09470464 -0.2793714 -0.0004777149 0.06978106 
-5.93876 -0.09451387 -0.2793237 -0.0004777149 0.06978106 
-5.936377 -0.09429941 -0.2792999 -0.0004777149 0.06978106 
-5.953981 -0.09482752 -0.279828 -0.0004777149 0.06978106 
-5.951587 -0.09465992 -0.2797322 -0.0004777149 0.06998058 
-5.949209 -0.09451727 -0.2796609 -0.0004777149 0.07021833 
-5.946831 -0.09435081 -0.2795658 -0.0004777149 0.07045613 
-5.944438 -0.09415934 -0.2794461 -0.0004777149 0.07069547 
-5.942046 -0.0939919 -0.2793504 -0.0004777149 0.07099447 
-5.939653 -0.09384831 -0.2792786 -0.0004777149 0.07139333 
-5.937254 -0.09372839 -0.2792306 -0.0004777149 0.07199293 
-5.934892 -0.09363389 -0.2791598 -0.0004777149 0.07317413 
-5.872546 -0.09051658 -0.2766659 -0.0004777149 0.1043472 
-5.850219 -0.08940021 -0.2757728 -0.0004777149 0.1117897 
-5.807891 -0.08728383 -0.2740797 -0.0004777149 0.1223716 
-5.785575 -0.08661435 -0.2736334 -0.0004777149 0.1255596 
-5.78326 -0.0865449 -0.273564 -0.0004777149 0.1258489 
-5.800977 -0.08725359 -0.2742727 -0.0004777149 0.1228961 
-5.798647 -0.08718367 -0.2742027 -0.0004777149 0.1228961 
-5.796321 -0.08713716 -0.2741562 -0.0004777149 0.1228961 
-5.793998 -0.08709069 -0.274133 -0.0004777149 0.1228961 
-5.791582 -0.08701819 -0.2740121 -0.0004777149 0.1228961 
-5.789276 -0.08692596 -0.2738738 -0.0004777149 0.124049 
-5.786973 -0.08685686 -0.2737586 -0.0004777149 0.1252006 
-5.784672 -0.08681085 -0.2736666 -0.0004777149 0.1263509 
-5.782377 -0.08678789 -0.2735978 -0.0004777149 0.1274985 
-5.780084 -0.08674203 -0.2735519 -0.0004777149 0.1286452 
-5.77779 -0.08669615 -0.273529 -0.0004777149 0.1297921 
-5.775507 -0.08667332 -0.273529 -0.0004777149 0.1309333 
-5.793149 -0.08755542 -0.2737054 -0.0004777149 0.1265229 
-5.790908 -0.08739856 -0.2737054 -0.0004777149 0.1276433 
-5.788593 -0.08730594 -0.2736359 -0.0004777149 0.1280292 
-5.786319 -0.08719225 -0.2735904 -0.0004777149 0.1284081 
-5.784003 -0.0870996 -0.2735209 -0.0004777149 0.1284081 
-5.801687 -0.08763012 -0.2742283 -0.0004777149 0.1284081 
-5.799358 -0.08760682 -0.2741118 -0.0004777149 0.1284081 
-5.797022 -0.08756012 -0.2738549 -0.0004777149 0.1284081 
-5.794689 -0.0874901 -0.2736216 -0.0004777149 0.1284081 
-5.792357 -0.08742015 -0.2734117 -0.0004777149 0.1284081 
-5.790027 -0.08732695 -0.2732253 -0.0004777149 0.1284081 
-5.787698 -0.08721053 -0.2730623 -0.0004777149 0.1284081 
-5.785372 -0.08707093 -0.2729227 -0.0004777149 0.1284081 
-5.803047 -0.08830818 -0.2738065 -0.0004777149 0.1284081 
-5.800715 -0.08812167 -0.2737132 -0.0004777149 0.1284081 
-5.798386 -0.08791199 -0.2736433 -0.0004777149 0.1284081 
-5.796052 -0.08767858 -0.2735266 -0.0004777149 0.1284081 
-5.79372 -0.08746873 -0.2734333 -0.0004077627 0.1284081 
-5.83139 -0.09048238 -0.2745635 -0.001537882 0.1284081 
-5.849047 -0.09171837 -0.2749166 -0.002244157 0.1284081 
-5.866701 -0.09277762 -0.2750931 -0.003126865 0.1284081 
-5.864355 -0.09263685 -0.2750931 -0.002986101 0.1284081 
-5.861995 -0.09251884 -0.2749515 -0.002844492 0.1284081 
-5.859637 -0.09242453 -0.2748336 -0.002703028 0.1284081 
-5.857282 -0.09235387 -0.2747394 -0.00256171 0.1284081 
-5.854929 -0.09230682 -0.2746688 -0.002420537 0.1284081 
-5.852581 -0.09228334 -0.2746219 -0.002279672 0.1284081 
-5.850235 -0.09225988 -0.2745984 -0.002279672 0.1284081 
-5.84784 -0.09221198 -0.2744307 -0.002279672 0.1284081 
-5.845506 -0.09214197 -0.2742907 -0.002279672 0.1288749 
-5.823176 -0.09169536 -0.2727276 -0.002279672 0.133341 
-5.820855 -0.09162572 -0.2725419 -0.002279672 0.1338052 
-5.818518 -0.09155563 -0.272355 -0.002279672 0.1341946 
-5.816199 -0.09148604 -0.2721694 -0.002279672 0.1346585 
-5.833864 -0.09201601 -0.2735826 -0.002279672 0.1317143 
-5.831521 -0.09194571 -0.2733952 -0.002279672 0.1321829 
-5.829202 -0.09187615 -0.2732097 -0.002279672 0.1327626 
-5.846858 -0.09399477 -0.2746221 -0.002279672 0.1292316 
-5.844512 -0.09371337 -0.2744345 -0.002279672 0.1298178 
-5.84217 -0.09345569 -0.2742705 -0.002279672 0.1304035 
-5.83983 -0.09322169 -0.2741301 -0.002279672 0.1309885 
-5.837479 -0.09301013 -0.2740126 -0.002279672 0.1309885 
-5.835129 -0.0928221 -0.2738715 -0.002279672 0.1309885 
-5.852787 -0.09405816 -0.2747544 -0.002809409 0.1309885 
-5.850431 -0.09389329 -0.2746367 -0.002715201 0.1309885 
-5.848082 -0.09375231 -0.2745427 -0.002621214 0.1309885 
-5.865732 -0.09428182 -0.2750722 -0.003680238 0.1309885 
-5.863376 -0.09416401 -0.2750251 -0.003538855 0.1309885 
-5.861022 -0.09406985 -0.2750015 -0.003397618 0.1309885 
-5.858679 -0.09399956 -0.2750015 -0.003257055 0.1309885 
-5.856336 -0.09395272 -0.2749781 -0.003116505 0.1309885 
-5.853994 -0.09392929 -0.2749313 -0.002975967 0.1309885 
-5.831654 -0.09325907 -0.274261 -0.001635538 0.1309885 
-5.849308 -0.09431836 -0.2749672 -0.001635538 0.1309885 
-5.846961 -0.09420097 -0.2748968 -0.001635538 0.1309885 
-5.844615 -0.0940602 -0.2748499 -0.001635538 0.1309885 
-5.842276 -0.09389649 -0.2748265 -0.001635538 0.1309885 
-5.839919 -0.09375506 -0.2745672 -0.001635538 0.1309885 
-5.837564 -0.09363732 -0.2743317 -0.001635538 0.1309885 
-5.835215 -0.09354335 -0.2741203 -0.001635538 0.1309885 
-5.832867 -0.09342597 -0.2739325 -0.001635538 0.1309885 
-5.830521 -0.09328521 -0.2737683 -0.001635538 0.1309885 
-5.828177 -0.09312111 -0.2736276 -0.001635538 0.1309885 
-5.845833 -0.0950633 -0.2745104 -0.001635538 0.1309885 
-5.843483 -0.09478128 -0.2744164 -0.001635538 0.1309885 
-5.841135 -0.09447598 -0.274346 -0.001635538 0.1309885 
-5.838788 -0.09414742 -0.274299 -0.001635538 0.1309885 
-5.836442 -0.09379565 -0.2742756 -0.001635538 0.1309885 
-5.834072 -0.09341642 -0.2740149 -0.001635538 0.1309885 
-5.831717 -0.09306323 -0.2737794 -0.001635538 0.1311193 
-5.849367 -0.0946517 -0.2753679 -0.001635538 0.1300162 
-5.847016 -0.09441654 -0.2752973 -0.001635538 0.1301841 
-5.844676 -0.09439314 -0.2752505 -0.001635538 0.1303792 
-5.82233 -0.09215865 -0.275027 -0.001635538 0.1319752 
-5.819986 -0.09194766 -0.2748161 -0.001635538 0.1321427 
-5.817645 -0.09176032 -0.2746287 -0.001635538 0.13231 
-5.815293 -0.09159569 -0.2742524 -0.001635538 0.132478 
-5.812947 -0.09145492 -0.2739005 -0.001635538 0.1326735 
-5.810603 -0.09133773 -0.2735724 -0.001635538 0.1328688 
-5.808262 -0.09124407 -0.273268 -0.001635538 0.1330639 
-5.805927 -0.09112733 -0.2731513 -0.001635538 0.1332307 
-5.803594 -0.09108068 -0.273058 -0.001378959 0.133425 
-5.801266 -0.0910574 -0.2729881 -0.001169432 0.1336579 
-5.798938 -0.09101082 -0.2729415 -0.001006428 0.1339489 
-5.79661 -0.09094099 -0.2729183 -0.0008900366 0.1343369 
-5.794253 -0.09089385 -0.2728475 -0.0008193217 0.1349262 
-5.791957 -0.09082496 -0.2727557 -0.0007963599 0.1360743 
-5.789662 -0.09075611 -0.2726639 -0.0007734097 0.1372218 
-5.787368 -0.0906873 -0.2725721 -0.0007504709 0.1383687 
-5.785075 -0.09061851 -0.2724804 -0.0007275437 0.1395151 
-5.782784 -0.09054977 -0.2723888 -0.0007046279 0.1406609 
-5.780493 -0.09048106 -0.2722971 -0.0006817236 0.1418061 
-5.778204 -0.09041238 -0.2722056 -0.0006588308 0.1429508 
-5.775916 -0.09034374 -0.272114 -0.0006359494 0.1440948 
-5.773629 -0.09027512 -0.2720225 -0.0006359494 0.1452383 
-5.691447 -0.08780969 -0.2687353 -0.0006359494 0.1863289 
-5.689165 -0.08778687 -0.2686897 -0.0006359494 0.1863289 
-5.686885 -0.08774126 -0.2686669 -0.0006359494 0.1863289 
-5.684548 -0.08767117 -0.26855 -0.0006359494 0.1863289 
-5.682251 -0.08762523 -0.2684582 -0.0006359494 0.1867118 
-5.679969 -0.0876024 -0.2683897 -0.0006359494 0.1872824 
-5.677668 -0.08757939 -0.2683206 -0.0006359494 0.1880493 
-5.675481 -0.08755752 -0.2682551 -0.0006359494 0.1891427 
-5.693181 -0.0884425 -0.268786 -0.0006359494 0.1832428 
-5.690794 -0.08832318 -0.2687145 -0.0006359494 0.1844361 
-5.628733 -0.08646134 -0.2656114 -0.0006359494 0.2464975 
-5.626516 -0.08639482 -0.265434 -0.0006359494 0.2476062 
-5.644302 -0.08781769 -0.266679 -0.0006359494 0.2387132 
-5.602143 -0.08402341 -0.2641495 -0.0006359494 0.2597926 
-5.599907 -0.08386686 -0.2639706 -0.0006359494 0.2602399 
-5.597652 -0.08373156 -0.2638128 -0.0006359494 0.2602399 
-5.595399 -0.08361893 -0.2636776 -0.0006359494 0.2602399 
-5.593155 -0.08352915 -0.2636327 -0.0006359494 0.2602399 
-5.590912 -0.08341701 -0.2636103 -0.0005013763 0.2602399 
-5.588676 -0.08328287 -0.2636103 -0.0003672466 0.2602399 
-5.586441 -0.08317111 -0.2635879 -0.0002331284 0.2602399 
-5.5842 -0.08308147 -0.2635431 -5.385613E-05 0.2602399 
-5.581966 -0.08296979 -0.2635208 0.0001694951 0.2602399 
-5.579733 -0.08288046 -0.2634761 0.0003928251 0.2602399 
-5.5775 -0.08281346 -0.2634091 0.0003928251 0.2602399 
-5.575258 -0.08276863 -0.2632522 0.0003928251 0.2602399 
-5.573018 -0.08270141 -0.2631178 0.0003928251 0.2602399 
-5.570779 -0.08261187 -0.2630058 0.000527143 0.2602399 
-5.568542 -0.08250001 -0.2629163 0.000527143 0.2602399 
-5.566307 -0.08236589 -0.2628493 0.000527143 0.2602399 
-5.564073 -0.08220952 -0.2628046 0.000527143 0.2602399 
-5.581841 -0.08363094 -0.2629823 0.000527143 0.2602399 
-5.579528 -0.08346906 -0.2628666 0.000527143 0.2602399 
-5.577302 -0.08335777 -0.2627776 0.000527143 0.2606109 
-5.575081 -0.08326893 -0.262711 0.000527143 0.260981 
-5.592862 -0.08415797 -0.2630666 0.000527143 0.2580176 
-5.550625 -0.08162376 -0.2626442 0.000527143 0.265057 
-5.548426 -0.08149181 -0.2626222 0.000527143 0.2654969 
-5.546245 -0.08138279 -0.2625786 0.000527143 0.2659329 
-5.544044 -0.08125074 -0.2625566 0.000527143 0.2662474 
-5.541843 -0.08109665 -0.2625126 0.000527143 0.2665618 
-5.539702 -0.08092538 -0.2624484 0.000527143 0.2668677 
-5.537485 -0.08072581 -0.2623597 0.000527143 0.2668677 
-5.535254 -0.08045801 -0.2622035 0.000527143 0.2668677 
-5.533035 -0.08021398 -0.2620704 0.000527143 0.2668677 
-5.530817 -0.07994771 -0.261915 0.000527143 0.2668677 
-5.548593 -0.0820808 -0.2633371 0.000527143 0.2668677 
-5.54636 -0.08183526 -0.2631362 0.000527143 0.2668677 
-5.544123 -0.08165628 -0.2629125 0.000527143 0.2668677 
-5.541888 -0.08149983 -0.2627113 0.000527143 0.2668677 
-5.539656 -0.08136588 -0.2625327 0.000527143 0.2668677 
-5.557425 -0.08260971 -0.2637766 0.000527143 0.2668677 
-5.555183 -0.08247522 -0.2634852 0.000527143 0.2668677 
-5.552943 -0.08231842 -0.2632164 0.000527143 0.2668677 
-5.550705 -0.08213936 -0.2629702 0.000527143 0.2668677 
-5.548468 -0.08193806 -0.2627465 0.000527143 0.2668677 
-5.546233 -0.08171456 -0.2625453 0.000527143 0.2668677 
-5.544 -0.08146888 -0.2623667 0.000527143 0.2668677 
-5.541766 -0.08124551 -0.2622103 0.000527143 0.2668677 
-5.539537 -0.08104492 -0.2620766 0.000527143 0.2668677 
-5.53731 -0.0808222 -0.2619652 0.000527143 0.2668677 
-5.555083 -0.08348817 -0.2626761 0.000527143 0.2668677 
-5.55285 -0.08313083 -0.2626092 0.000527143 0.2668677 
-5.550618 -0.08275143 -0.2625645 0.000527143 0.2668677 
-5.548387 -0.08239438 -0.2624976 0.000527143 0.2668677 
-5.546156 -0.08201528 -0.262453 0.000527143 0.2668677 
-5.543928 -0.08161419 -0.2624307 0.000527143 0.2668677 
-5.561667 -0.08356551 -0.264382 0.000527143 0.2668677 
-5.559428 -0.08343112 -0.264158 0.000527143 0.2669856 
-5.55719 -0.08331924 -0.2639567 0.000527143 0.2671172 
-5.55496 -0.08323003 -0.2638898 0.000527143 0.2672659 
-5.552734 -0.08316326 -0.2638452 0.000527143 0.2674371 
-5.550508 -0.08307425 -0.263823 0.000527143 0.2676394 
-5.548274 -0.08296253 -0.2637112 0.000527143 0.2678877 
-5.546059 -0.08287393 -0.2636226 0.000527143 0.2682041 
-5.543849 -0.08280762 -0.2635563 0.000527143 0.2685198 
-5.54164 -0.08271928 -0.2635122 0.000527143 0.2688353 
-5.539409 -0.08260771 -0.2634898 0.000527143 0.2691541 
-5.537158 -0.08247267 -0.2634898 0.000527143 0.2696043 
-5.534966 -0.0823631 -0.2633803 0.000527143 0.2703347 
-5.532777 -0.08227554 -0.2632927 0.000527143 0.2710644 
-5.490633 -0.08101119 -0.2620283 0.000527143 0.2851127 
-5.488418 -0.0808783 -0.2619619 0.000527143 0.2854819 
-5.486239 -0.08072579 -0.2618747 0.000527143 0.2860266 
-5.484065 -0.08059536 -0.2618095 0.000527143 0.28657 
-5.481931 -0.08046734 -0.2617669 0.000527143 0.2871035 
-5.47976 -0.08031534 -0.2617451 0.000527143 0.2874654 
-5.477551 -0.08013862 -0.2616568 0.000527143 0.2877415 
-5.475368 -0.07998583 -0.2615913 0.000527143 0.2881053 
-5.473152 -0.07985286 -0.261547 0.000527143 0.2884746 
-5.47087 -0.07969312 -0.2615241 0.000527143 0.2890452 
-5.428738 -0.07758651 -0.2615241 0.000527143 0.3101112 
-5.426615 -0.07748038 -0.2613968 0.000527143 0.3111726 
-5.42463 -0.07740097 -0.2612975 0.000527143 0.3121651 
-5.422531 -0.077296 -0.2611715 0.000527143 0.3126899 
-5.4204 -0.07716814 -0.2610224 0.000527143 0.3130451 
-5.418199 -0.07697003 -0.2608023 0.000527143 0.3132652 
-5.436014 -0.07875157 -0.2625838 0.000527143 0.3112858 
-5.433851 -0.07857855 -0.2624108 0.000527143 0.3115561 
-5.431686 -0.07840534 -0.2622375 0.000527143 0.3117967 
-5.44951 -0.08000942 -0.2636634 0.000527143 0.3100144 
-5.447338 -0.07981395 -0.2634896 0.000527143 0.3102557 
-5.465164 -0.08141835 -0.2649158 0.000527143 0.3084731 
-5.482982 -0.08302192 -0.2663411 0.000527143 0.3068533 
-5.480783 -0.08282409 -0.2661653 0.000527143 0.3070365 
-5.478613 -0.08258533 -0.2659482 0.000527143 0.3072034 
-5.476404 -0.08238656 -0.2657716 0.000527143 0.3072034 
-5.474198 -0.08221006 -0.2656171 0.000527143 0.3072034 
-5.471994 -0.08205579 -0.2654849 0.000527143 0.3072034 
-5.469792 -0.08192369 -0.2653748 0.000527143 0.3072034 
-5.467593 -0.08181372 -0.2652868 0.000527143 0.3072034 
-5.465396 -0.08172584 -0.2652209 0.000527143 0.3072034 
-5.483201 -0.08226 -0.265577 0.000527143 0.3072034 
-5.481003 -0.08221604 -0.265555 0.000527143 0.3072034 
-5.498673 -0.08274613 -0.2669686 0.000527143 0.3072034 
-5.49637 -0.08270007 -0.2668074 0.000527143 0.3077791 
-5.494229 -0.08263583 -0.2666789 0.000527143 0.3088498 
-5.452154 -0.07969061 -0.2637337 0.000527143 0.3298871 
-5.449662 -0.07939153 -0.2636091 0.000527143 0.3307179 
-5.387868 -0.07135838 -0.2599015 0.000527143 0.3925113 
-5.345876 -0.06589936 -0.2573819 0.000527143 0.4135076 
-5.343781 -0.06566887 -0.2572981 0.000527143 0.4142061 
-5.341696 -0.06546038 -0.2572356 0.000527143 0.414901 
-5.339611 -0.06527275 -0.2571522 0.000527143 0.415596 
-5.337526 -0.06510598 -0.257048 0.000527143 0.4162908 
-5.335 -0.06492914 -0.2568964 0.000527143 0.417133 
-5.313359 -0.06427989 -0.2553815 0.000527143 0.4387744 
-5.291434 -0.06362216 -0.2547238 0.000527143 0.4497366 
-5.289605 -0.063549 -0.2546689 0.000527143 0.4503463 
-5.287484 -0.06346416 -0.2546477 0.000527143 0.4503463 
-5.285185 -0.06334919 -0.2545097 0.000527143 0.4503463 
-5.283104 -0.06326599 -0.2543641 0.000527143 0.4508663 
-5.281 -0.06311869 -0.2542379 0.000527143 0.451217 
-5.298907 -0.06490939 -0.2547751 0.000527143 0.4482325 
-5.296756 -0.06471582 -0.2547321 0.000527143 0.448591 
-5.294501 -0.06453539 -0.2546644 0.000527143 0.4491548 
-5.292465 -0.06447431 -0.254583 0.000527143 0.4501728 
-5.290429 -0.06439287 -0.2545219 0.000527143 0.4511908 
-5.288403 -0.0643321 -0.2544814 0.000527143 0.4522037 
-5.286372 -0.06429147 -0.2544611 0.000527143 0.4532195 
-5.284348 -0.06427124 -0.2543802 0.000527143 0.4542311 
-5.262441 -0.0638331 -0.2532848 0.000527143 0.4651847 
-3.260268 -0.02378965 -0.1531762 0.000527143 1.132576 
-3.259072 -0.02369391 -0.1531163 0.000527143 1.132875 
-3.25788 -0.02358666 -0.1530687 0.000527143 1.133173 
-3.256837 -0.02353451 -0.1529539 0.000527143 1.133434 
-3.25568 -0.02346511 -0.1528151 0.000527143 1.133626 
-3.254451 -0.02337908 -0.1526554 0.000527143 1.13378 
-3.273165 -0.02525053 -0.1550883 0.000527143 1.131701 
-3.271929 -0.02512687 -0.1549275 0.000527143 1.131855 
-3.270682 -0.02502709 -0.1547654 0.000527143 1.131994 
-3.269426 -0.02492666 -0.1546022 0.000527143 1.132119 
-3.288315 -0.02643774 -0.1570577 0.000527143 1.130402 
-3.286988 -0.02635811 -0.1568851 0.000527143 1.130402 
-3.285662 -0.02629182 -0.156726 0.000527143 1.130402 
-3.284338 -0.02623884 -0.1565804 0.000527143 1.130402 
-3.283015 -0.02619917 -0.1564481 0.000527143 1.130402 
-3.301694 -0.02694632 -0.1581292 0.000527143 1.130402 
-3.300365 -0.0268799 -0.1580229 0.000527143 1.130402 
-3.299038 -0.02680026 -0.15793 0.000527143 1.130402 
-3.297712 -0.02673397 -0.157877 0.000527143 1.130402 
-3.296388 -0.026681 -0.1578373 0.0006198472 1.130402 
-3.295065 -0.02664131 -0.1578108 0.0007124622 1.130402 
-3.293743 -0.02661487 -0.1577976 0.0008049867 1.130402 
-3.292428 -0.02660172 -0.1577976 0.0008707612 1.130402 
-3.271112 -0.02596224 -0.1575844 0.001936551 1.130402 
-3.2898 -0.026336 -0.1579582 0.001002149 1.130402 
-3.288485 -0.02629656 -0.157945 0.00105474 1.130402 
-3.28717 -0.02627027 -0.1579187 0.001133624 1.130402 
-3.285851 -0.02625708 -0.1578792 0.001212759 1.130402 
-3.284533 -0.02623072 -0.1578528 0.001265473 1.130402 
-3.283216 -0.02619122 -0.1578396 0.00129181 1.130402 
-3.301905 -0.02693875 -0.1578396 0.0009180425 1.130402 
-3.300585 -0.02689916 -0.1578264 0.0009576295 1.130402 
-3.319262 -0.02727269 -0.1582 0.0009576295 1.130402 
-5.317937 -0.08723295 -0.1781867 0.0009576295 1.130402 
-7.315806 -0.1072116 -0.2381228 0.0009576295 1.130402 
-9.312873 -0.2669769 -0.2780641 0.0009576295 1.130402 
-11.30914 -0.4466407 -0.2980267 0.0009576295 1.130402 
-13.30459 -0.6062773 -0.3379359 0.0009576295 1.130402 
-15.29925 -0.745903 -0.3977755 0.0009576295 1.130402 
-17.2931 -0.8455957 -0.4775296 0.0009576295 1.130402 
-19.28614 -0.9253172 -0.5771815 0.0009576295 1.130402 
-21.2784 -0.985085 -0.6568719 0.0009576295 1.130402 
-23.26986 -1.024914 -0.7564451 0.0009576295 1.130402 
-25.26053 -1.044821 -0.875885 0.0009576295 1.130402 
-25.23033 -1.041801 -0.8737708 0.0009576295 1.130402 
-25.22014 -1.040884 -0.8731599 0.0009576295 1.130402 
-25.20997 -1.040071 -0.8726515 0.0009576295 1.130402 
-25.19979 -1.039358 -0.8714292 0.0009576295 1.130402 
-25.18962 -1.038747 -0.8703101 0.0009576295 1.130402 
-25.17945 -1.038239 -0.8692939 0.0009576295 1.130402 
-25.1693 -1.037833 -0.8683804 0.0009576295 1.130402 
-25.15916 -1.037529 -0.8675693 0.0009576295 1.130402 
-25.14907 -1.037327 -0.8668624 0.0009576295 1.130402 
-25.13897 -1.037226 -0.8660548 0.0009576295 1.130402 
-25.10884 -1.034515 -0.8633434 0.0009576295 1.130402 
-25.0987 -1.033602 -0.8623288 0.0009576295 1.130402 
-25.08858 -1.033197 -0.8614182 0.0009576295 1.130402 
-25.07848 -1.032894 -0.8606098 0.0009576295 1.130402 
-25.06841 -1.032692 -0.8599051 0.0009576295 1.130402 
-25.05833 -1.032592 -0.8595021 0.0009576295 1.130402 
-25.02824 -1.030184 -0.8585992 0.003666353 1.130402 
-25.01816 -1.029478 -0.8583977 0.004573282 1.130402 
-25.02812 -1.029578 -0.8584972 0.003876424 1.130402 
-25.01806 -1.028572 -0.8584972 0.004580278 1.130402 
-25.00801 -1.027668 -0.8583967 0.005283798 1.130402 
-24.99796 -1.026864 -0.8581958 0.005986985 1.130402 
-24.98792 -1.026161 -0.8578945 0.006689839 1.130402 
-24.9779 -1.02576 -0.8574934 0.007391786 1.130402 
-24.96787 -1.02546 -0.8569923 0.008093345 1.130402 
-24.95786 -1.025259 -0.8563912 0.008093345 1.130402 
-24.94782 -1.025159 -0.8558894 0.008093345 1.130402 
-24.91776 -1.022754 -0.8546872 0.008093345 1.130402 
-24.92776 -1.023454 -0.854987 0.008093345 1.130402 
-24.91775 -1.022853 -0.8545867 0.008093345 1.130402 
-24.90774 -1.022153 -0.8542864 0.008093345 1.130402 
-24.89774 -1.021553 -0.8538862 0.008093345 1.130402 
-24.88774 -1.021053 -0.8533862 0.008093345 1.130402 
-24.87774 -1.020653 -0.8527865 0.008693009 1.130402 
-24.86775 -1.020353 -0.8520873 0.009292407 1.130402 
-24.85773 -1.020153 -0.8510854 0.0100939 1.130402 
-24.84775 -1.020053 -0.8501871 0.01069274 1.130402 
-24.81772 -1.017951 -0.847184 0.01309521 1.130402 
-24.80771 -1.01735 -0.846283 0.0136959 1.130402 
-24.79771 -1.01685 -0.8454829 0.01409593 1.130402 
-24.78772 -1.01645 -0.8447837 0.01469523 1.130402 
-24.77774 -1.016151 -0.8441851 0.01529385 1.130402 
-24.76778 -1.015952 -0.8436869 0.0158917 1.130402 
-24.75782 -1.015852 -0.8432887 0.0158917 1.130402 
-24.74785 -1.015054 -0.8429894 0.0158917 1.130402 
-24.75788 -1.015757 -0.8431902 0.0158917 1.130402 
-24.74795 -1.015161 -0.8430908 0.0158917 1.130402 
-24.73802 -1.014664 -0.8428922 0.0158917 1.130402 
-24.7281 -1.014267 -0.8425945 0.0158917 1.130402 
-24.71818 -1.013771 -0.8423961 0.0158917 1.130402 
-24.70826 -1.013375 -0.8420986 0.0158917 1.130402 
-24.69835 -1.013077 -0.8417021 0.0158917 1.130402 
-24.68844 -1.012879 -0.8412067 0.0158917 1.130402 
-24.67854 -1.01278 -0.8406126 0.0158917 1.130402 
-24.64861 -1.011882 -0.8397148 0.0158917 1.130402 
-24.63869 -1.011188 -0.8395163 0.01668555 1.130402 
-24.62881 -1.010595 -0.8394175 0.01727864 1.130402 
-24.61893 -1.010101 -0.8392199 0.01767388 1.130402 
-24.60905 -1.009706 -0.8389236 0.0180689 1.130402 
-24.59915 -1.009409 -0.8385279 0.0182668 1.130402 
-24.60932 -1.009815 -0.8388328 0.008102478 1.130402 
-24.61944 -1.010018 -0.8396425 0.007798839 1.130402 
-24.62955 -1.01022 -0.8404519 0.007394148 1.130402 
-26.61967 -1.050022 -0.999661 -0.09211153 1.130402 
-28.60898 -1.089809 -1.158806 -0.1716839 1.130402 
-30.59743 -1.149462 -1.337767 -0.2512222 1.130402 
-32.58514 -1.189216 -1.496783 -0.2909763 1.130402 
-34.57203 -1.248823 -1.635866 -0.3307141 1.130402 
-36.55814 -1.328267 -1.755032 -0.3307141 1.130402 
-38.54345 -1.427533 -1.854298 -0.3307141 1.130402 
-40.52796 -1.546604 -1.933678 -0.3307141 1.130402 
-42.51168 -1.685464 -1.99319 -0.3307141 1.130402 
-44.4946 -1.844097 -2.032848 -0.3307141 1.130402 
-46.4767 -1.923381 -2.052669 -0.3307141 1.130402 
-48.45778 -1.982814 -2.151723 -0.3307141 1.130402 
-50.43822 -2.062032 -2.27055 -0.3307141 0.9503617 
-52.41803 -2.08183 -2.36954 -0.3307141 0.7703797 
-54.39699 -2.121409 -2.527857 -0.3307141 0.5904738 
-56.37515 -2.180754 -2.666328 -0.3307141 0.4106411 
-58.35251 -2.259848 -2.78497 -0.3307141 0.2308812 
-60.329 -2.338908 -2.883795 -0.3307141 0.05119989 
-62.30471 -2.398179 -2.962823 -0.3307141 -0.1284102 
-64.27966 -2.437678 -3.022071 -0.3307141 -0.3478478 
-66.25381 -2.496903 -3.061554 -0.3307141 -0.6298706 
-68.22724 -2.536371 -3.081288 -0.3307141 -1.024556 
-70.19984 -2.556098 -3.12074 -0.3307141 -1.419076 
-70.15099 -2.5517 -3.119275 -0.3307141 -1.409304 
-70.12273 -2.54944 -3.11871 -0.330149 -1.409304 
-70.09451 -2.547464 -3.118427 -0.3293022 -1.409304 
-70.06642 -2.545779 -3.118427 -0.3284597 -1.409304 
-70.03834 -2.544375 -3.118146 -0.3270553 -1.409304 
-70.01023 -2.54325 -3.117584 -0.32565 -1.409304 
-69.98211 -2.541844 -3.116741 -0.3242441 -1.409304 
-69.95393 -2.540153 -3.116177 -0.3233985 -1.409304 
-69.92598 -2.538756 -3.115898 -0.3231191 -1.409304 
-69.89801 -2.537078 -3.115338 -0.32228 -1.409304 
-71.87003 -2.675119 -3.174499 -0.3814407 -1.409304 
-73.84103 -2.8328 -3.253339 -0.4602808 -1.409304 
-75.81126 -2.970716 -3.312446 -0.4996854 -1.409304 
-77.78086 -3.088892 -3.351838 -0.4996854 -1.409304 
-77.74968 -3.08858 -3.350591 -0.4996854 -1.409304 
-77.71851 -3.087957 -3.349656 -0.4996854 -1.409304 
-77.68736 -3.087022 -3.349032 -0.4996854 -1.409304 
-77.65613 -3.086085 -3.34872 -0.4996854 -1.409304 
-77.62505 -3.085464 -3.34872 -0.4996854 -1.409304 
-77.59397 -3.085153 -3.348409 -0.4996854 -1.409304 
-77.5629 -3.085153 -3.347788 -0.4996854 -1.409304 
-77.51179 -3.082597 -3.346766 -0.4996854 -1.409304 
-77.4807 -3.080732 -3.346455 -0.4996854 -1.409304 
-77.44962 -3.079178 -3.345833 -0.4996854 -1.409304 
-77.41845 -3.077931 -3.344898 -0.4996854 -1.409304 
-77.38742 -3.077 -3.344278 -0.4996854 -1.409304 
-77.3564 -3.07607 -3.343657 -0.4996854 -1.409304 
-75.32539 -3.015139 -3.303037 -0.4996854 -1.409304 
-73.2952 -2.954233 -3.262433 -0.4996854 -1.409304 
-71.26582 -2.893352 -3.24214 -0.4996854 -1.409304 
-69.23727 -2.81221 -3.24214 -0.4996854 -1.409304 
-69.22954 -2.811978 -3.242062 -0.4996854 -1.409304 
-69.20179 -2.811423 -3.241507 -0.4996854 -1.409304 
-69.17407 -2.810592 -3.24123 -0.4996854 -1.409304 
-69.14635 -2.810037 -3.240675 -0.4996854 -1.409304 
-69.11864 -2.809206 -3.240398 -0.4996854 -1.409304 
-69.11095 -2.808898 -3.240398 -0.4996854 -1.409304 
-69.08327 -2.808068 -3.240122 -0.4996854 -1.409304 
-69.0556 -2.807514 -3.239568 -0.4996854 -1.409304 
-69.02792 -2.807238 -3.238738 -0.4996854 -1.409304 
-69.00025 -2.806684 -3.238184 -0.4996854 -1.409304 
-68.9726 -2.805855 -3.237908 -0.4996854 -1.409304 
-68.94497 -2.804749 -3.237908 -0.4996854 -1.409304 
-68.91735 -2.803921 -3.237632 -0.4996854 -1.409304 
-68.88963 -2.803366 -3.2368 -0.4996854 -1.409304 
-68.86202 -2.80309 -3.236248 -0.4996854 -1.409304 
-68.85444 -2.802939 -3.236172 -0.4996854 -1.409304 
-68.82703 -2.800472 -3.23535 -0.4996854 -1.409304 
-68.79919 -2.798245 -3.234793 -0.4996854 -1.404664 
-68.77139 -2.795743 -3.234515 -0.4996854 -1.401189 
-68.74373 -2.79353 -3.234515 -0.4996854 -1.397731 
-68.71597 -2.791587 -3.234238 -0.4996854 -1.394262 
-68.70844 -2.791136 -3.234238 -0.4996854 -1.393321 
-68.68098 -2.789214 -3.233963 -0.4996854 -1.389889 
-68.6534 -2.787007 -3.233411 -0.4996854 -1.385292 
-68.62543 -2.78449 -3.232572 -0.4996854 -1.380631 
-68.59782 -2.781729 -3.231468 -0.4996854 -1.380631 
-68.57022 -2.778969 -3.230364 -0.4996854 -1.380631 
-68.5627 -2.778668 -3.230063 -0.4996854 -1.380631 
-68.53511 -2.775909 -3.228959 -0.4996854 -1.380631 
-68.50753 -2.773151 -3.227856 -0.4996854 -1.380631 
-68.47997 -2.770395 -3.226753 -0.4996854 -1.380631 
-70.45251 -2.967649 -3.305655 -0.4996854 -1.380631 
-72.42403 -3.164802 -3.423947 -0.4996854 -1.380631 
-74.39483 -3.263341 -3.522486 -0.4996854 -1.380631 
-76.36483 -3.381541 -3.601286 -0.4996854 -1.380631 
-78.33406 -3.480003 -3.660363 -0.4996854 -1.380631 
-80.30253 -3.558741 -3.699733 -0.4996854 -1.380631 
-82.27035 -3.617776 -3.719411 -0.4996854 -1.380631 
-84.23738 -3.696457 -3.719411 -0.4996854 -1.380631 
-86.20363 -3.755445 -3.739073 -0.4996854 -1.380631 
-88.16909 -3.794754 -3.778382 -0.4996854 -1.380631 
-90.13376 -3.814401 -3.837322 -0.4996854 -1.380631 
-92.09764 -3.853678 -3.8766 -0.4996854 -1.380631 
-94.06074 -3.912571 -3.896231 -0.4996854 -1.380631 
-96.02305 -3.951818 -3.935477 -0.4996854 -1.380631 
-97.98432 -4.128333 -3.994316 -0.4996854 -1.380631 
-99.94483 -4.285173 -4.033526 -0.4996854 -1.380631 
-101.9046 -4.422356 -4.053123 -0.4996854 -1.380631 
-103.8637 -4.539904 -4.053123 -0.4996854 -1.380631 
-105.8221 -4.618238 -4.072707 -0.4996854 -1.380631 
-107.7796 -4.676965 -4.111859 -0.4996854 -1.380631 
-109.7364 -4.716101 -4.170563 -0.4996854 -1.380631 
-111.6925 -4.735662 -4.248803 -0.4996854 -1.380631 
-111.6276 -4.732418 -4.24556 -0.4996854 -1.380631 
-111.5827 -4.730625 -4.242869 -0.4996854 -1.380631 
-111.5379 -4.72928 -4.239732 -0.4996854 -1.380631 
-111.4931 -4.728384 -4.236148 -0.4996854 -1.380631 
-111.4684 -4.728136 -4.233919 -0.4996854 -1.380631 
-111.4034 -4.725537 -4.227421 -0.4996854 -1.380631 
-111.3585 -4.724189 -4.223379 -0.4996854 -1.380631 
-111.3136 -4.723292 -4.21979 -0.4996854 -1.380631 
-111.2688 -4.722844 -4.216654 -0.4996854 -1.380631 
-111.204 -4.7209 -4.212766 -0.4996854 -1.380631 
-111.1592 -4.720005 -4.210528 -0.4996854 -1.380631 
-111.1347 -4.719759 -4.209546 -0.4996854 -1.380631 
-111.0699 -4.717817 -4.206309 -0.4996854 -1.380631 
-111.0253 -4.716923 -4.204522 -0.4996854 -1.380631 
-110.9806 -4.716477 -4.203184 -0.4996854 -1.380631 
-110.916 -4.712596 -4.20189 -0.4996854 -1.380631 
-110.8715 -4.710371 -4.201445 -0.4996854 -1.380631 
-110.827 -4.708593 -4.200556 -0.4996854 -1.380631 
-110.7826 -4.70726 -4.199223 -0.4996854 -1.380631 
-110.7381 -4.706371 -4.197445 -0.4996854 -1.380631 
-110.6937 -4.705927 -4.195225 -0.4996854 -1.380631 
-110.6291 -4.702049 -4.191347 -0.4996854 -1.380631 
-110.5844 -4.698031 -4.189115 -0.4996854 -1.380631 
-110.5398 -4.694463 -4.187331 -0.4996854 -1.380631 
-110.4954 -4.691355 -4.185998 -0.4996854 -1.380631 
-110.4509 -4.688684 -4.184217 -0.4996854 -1.380631 
-110.4065 -4.68646 -4.182883 -0.4996854 -1.380631 
-110.3622 -4.684689 -4.181998 -0.4996854 -1.380631 
-110.3378 -4.683957 -4.181266 -0.4996854 -1.380631 
-110.2933 -4.679954 -4.180376 -0.4996854 -1.380631 
-110.2488 -4.676394 -4.177705 -0.4996854 -1.380631 
-110.2045 -4.673291 -4.175489 -0.4996854 -1.380631 
-110.1602 -4.670633 -4.172832 -0.4996854 -1.380631 
-110.136 -4.670149 -4.171136 -0.4996854 -1.380631 
-110.0916 -4.666601 -4.167588 -0.4996854 -1.380631 
-110.0674 -4.666117 -4.165409 -0.4996854 -1.380631 
-110.0231 -4.663017 -4.161866 -0.4996854 -1.380631 
-109.9787 -4.659463 -4.158757 -0.4996854 -1.380631 
-109.9343 -4.656358 -4.156096 -0.4996854 -1.380631 
-109.8902 -4.653708 -4.153887 -0.4996854 -1.380631 
-109.846 -4.650619 -4.152122 -0.4996854 -1.380631 
-109.8019 -4.647088 -4.150798 -0.4996854 -1.380631 
-109.7578 -4.643116 -4.149915 -0.4996854 -1.380631 
-109.7135 -4.639578 -4.148146 -0.4996854 -1.380631 
-109.6693 -4.636483 -4.14682 -0.4979168 -1.380631 
-109.6652 -4.636234 -4.146737 -0.4977507 -1.380631 
-109.6411 -4.635028 -4.146495 -0.4965448 -1.380631 
-109.6169 -4.634063 -4.145772 -0.4950973 -1.380631 
-109.5729 -4.63274 -4.14489 -0.492011 -1.380631 
-109.5289 -4.631862 -4.144451 -0.4889377 -1.380631 
-109.4852 -4.630551 -4.14314 -0.4867528 -1.380631 
-109.4416 -4.629677 -4.142266 -0.4845681 -1.373349 
-109.3975 -4.628356 -4.140065 -0.4823669 -1.366011 
-109.3536 -4.627477 -4.137426 -0.4801684 -1.358683 
-109.3093 -4.627035 -4.135215 -0.4788417 -1.347627 
-109.2453 -4.623833 -4.132654 -0.4762802 -1.334819 
-109.2013 -4.622072 -4.130452 -0.4762802 -1.326011 
-109.1572 -4.620751 -4.12781 -0.4762802 -1.318675 
-109.1133 -4.619874 -4.124738 -0.4762802 -1.313189 
-109.0692 -4.619432 -4.121208 -0.4762802 -1.307672 
-109.0051 -4.611735 -4.115435 -0.4762802 -1.307672 
-108.9613 -4.606918 -4.111931 -0.4762802 -1.307672 
-108.9172 -4.601627 -4.107963 -0.4762802 -1.307672 
-108.8732 -4.596783 -4.10444 -0.4762802 -1.307672 
-108.8292 -4.592384 -4.101361 -0.4762802 -1.307672 
-108.7852 -4.58843 -4.098725 -0.4762802 -1.307672 
-108.7415 -4.584931 -4.096975 -0.4762802 -1.307672 
-108.6978 -4.581872 -4.09479 -0.4762802 -1.307672 
-108.6541 -4.57925 -4.092168 -0.4762802 -1.307672 
-108.6104 -4.577066 -4.08911 -0.4762802 -1.307672 
-108.5667 -4.57532 -4.085618 -0.4762802 -1.307672 
-108.5431 -4.574611 -4.083491 -0.4762802 -1.307672 
-108.5195 -4.574138 -4.081128 -0.4762802 -1.307672 
-108.4759 -4.573702 -4.076331 -0.4762802 -1.307672 
-108.4121 -4.567964 -4.06868 -0.4762802 -1.307672 
-108.3682 -4.564455 -4.062978 -0.4762802 -1.307672 
-108.3246 -4.561402 -4.060797 -0.4762802 -1.307672 
-108.2811 -4.558789 -4.059055 -0.4714899 -1.307672 
-108.2376 -4.556613 -4.05688 -0.467574 -1.307672 
-108.1941 -4.554874 -4.054272 -0.4636612 -1.307672 
-108.1506 -4.553568 -4.051223 -0.4588701 -1.307672 
-108.1071 -4.552699 -4.047748 -0.4588701 -1.307672 
-108.0637 -4.552265 -4.043841 -0.4588701 -1.307672 
-108 -4.545893 -4.036831 -0.4588701 -1.307672 
-107.9561 -4.537562 -4.032447 -0.4588701 -1.307672 
-107.9123 -4.52968 -4.028506 -0.4588701 -1.307672 
-107.8686 -4.522244 -4.025007 -0.4588701 -1.307672 
-107.8249 -4.515254 -4.021949 -0.4588701 -1.307672 
-107.7813 -4.508709 -4.019331 -0.4588701 -1.307672 
-107.7377 -4.502607 -4.017152 -0.4588701 -1.307672 
-107.7343 -4.502166 -4.017016 -0.4588701 -1.307672 
-107.6907 -4.495627 -4.0144 -0.4588701 -1.307672 
-107.6472 -4.489531 -4.012223 -0.4588701 -1.307672 
-107.6039 -4.489098 -4.010492 -0.4588701 -1.307672 
-107.5406 -4.482135 -4.008593 -0.4588701 -1.307672 
-107.4973 -4.477808 -4.006862 -0.4588701 -1.307672 
-107.4541 -4.473916 -4.0047 -0.4588701 -1.307672 
-107.4108 -4.470452 -4.002534 -0.4588701 -1.307672 
-107.3676 -4.467432 -4.000809 -0.4567131 -1.307672 
-107.3245 -4.463981 -3.999514 -0.453693 -1.307672 
-107.3214 -4.46373 -3.999452 -0.4534737 -1.307672 
-107.2782 -4.460712 -3.998158 -0.4508865 -1.307672 
-107.2351 -4.458126 -3.996434 -0.4483005 -1.307672 
-107.1921 -4.455972 -3.99428 -0.4457156 -1.307672 
-107.149 -4.45425 -3.991696 -0.4431319 -1.307672 
-107.106 -4.452959 -3.988683 -0.4405493 -1.307672 
-107.0829 -4.452497 -3.986838 -0.4391654 -1.307672 
-107.0399 -4.452067 -3.982968 -0.4391654 -1.307672 
-106.9766 -4.443833 -3.976634 -0.4391654 -1.307672 
-106.9333 -4.438639 -3.972738 -0.4391654 -1.307672 
-106.89 -4.433884 -3.96928 -0.4391654 -1.307672 
-106.8469 -4.429566 -3.966257 -0.4391654 -1.307672 
-106.8037 -4.425684 -3.96367 -0.4391654 -1.307672 
-106.7607 -4.422238 -3.961516 -0.4391654 -1.307672 
-106.7176 -4.419224 -3.958932 -0.4391654 -1.307672 
-106.6746 -4.416644 -3.956782 -0.4391654 -1.307672 
-106.6316 -4.414496 -3.955064 -0.4391654 -1.307672 
-106.5889 -4.412786 -3.95378 -0.4391654 -1.307672 
-106.5461 -4.411503 -3.95207 -0.4391654 -1.307672 
-106.5034 -4.410648 -3.949933 -0.4391654 -1.307672 
-106.4606 -4.410221 -3.94737 -0.4391654 -1.307672 
-106.3977 -4.407705 -3.942967 -0.4391654 -1.307672 
-106.3551 -4.406425 -3.941261 -0.4391654 -1.307672 
-106.3124 -4.405572 -3.939127 -0.4370318 -1.307672 
-106.2698 -4.405146 -3.936569 -0.4348998 -1.307672 
-106.2069 -4.402001 -3.930279 -0.4304969 -1.307672 
-106.164 -4.400287 -3.926422 -0.4274971 -1.307672 
-106.1213 -4.399004 -3.923 -0.4253585 -1.307672 
-106.0785 -4.398149 -3.920009 -0.4223668 -1.307672 
-106.0358 -4.397721 -3.916591 -0.4193764 -1.307672 
-105.9731 -4.396467 -3.912201 -0.4149862 -1.307672 
-105.9706 -4.396441 -3.91205 -0.41486 -1.307672 
-105.9077 -4.388267 -3.907648 -0.4123448 -1.307672 
-105.8649 -4.383131 -3.90508 -0.4114888 -1.307672 
-105.8622 -4.382841 -3.904948 -0.4114361 -1.307672 
-105.8196 -4.378578 -3.90239 -0.4110098 -1.307672 
-105.777 -4.374743 -3.899408 -0.4110098 -1.307672 
-105.7344 -4.371337 -3.896002 -0.4110098 -1.307672 
-105.6919 -4.368358 -3.892171 -0.4110098 -1.307672 
-105.6493 -4.365805 -3.887916 -0.4110098 -1.307672 
-105.6068 -4.363679 -3.883239 -0.4110098 -1.307672 
-105.5643 -4.361979 -3.878138 -0.4110098 -1.307672 
-105.5218 -4.360704 -3.872614 -0.4110098 -1.307672 
-105.4793 -4.359855 -3.866669 -0.4110098 -1.307672 
-105.4369 -4.35943 -3.860301 -0.4110098 -1.307672 
-105.3742 -4.352537 -3.853408 -0.4110098 -1.307672 
-105.3315 -4.345703 -3.849137 -0.4110098 -1.307672 
-105.2888 -4.339303 -3.845297 -0.4110098 -1.307672 
-105.2663 -4.337502 -3.843496 -0.4110098 -1.307672 
-105.2237 -4.331112 -3.840514 -0.4110098 -1.307672 
-105.1812 -4.325154 -3.837961 -0.4110098 -1.307672 
-105.1387 -4.319629 -3.835835 -0.4110098 -1.307672 
-105.0962 -4.314534 -3.834137 -0.4110098 -1.307672 
-105.0539 -4.309885 -3.833292 -0.4110098 -1.307672 
-105.0318 -4.308777 -3.832627 -0.4110098 -1.307672 
-104.9895 -4.307086 -3.830936 -0.4110098 -1.307672 
-104.9473 -4.30582 -3.829669 -0.4110098 -1.307672 
-104.9052 -4.304978 -3.828828 -0.4110098 -1.307672 
-104.8632 -4.304558 -3.827567 -0.4110098 -1.307672 
-104.801 -4.301447 -3.825078 -0.4110098 -1.307672 
-104.7589 -4.297655 -3.823814 -0.4110098 -1.307672 
-104.7168 -4.294709 -3.822131 -0.4110098 -1.307672 
-104.6747 -4.292184 -3.820027 -0.4110098 -1.307672 
-104.6325 -4.290075 -3.817496 -0.4110098 -1.307672 
-104.5904 -4.28839 -3.81539 -0.4110098 -1.307672 
-104.5484 -4.287131 -3.813712 -0.4110098 -1.307672 
-104.5065 -4.286293 -3.811615 -0.4110098 -1.307672 
-104.4647 -4.285874 -3.81036 -0.4110098 -1.307672 
-104.4028 -4.285255 -3.807885 -0.406678 -1.307672 
-104.3408 -4.284636 -3.804785 -0.4023383 -1.307672 
-104.2988 -4.282955 -3.803105 -0.3993979 -1.307672 
-104.2567 -4.280013 -3.801843 -0.3964552 -1.307672 
-104.2748 -4.281094 -3.802204 -0.3973562 -1.307672 
-104.2328 -4.278996 -3.801784 -0.3956778 -1.307672 
-104.191 -4.277325 -3.801784 -0.3948424 -1.307672 
-104.1493 -4.276073 -3.801367 -0.3940076 -1.307672 
-104.1076 -4.275239 -3.800532 -0.3923385 -1.307672 
-104.1058 -4.275221 -3.800479 -0.3922329 -1.307672 
-104.0439 -4.272743 -3.796143 -0.3922329 -1.307672 
-104.0218 -4.270542 -3.794822 -0.3922329 -1.307672 
-103.98 -4.268867 -3.792728 -0.3922329 -1.307672 
-103.9381 -4.267612 -3.791055 -0.3922329 -1.307672 
-103.8963 -4.266776 -3.789384 -0.3922329 -1.307672 
-103.8746 -4.265473 -3.788732 -0.3917986 -1.307672 
-103.8528 -4.264382 -3.787859 -0.3913622 -1.307672 
-103.8311 -4.263515 -3.787209 -0.3907123 -1.307672 
-105.7895 -4.322266 -3.865543 -0.4690462 -1.307672 
-107.747 -4.400568 -3.92427 -0.5277729 -1.307672 
-109.7038 -4.45927 -4.080807 -0.5864742 -1.307672 
-111.6597 -4.498388 -4.256839 -0.6451517 -1.307672 
-111.6147 -4.494335 -4.255037 -0.6451517 -1.307672 
-111.5697 -4.490736 -4.253688 -0.6451517 -1.307672 
-111.5247 -4.487591 -4.252789 -0.6451517 -1.307672 
-111.4799 -4.484899 -4.252341 -0.6451517 -1.307672 
-111.4352 -4.482664 -4.252341 -0.6451517 -1.307672 
-111.3905 -4.480877 -4.251894 -0.6451517 -1.307672 
-111.3459 -4.479538 -4.251001 -0.6451517 -1.307672 
-111.3212 -4.477808 -4.250259 -0.6451517 -1.307672 
-111.2764 -4.475125 -4.248471 -0.6451517 -1.307672 
-111.2318 -4.47289 -4.246237 -0.6451517 -1.307672 
-111.187 -4.471098 -4.243548 -0.6451517 -1.307672 
-111.1422 -4.469755 -4.241311 -0.6451517 -1.307672 
-111.1174 -4.467771 -4.240318 -0.6451517 -1.307672 
-111.0726 -4.463739 -4.238975 -0.6451517 -1.307672 
-111.0278 -4.460159 -4.23808 -0.6451517 -1.307672 
-110.9831 -4.457031 -4.237633 -0.6451517 -1.307672 
-110.9389 -4.454378 -4.23498 -0.6451517 -1.307672 
-110.8942 -4.452144 -4.232746 -0.6451517 -1.296501 
-110.8496 -4.450357 -4.230066 -0.6451517 -1.285335 
-110.8049 -4.449018 -4.226941 -0.6451517 -1.274174 
-110.7603 -4.448125 -4.223371 -0.6451517 -1.263018 
-110.7157 -4.447679 -4.219356 -0.6451517 -1.251867 
-110.6508 -4.441189 -4.212866 -0.6451517 -1.235643 
-110.6064 -4.439856 -4.208866 -0.6451517 -1.224531 
-110.5616 -4.438066 -4.204391 -0.6451517 -1.213345 
-110.5171 -4.436729 -4.200382 -0.6451517 -1.202208 
-110.4524 -4.432202 -4.195208 -0.6451517 -1.186038 
-110.3677 -4.426271 -4.180804 -0.6451517 -1.169093 
-110.3229 -4.423137 -4.174088 -0.6451517 -1.157899 
-110.2582 -4.419256 -4.165033 -0.6451517 -1.141729 
-110.2132 -4.416554 -4.158728 -0.6451517 -1.132722 
-110.1886 -4.415082 -4.155537 -0.6451517 -1.132722 
-110.1441 -4.412857 -4.150197 -0.6451517 -1.132722 
-110.0998 -4.411084 -4.145322 -0.6451517 -1.132722 
-110.0555 -4.409755 -4.140007 -0.6451517 -1.132722 
-110.0112 -4.40887 -4.134251 -0.6451517 -1.132722 
-109.967 -4.408427 -4.128055 -0.6451517 -1.132722 
-109.9025 -4.404559 -4.118383 -0.6451517 -1.132722 
-109.8581 -4.403227 -4.11217 -0.6451517 -1.132722 
-109.8139 -4.402343 -4.106425 -0.6451517 -1.132722 
-109.7696 -4.4019 -4.100222 -0.6451517 -1.132722 
-109.7056 -4.40062 -4.097661 -0.6451517 -1.132722 
-109.6616 -4.40018 -4.096341 -0.639871 -1.132722 
-109.5974 -4.397613 -4.093773 -0.6334527 -1.132722 
-109.5533 -4.395405 -4.092449 -0.6299205 -1.132722 
-109.5092 -4.393641 -4.091567 -0.6272748 -1.132722 
-109.4852 -4.393401 -4.091327 -0.6263155 -1.132722 
-109.441 -4.39031 -4.088677 -0.624549 -1.132722 
-109.3969 -4.387663 -4.086472 -0.6227847 -1.132722 
-109.4129 -4.388461 -4.08711 -0.6234228 -1.132722 
-109.4088 -4.388217 -4.086988 -0.6232199 -1.132722 
-109.3847 -4.387013 -4.086506 -0.6217743 -1.132722 
-109.3407 -4.385254 -4.086067 -0.6217743 -1.132722 
-109.2971 -4.383944 -4.083447 -0.6217743 -1.132722 
-109.2531 -4.383065 -4.080372 -0.6217743 -1.127231 
-109.2092 -4.382626 -4.076859 -0.6217743 -1.121742 
-109.1451 -4.377499 -4.071091 -0.6217743 -1.113731 
-109.1012 -4.374424 -4.067577 -0.6217743 -1.10641 
-109.0572 -4.371342 -4.064054 -0.6217743 -1.097602 
-109.0132 -4.369582 -4.060534 -0.6217743 -1.090269 
-108.9893 -4.368625 -4.058619 -0.6217743 -1.086849 
-108.9453 -4.366866 -4.0551 -0.6217743 -1.082452 
-108.9014 -4.365548 -4.052026 -0.6217743 -1.078059 
-108.8573 -4.364667 -4.049383 -0.6217743 -1.073655 
-108.8135 -4.36423 -4.047194 -0.6217743 -1.073655 
-108.7497 -4.361678 -4.044643 -0.6217743 -1.073655 
-108.706 -4.359051 -4.043329 -0.6217743 -1.073655 
-108.6622 -4.356864 -4.042455 -0.6217743 -1.073655 
-108.6185 -4.355116 -4.042018 -0.6217743 -1.073655 
-108.5748 -4.353803 -4.038078 -0.6217743 -1.073655 
-108.5512 -4.353568 -4.036192 -0.6217743 -1.073655 
-108.5075 -4.350073 -4.033134 -0.6217743 -1.073655 
-108.4638 -4.347017 -4.029642 -0.6217743 -1.073655 
-108.4202 -4.344399 -4.025714 -0.6217743 -1.073655 
-108.3766 -4.342218 -4.021352 -0.6217743 -1.073655 
-108.333 -4.340474 -4.016556 -0.6217743 -1.073655 
-108.2894 -4.339166 -4.011326 -0.6217743 -1.073655 
-108.2655 -4.336543 -4.008225 -0.6217743 -1.073655 
-108.2217 -4.331278 -4.002083 -0.6217743 -1.073655 
-108.1778 -4.326458 -3.996387 -0.6217743 -1.073655 
-108.1341 -4.322081 -3.991134 -0.6217743 -1.073655 
-108.0904 -4.318146 -3.986325 -0.6217743 -1.073655 
-108.0467 -4.314653 -3.981959 -0.6217743 -1.073655 
-108.0031 -4.3116 -3.978033 -0.6217743 -1.073655 
-107.9595 -4.308986 -3.974548 -0.6217743 -1.073655 
-107.9161 -4.306817 -3.971511 -0.6217743 -1.073655 
-107.8728 -4.305082 -3.968042 -0.6217743 -1.073655 
-107.8294 -4.303782 -3.96414 -0.6217743 -1.073655 
-107.8059 -4.301897 -3.961784 -0.6217743 -1.073655 
-107.7623 -4.298851 -3.957868 -0.6217743 -1.073655 
-107.7189 -4.296243 -3.95439 -0.6217743 -1.073655 
-107.6756 -4.294078 -3.95136 -0.6217743 -1.073655 
-107.6323 -4.292347 -3.947898 -0.6217743 -1.073655 
-107.5892 -4.291054 -3.944018 -0.6217743 -1.073655 
-107.5461 -4.289329 -3.939705 -0.6217743 -1.073655 
-107.5027 -4.287158 -3.93493 -0.6217743 -1.073655 
-107.4594 -4.285429 -3.930608 -0.6217743 -1.073655 
-107.4162 -4.283269 -3.92672 -0.6217743 -1.073655 
-107.3929 -4.281869 -3.924854 -0.6217743 -1.073655 
-107.3496 -4.279705 -3.921824 -0.6217743 -1.073655 
-107.3064 -4.278409 -3.919231 -0.6217743 -1.073655 
-107.2634 -4.277548 -3.917079 -0.6217743 -1.073655 
-107.2204 -4.277118 -3.914497 -0.6217743 -1.073655 
-107.1571 -4.27269 -3.91007 -0.6217743 -1.073655 
-107.1139 -4.270099 -3.907479 -0.6217743 -1.073655 
-107.0708 -4.267941 -3.905322 -0.6217743 -1.073655 
-107.0277 -4.266218 -3.903598 -0.6217743 -1.073655 
-106.9846 -4.264926 -3.902307 -0.6217743 -1.073655 
-106.9418 -4.264069 -3.901449 -0.6217743 -1.073655 
-106.8989 -4.26364 -3.900164 -0.6217743 -1.073655 
-106.8359 -4.259225 -3.897641 -0.6217743 -1.073655 
-106.773 -4.25734 -3.895756 -0.6217743 -1.073655 
-106.7304 -4.25606 -3.894476 -0.6217743 -1.073655 
-106.6877 -4.254353 -3.892768 -0.6217743 -1.073655 
-106.645 -4.252217 -3.890633 -0.6217743 -1.073655 
-106.602 -4.249638 -3.888054 -0.6217743 -1.073655 
-106.559 -4.246628 -3.885044 -0.6217743 -1.073655 
-106.516 -4.244051 -3.882467 -0.6217743 -1.073655 
-106.4731 -4.241907 -3.880322 -0.6217743 -1.073655 
-106.4303 -4.240193 -3.878608 -0.6217743 -1.073655 
-106.3875 -4.238909 -3.877324 -0.6217743 -1.073655 
-106.3447 -4.238054 -3.876469 -0.6217743 -1.073655 
-106.3222 -4.237828 -3.876243 -0.6217743 -1.073655 
-106.2595 -4.23344 -3.87499 -0.6217743 -1.073655 
-106.2168 -4.230025 -3.873709 -0.6217743 -1.073655 
-106.1741 -4.227038 -3.872002 -0.6217743 -1.073655 
-106.1314 -4.224479 -3.869869 -0.6217743 -1.073655 
-106.0888 -4.222347 -3.867311 -0.6217743 -1.073655 
-106.0462 -4.220643 -3.864328 -0.6217743 -1.073655 
-106.0036 -4.219365 -3.86092 -0.6217743 -1.073655 
-105.9809 -4.218455 -3.858874 -0.6217743 -1.073655 
-105.9382 -4.217175 -3.855458 -0.6217743 -1.073655 
-105.9154 -4.215355 -3.853866 -0.6217743 -1.073655 
-105.8728 -4.214076 -3.851308 -0.6217743 -1.073655 
-105.8302 -4.213224 -3.849178 -0.6217743 -1.073655 
-105.7878 -4.2128 -3.847481 -0.6217743 -1.073655 
-105.7253 -4.210301 -3.844358 -0.6217743 -1.073655 
-105.6829 -4.209453 -3.841813 -0.6217743 -1.073655 
-105.6404 -4.209027 -3.838836 -0.6217743 -1.073655 
-105.5779 -4.205905 -3.83509 -0.6217743 -1.073655 
-105.5154 -4.200281 -3.830715 -0.6217743 -1.073655 
-105.473 -4.196459 -3.827743 -0.6217743 -1.073655 
-105.4305 -4.192639 -3.824771 -0.6217743 -1.073655 
-105.3881 -4.18882 -3.821801 -0.6217743 -1.073655 
-107.3456 -4.364992 -3.958824 -0.6217743 -1.073655 
-109.3023 -4.541094 -4.056658 -0.6217743 -1.073655 
-111.2582 -4.697569 -4.134895 -0.6217743 -1.073655 
-113.2134 -4.834431 -4.193551 -0.6217743 -1.073655 
-115.1679 -4.951705 -4.232642 -0.6217743 -1.073655 
-117.1217 -5.049393 -4.291255 -0.6217743 -1.073655 
-119.0747 -5.127513 -4.369375 -0.6217743 -1.073655 
-121.0269 -5.186079 -4.466985 -0.6217743 -1.073655 
-122.9784 -5.22511 -4.525532 -0.6217743 -1.073655 
-124.9291 -5.244617 -4.603559 -0.7583224 -1.073655 
-124.8588 -5.2411 -4.600042 -0.7533981 -1.073655 
-124.8085 -5.239088 -4.59803 -0.7498768 -1.073655 
-124.7583 -5.237581 -4.596523 -0.7473661 -1.073655 
-124.708 -5.236577 -4.59351 -0.7448547 -1.073655 
-124.658 -5.236076 -4.591009 -0.7423535 -1.073655 
-124.608 -5.235076 -4.589009 -0.7408535 -1.073655 
-124.5581 -5.233579 -4.587511 -0.7403542 -1.073655 
-126.5081 -5.31158 -4.626512 -0.7988549 -1.073655 
-128.4574 -5.370058 -4.684989 -0.8378401 -1.073655 
-130.4058 -5.409027 -4.762928 -0.8768095 -1.073655 
-132.3536 -5.428504 -4.860314 -0.8962867 -1.073655 
-132.2803 -5.427038 -4.855916 -0.8948206 -1.073655 
-134.2271 -5.543849 -4.953258 -0.8948206 -1.073655 
-136.1732 -5.641153 -5.070022 -0.8948206 -1.073655 
-138.1185 -5.718965 -5.206192 -0.8948206 -1.073655 
-140.063 -5.7773 -5.361753 -0.8948206 -1.073655 
-142.0067 -5.816175 -5.536689 -0.8948206 -1.073655 
-143.9499 -5.835607 -5.614418 -0.8948206 -1.073655 
-145.8922 -5.874452 -5.672685 -1.069623 -1.073655 
-147.8336 -5.932696 -5.711514 -1.205526 -1.073655 
-149.7743 -6.010324 -5.730921 -1.30256 -1.073655 
-151.7143 -6.107321 -5.730921 -1.360759 -1.073655 
-153.6535 -6.184887 -5.750313 -1.418934 -1.073655 
-155.5918 -6.243039 -5.789081 -1.477085 -1.073655 
-157.5292 -6.320534 -5.905323 -1.515833 -1.073655 
-159.4657 -6.37863 -6.002149 -1.593294 -1.073655 
-161.4016 -6.417347 -6.079583 -1.632011 -1.073655 
-163.337 -6.436701 -6.137644 -1.670718 -1.073655 
-163.2513 -6.432418 -6.134218 -1.667292 -1.073655 
-165.1854 -6.625826 -6.230922 -1.705974 -1.073655 
-167.1187 -6.799828 -6.308256 -1.725307 -1.073655 
-167.0512 -6.79173 -6.305557 -1.725307 -1.073655 
-166.9838 -6.784316 -6.303535 -1.725307 -1.073655 
-166.9165 -6.777583 -6.302188 -1.725307 -1.073655 
-166.8492 -6.771531 -6.301516 -1.725307 -1.073655 
-166.7818 -6.76614 -6.29545 -1.725307 -1.073655 
-166.7151 -6.761467 -6.294783 -1.725307 -1.073655 
-166.6481 -6.75745 -6.293444 -1.72062 -1.073655 
-166.5812 -6.754101 -6.291434 -1.715932 -1.073655 
-166.5343 -6.752225 -6.289089 -1.713586 -1.073655 
-166.4671 -6.745512 -6.285061 -1.71023 -1.073655 
-166.3999 -6.739461 -6.280354 -1.708212 -1.073655 
-166.3327 -6.734088 -6.276325 -1.706198 -1.073655 
-166.2857 -6.730795 -6.273973 -1.704786 -1.073655 
-166.2389 -6.727985 -6.2721 -1.702914 -1.073655 
-166.1721 -6.723311 -6.270097 -1.70091 -1.073655 
-166.1053 -6.71797 -6.268762 -1.698907 -1.073655 
-166.0386 -6.713299 -6.26676 -1.696905 -1.073655 
-165.9719 -6.709297 -6.264091 -1.694904 -1.073655 
-165.9251 -6.706959 -6.261754 -1.693502 -1.073655 
-167.8585 -6.784294 -6.377756 -1.693502 -1.073655 
-169.7911 -6.842271 -6.513037 -1.693502 -1.073655 
-171.7229 -6.880908 -6.667582 -1.693502 -1.073655 
-173.6539 -6.900218 -6.841376 -1.693502 -1.073655 
-173.564 -6.891228 -6.835083 -1.693502 -1.073655 
-173.4941 -6.884937 -6.832286 -1.687211 -1.073655 
-173.4243 -6.879353 -6.828796 -1.682325 -1.073655 
-173.3546 -6.874468 -6.82461 -1.67744 -1.073655 
-173.2848 -6.870284 -6.819727 -1.672558 -1.073655 
-173.2151 -6.866798 -6.81415 -1.667678 -1.073655 
-173.1454 -6.86401 -6.807878 -1.6628 -1.073655 
-173.0756 -6.861915 -6.800893 -1.65791 -1.073655 
-173.0261 -6.860926 -6.795454 -1.65791 -1.073655 
-172.9565 -6.860229 -6.787096 -1.654428 -1.073655 
-172.8667 -6.855742 -6.775428 -1.651736 -1.073655 
-172.8171 -6.853756 -6.768478 -1.651239 -1.073655 
-174.7469 -7.027443 -7.038659 -1.670538 -1.073655 
-176.6762 -7.16249 -7.270167 -1.728415 -1.073655 
-178.6048 -7.278207 -7.482314 -1.728415 -1.073655 
-180.5326 -7.374601 -7.675102 -1.728415 -1.073655 
-182.4598 -7.451687 -7.848546 -1.728415 -1.073655 
-184.3862 -7.50948 -8.00266 -1.728415 -1.073655 
-186.312 -7.547994 -8.13746 -1.728415 -1.073655 
-188.2372 -7.567246 -8.252975 -1.728415 -1.073655 
-190.1617 -7.605736 -8.349198 -1.728415 -1.073655 
-192.0854 -7.663447 -8.426147 -1.728415 -1.073655 
-194.0083 -7.740364 -8.483834 -1.728415 -1.073655 
-195.9304 -7.89413 -8.522276 -1.728415 -1.073655 
-197.8517 -8.047836 -8.54149 -1.728415 -1.073655 
-199.7719 -8.220655 -8.73351 -1.728415 -1.073655 
-201.6911 -8.37419 -8.906237 -1.728415 -1.347824 
-203.6095 -8.508482 -9.059712 -1.728415 -1.621888 
-205.5273 -8.623546 -9.193954 -1.728415 -1.895849 
-207.4443 -8.719396 -9.308973 -1.728415 -2.169706 
-209.3608 -8.796055 -9.404798 -1.728415 -2.44349 
-211.2764 -8.853525 -9.538896 -1.728415 -2.826626 
-213.1913 -8.930121 -9.65379 -1.728415 -3.209607 
-215.1055 -8.987544 -9.787777 -1.728415 -3.592427 
-217.019 -9.025816 -9.940864 -1.728415 -3.975144 
-218.9316 -9.178819 -10.11299 -1.728415 -4.35765 
-220.8412 -9.350686 -10.30396 -1.728415 -4.739578 
-222.7522 -9.503566 -10.47594 -1.728415 -4.739578 
-224.6622 -9.637261 -10.64784 -1.728415 -4.739578 
-226.5714 -9.751816 -10.80058 -1.728415 -4.739578 
-228.4799 -9.847243 -10.93418 -1.728415 -4.739578 
-230.3878 -9.923557 -11.04865 -1.728415 -4.739578 
-232.295 -9.980772 -11.14401 -1.728415 -4.739578 
-234.2014 -10.03797 -11.22026 -1.728415 -4.739578 
-236.1073 -10.13326 -11.31556 -1.728415 -4.739578 
-238.0128 -10.20948 -11.42989 -1.728415 -4.739578 
-239.917 -10.30469 -11.56319 -1.728415 -4.739578 
-241.8202 -10.39985 -11.67738 -1.728415 -4.739578 
-243.7232 -10.43791 -11.77253 -1.728415 -4.739578 
-245.6256 -10.49498 -11.8296 -1.728415 -4.739578 
-247.527 -10.53301 -11.90565 -1.823486 -4.739578 
-249.4274 -10.59002 -11.96267 -1.918505 -4.739578 
-251.3273 -10.62802 -12.00066 -2.051499 -4.739578 
-253.2265 -10.685 -12.01966 -2.146457 -4.739578 
-255.1251 -10.76094 -12.01966 -2.203415 -4.739578 
-257.0228 -10.81787 -12.03863 -2.298299 -4.739578 
-258.9196 -10.85581 -12.07657 -2.355206 -4.739578 
-258.8151 -10.84745 -12.07239 -2.355206 -4.739578 
-258.7108 -10.84015 -12.06926 -2.355206 -4.739578 
-258.6066 -10.8339 -12.06718 -2.355206 -4.739578 
-258.5025 -10.82869 -12.06614 -2.355206 -4.739578 
-258.3985 -10.82453 -12.06406 -2.355206 -4.739578 
-258.2949 -10.82142 -12.06302 -2.355206 -4.739578 
-258.212 -10.82142 -12.06302 -2.355206 -4.739578 
-258.1085 -10.81832 -12.06199 -2.355206 -4.739578 
-258.0047 -10.81624 -12.05887 -2.355206 -4.739578 
-257.9013 -10.81521 -12.0568 -2.355206 -4.739578 
-257.798 -10.81314 -12.05577 -2.355206 -4.739578 
-257.6964 -10.81009 -12.05069 -2.355206 -4.739578 
-257.5918 -10.80591 -12.0465 -2.355206 -4.713435 
-257.4882 -10.8028 -12.0434 -2.355206 -4.696161 
-257.4043 -10.79945 -12.04172 -2.355206 -4.682182 
-257.3004 -10.79633 -12.03652 -2.355206 -4.669191 
-257.1966 -10.79425 -12.03237 -2.355206 -4.656216 
-257.0932 -10.79322 -12.02927 -2.355206 -4.643297 
-256.9693 -10.78579 -12.02679 -2.355206 -4.622652 
-256.8657 -10.77543 -12.02576 -2.355206 -4.605386 
-256.7619 -10.76401 -12.01953 -2.355206 -4.58808 
-256.6577 -10.75151 -12.01432 -2.355206 -4.570725 
-256.5537 -10.74007 -12.01016 -2.355206 -4.553392 
-256.4499 -10.72968 -12.00704 -2.355206 -4.536081 
-256.3461 -10.72034 -12.00289 -2.355206 -4.518777 
-256.2424 -10.71205 -11.99978 -2.355206 -4.501503 
-256.139 -10.70274 -11.99771 -2.355206 -4.488577 
-256.056 -10.69859 -11.99688 -2.355206 -4.480273 
-255.9526 -10.69239 -11.99068 -2.355206 -4.47166 
-255.8493 -10.68722 -11.98241 -2.355206 -4.461326 
-255.7462 -10.68309 -11.97519 -2.355206 -4.448434 
-255.6434 -10.68001 -11.96903 -2.355206 -4.431304 
-255.5603 -10.67835 -11.96487 -2.355206 -4.410543 
-255.4564 -10.67523 -11.96072 -2.355206 -4.384559 
-255.3533 -10.67317 -11.95762 -2.355206 -4.367382 
-255.2507 -10.67214 -11.95557 -2.355206 -4.350283 
-255.1482 -10.67009 -11.95455 -2.355206 -4.333192 
-255.0457 -10.66702 -11.94942 -2.355206 -4.316109 
-254.9628 -10.6637 -11.94445 -2.355206 -4.295377 
-254.8599 -10.65856 -11.9393 -2.355206 -4.269655 
-254.7568 -10.65031 -11.93518 -2.355206 -4.243877 
-254.6538 -10.64104 -11.93003 -2.355206 -4.226716 
-254.5509 -10.63178 -11.92488 -2.355206 -4.212009 
-254.4479 -10.62251 -11.92179 -2.355206 -4.194855 
-254.3452 -10.61224 -11.91974 -2.355206 -4.182017 
-254.2427 -10.60096 -11.91872 -2.355206 -4.171762 
-254.1596 -10.59265 -11.91041 -2.355206 -4.164837 
-254.0566 -10.58338 -11.90114 -2.355206 -4.156256 
-253.9538 -10.57516 -11.89291 -2.355206 -4.147686 
-253.8512 -10.56798 -11.88573 -2.355206 -4.139136 
-253.7488 -10.56183 -11.88163 -2.355206 -4.128902 
-253.6468 -10.55673 -11.87857 -2.355206 -4.116142 
-253.545 -10.55062 -11.87654 -2.355206 -4.103422 
-253.4427 -10.54346 -11.87551 -2.355206 -4.086367 
-253.36 -10.5385 -11.87056 -2.355206 -4.076036 
-253.2576 -10.53236 -11.86544 -2.355206 -4.063237 
-253.1554 -10.52725 -11.86135 -2.355206 -4.050454 
-253.0535 -10.52317 -11.85829 -2.355206 -4.037721 
-252.9518 -10.52012 -11.85626 -2.355206 -4.020765 
-252.8699 -10.5193 -11.85544 -2.355206 -4.007116 
-252.7677 -10.51317 -11.85237 -2.355206 -3.990088 
-252.6657 -10.50807 -11.85033 -2.355206 -3.973082 
-252.5638 -10.50399 -11.84931 -2.355206 -3.956098 
-252.4622 -10.50095 -11.84626 -2.355206 -3.939175 
-252.3607 -10.49892 -11.84221 -2.355206 -3.922259 
-252.2592 -10.4979 -11.83713 -2.355206 -3.905341 
-252.1575 -10.49587 -11.83306 -2.355206 -3.888388 
-252.0562 -10.49283 -11.83002 -2.355206 -3.87572 
-251.9549 -10.48878 -11.828 -2.355206 -3.863057 
-251.8539 -10.48373 -11.82699 -2.355206 -3.850433 
-251.7715 -10.47467 -11.82204 -2.355206 -3.836706 
-251.6694 -10.46446 -11.81694 -2.355206 -3.823948 
-251.4881 -10.44814 -11.80969 -2.355206 -3.805816 
-251.3269 -10.43363 -11.80324 -2.355206 -3.7879 
-251.2253 -10.42448 -11.79917 -2.355206 -3.775195 
-251.1237 -10.41636 -11.79613 -2.355206 -3.762506 
-251.0224 -10.40927 -11.7941 -2.355206 -3.749834 
-250.9415 -10.40522 -11.79329 -2.355206 -3.73973 
-250.8408 -10.40119 -11.79128 -2.355206 -3.727136 
-250.7393 -10.39714 -11.78519 -2.355206 -3.706848 
-250.638 -10.3941 -11.78013 -2.355206 -3.686587 
-250.5372 -10.39208 -11.77609 -2.355206 -3.666418 
-250.4567 -10.38966 -11.77368 -2.355206 -3.650322 
-250.3563 -10.38464 -11.77066 -2.355206 -3.625219 
-250.2549 -10.37957 -11.76762 -2.355206 -3.5914 
-250.1537 -10.37452 -11.76459 -2.355206 -3.566125 
-250.0529 -10.36947 -11.76156 -2.355206 -3.545948 
-249.9521 -10.36444 -11.75854 -2.355206 -3.529158 
-249.8718 -10.36203 -11.75613 -2.355206 -3.517685 
-249.7708 -10.35294 -11.75108 -2.355206 -3.500856 
-249.6706 -10.34893 -11.74807 -2.355206 -3.486531 
-249.5703 -10.34492 -11.74506 -2.355206 -3.469827 
-249.4695 -10.34088 -11.74002 -2.355206 -3.449651 
-249.369 -10.33687 -11.73701 -2.350183 -3.432907 
-249.2686 -10.33285 -11.734 -2.344161 -3.418569 
-249.1684 -10.32884 -11.73099 -2.337147 -3.406045 
-249.0683 -10.32484 -11.72799 -2.33114 -3.391741 
-248.9682 -10.32084 -11.72498 -2.326136 -3.375064 
-248.8682 -10.31683 -11.72198 -2.322136 -3.355061 
-248.7682 -10.31083 -11.71898 -2.317133 -3.338384 
-248.668 -10.30482 -11.71598 -2.313125 -3.318344 
-248.5678 -10.29881 -11.71297 -2.309118 -3.298312 
-248.4677 -10.2928 -11.70997 -2.305114 -3.278289 
-248.3676 -10.2868 -11.70697 -2.301111 -3.258275 
-248.2675 -10.28079 -11.70396 -2.297103 -3.238239 
-248.1675 -10.27479 -11.70096 -2.297103 -3.218248 
-248.0676 -10.2688 -11.69796 -2.297103 -3.198266 
-247.9676 -10.2628 -11.69497 -2.297103 -3.178277 
-247.8676 -10.2588 -11.69196 -2.297103 -3.153261 
-247.7677 -10.2548 -11.68897 -2.297103 -3.133287 
-247.6682 -10.25082 -11.68598 -2.297103 -3.116711 
-247.5688 -10.24684 -11.683 -2.297103 -3.09682 
-247.469 -10.24086 -11.68001 -2.297103 -3.080189 
-247.3693 -10.23687 -11.67702 -2.297103 -3.060249 
-247.2697 -10.23289 -11.67403 -2.297103 -3.043653 
-247.1703 -10.22891 -11.67104 -2.297103 -3.029443 
-247.071 -10.22494 -11.66807 -2.297103 -3.017038 
-246.9718 -10.22097 -11.66509 -2.297103 -3.002868 
-246.8727 -10.21701 -11.66212 -2.297103 -2.986346 
-246.7736 -10.21304 -11.65914 -2.297103 -2.966522 
-246.6744 -10.20709 -11.65617 -2.297103 -2.949999 
-246.5751 -10.20113 -11.65319 -2.297103 -2.930123 
-246.4756 -10.19715 -11.65021 -2.297103 -2.905258 
-246.3763 -10.19318 -11.64723 -2.297103 -2.885402 
-246.2772 -10.18921 -11.64425 -2.297103 -2.868876 
-246.1781 -10.18525 -11.64128 -2.297103 -2.854724 
-246.0791 -10.18129 -11.63831 -2.297103 -2.842352 
-245.9803 -10.17734 -11.63535 -2.297103 -2.831374 
-245.8816 -10.17339 -11.63238 -2.297103 -2.81903 
-245.7818 -10.1694 -11.62241 -2.297103 -2.804775 
-245.6825 -10.16543 -11.61248 -2.297103 -2.804775 
-245.5833 -10.16245 -11.60355 -2.297103 -2.804775 
-245.4843 -10.16047 -11.59563 -2.297103 -2.804775 
-245.3857 -10.15948 -11.58873 -2.297103 -2.804775 
-245.2872 -10.15751 -11.58282 -2.297103 -2.804775 
-245.1887 -10.15456 -11.57789 -2.297103 -2.804775 
-245.0902 -10.15062 -11.57395 -2.297103 -2.804775 
-244.9918 -10.1457 -11.571 -2.297103 -2.804775 
-244.9132 -10.14256 -11.56943 -2.297103 -2.804775 
-244.8151 -10.13961 -11.56845 -2.297103 -2.804775 
-244.7169 -10.13667 -11.56158 -2.297103 -2.804775 
-244.6182 -10.13469 -11.55565 -2.297103 -2.792434 
-244.5198 -10.13371 -11.55073 -2.297103 -2.780134 
-244.4214 -10.13272 -11.5468 -2.297103 -2.770296 
-244.3032 -10.12918 -11.54325 -2.297103 -2.755522 
-244.2051 -10.12624 -11.54129 -2.297103 -2.743261 
-244.1071 -10.12232 -11.54031 -2.297103 -2.73101 
-244.0091 -10.11938 -11.53835 -2.297103 -2.718764 
-243.9111 -10.11742 -11.53541 -2.297103 -2.706508 
-243.8327 -10.11663 -11.53228 -2.297103 -2.698673 
-243.715 -10.1131 -11.52874 -2.297103 -2.698673 
-243.6173 -10.11114 -11.51898 -2.297103 -2.698673 
-243.5192 -10.1082 -11.50819 -2.297103 -2.698673 
-243.4212 -10.10722 -11.49741 -2.297103 -2.698673 
-243.3233 -10.10624 -11.48664 -2.297103 -2.698673 
-243.2665 -10.10567 -11.4838 -2.297103 -2.698673 
-243.1683 -10.10273 -11.47889 -2.286304 -2.698673 
-243.0706 -10.10078 -11.47498 -2.277517 -2.698673 
-242.9729 -10.09784 -11.46814 -2.268717 -2.698673 
-242.8749 -10.09392 -11.46226 -2.259899 -2.698673 
-242.7766 -10.09097 -11.45734 -2.249081 -2.698673 
-242.6788 -10.08902 -11.45343 -2.249081 -2.698673 
-242.5816 -10.08805 -11.45052 -2.249081 -2.698673 
-242.4843 -10.0861 -11.44857 -2.249081 -2.698673 
-242.3871 -10.08319 -11.4476 -2.249081 -2.698673 
-242.2897 -10.08124 -11.43785 -2.249081 -2.698673 
-242.1922 -10.08026 -11.42908 -2.249081 -2.690553 
-242.0744 -10.07555 -11.4173 -2.249081 -2.680732 
-241.9767 -10.07262 -11.4085 -2.249081 -2.670961 
-241.8991 -10.07107 -11.4023 -2.249081 -2.661269 
-241.8018 -10.07009 -11.39549 -2.249081 -2.645055 
-241.6842 -10.06774 -11.38843 -2.249081 -2.615634 
-241.5866 -10.06676 -11.38355 -2.249081 -2.591241 
-241.4895 -10.06482 -11.37967 -2.249081 -2.575059 
-241.3925 -10.06191 -11.37676 -2.249081 -2.558892 
-241.2958 -10.05998 -11.37289 -2.249081 -2.54278 
-241.1978 -10.05704 -11.36799 -2.249081 -2.526437 
-241.1014 -10.05511 -11.36413 -2.249081 -2.526437 
-241.0046 -10.05221 -11.35929 -2.249081 -2.526437 
-240.9075 -10.04929 -11.35444 -2.249081 -2.526437 
-240.8712 -10.04857 -11.35299 -2.249081 -2.526437 
-240.7739 -10.04662 -11.34131 -2.249081 -2.526437 
-240.6771 -10.04565 -11.33066 -2.249081 -2.526437 
-240.5802 -10.04372 -11.32097 -2.249081 -2.526437 
-240.4834 -10.04081 -11.31226 -2.249081 -2.526437 
-240.3867 -10.03694 -11.30452 -2.249081 -2.526437 
-240.2901 -10.03211 -11.29776 -2.249081 -2.526437 
-240.2132 -10.0252 -11.29161 -2.249081 -2.526437 
-240.1564 -10.02065 -11.2865 -2.249081 -2.526437 
-240.0797 -10.01451 -11.27959 -2.249081 -2.526437 
-240.0029 -10.00837 -11.27268 -2.249081 -2.526437 
-239.9062 -10.00063 -11.26398 -2.249081 -2.526437 
-239.8092 -9.99384 -11.25427 -2.249081 -2.526437 
-239.7126 -9.988045 -11.24558 -2.249081 -2.526437 
-239.616 -9.981287 -11.23786 -2.249081 -2.526437 
-239.5199 -9.973596 -11.23113 -2.249081 -2.526437 
-239.4433 -9.965171 -11.225 -2.249081 -2.526437 
-239.3464 -9.955479 -11.21628 -2.249081 -2.526437 
-239.2496 -9.946767 -11.20853 -2.249081 -2.526437 
-239.1529 -9.939034 -11.20177 -2.249081 -2.526437 
-239.0564 -9.932275 -11.19597 -2.249081 -2.526437 
-238.9599 -9.926484 -11.18922 -2.249081 -2.526437 
-238.8635 -9.921664 -11.18343 -2.249081 -2.526437 
-238.7675 -9.917827 -11.17864 -2.249081 -2.526437 
-238.6913 -9.91478 -11.17559 -2.249081 -2.526437 
-238.595 -9.906113 -11.1727 -2.249081 -2.526437 
-238.4988 -9.898411 -11.16885 -2.249081 -2.526437 
-238.4026 -9.891681 -11.16597 -2.249081 -2.526437 
-238.3064 -9.883986 -11.16212 -2.249081 -2.526437 
-238.2104 -9.87726 -11.15924 -2.249081 -2.526437 
-238.1144 -9.871504 -11.15732 -2.249081 -2.526437 
-238.0189 -9.866729 -11.15636 -2.249081 -2.526437 
-237.9242 -9.861047 -11.15068 -2.249081 -2.526437 
-237.8283 -9.856252 -11.14588 -2.249081 -2.494468 
-237.7319 -9.852394 -11.1401 -2.249081 -2.462321 
-237.6353 -9.850462 -11.13527 -2.249081 -2.430126 
-237.5398 -9.849507 -11.13145 -2.249081 -2.411029 
-237.4444 -9.847598 -11.12859 -2.249081 -2.391941 
-237.3688 -9.841551 -11.12707 -2.249081 -2.376822 
-237.273 -9.832932 -11.12612 -2.249081 -2.357667 
-237.1776 -9.82339 -11.12612 -2.249081 -2.344036 
-237.082 -9.814791 -11.12516 -2.249081 -2.330387 
-236.9867 -9.80526 -11.12516 -2.249081 -2.319797 
-236.9117 -9.79776 -11.12441 -2.249081 -2.311464 
-236.8168 -9.787315 -11.12251 -2.249081 -2.311464 
-236.7218 -9.775916 -11.11966 -2.249081 -2.311464 
-236.6264 -9.763517 -11.11585 -2.249081 -2.311464 
-236.5306 -9.751069 -11.1101 -2.249081 -2.311464 
-236.435 -9.739593 -11.10532 -2.249081 -2.311464 
-236.3395 -9.729086 -11.1015 -2.249081 -2.311464 
-236.2441 -9.719546 -11.09864 -2.249081 -2.311464 
-236.1488 -9.710972 -11.09673 -2.249081 -2.311464 
-236.054 -9.703385 -11.09579 -2.249081 -2.311464 
-235.9592 -9.694858 -11.09579 -2.249081 -2.311464 
-235.8645 -9.687281 -11.09484 -2.249081 -2.311464 
-235.7698 -9.680653 -11.09294 -2.249081 -2.311464 
-235.6752 -9.674973 -11.09011 -2.249081 -2.311464 
-235.5806 -9.670242 -11.08632 -2.249081 -2.311464 
-235.4859 -9.666457 -11.08159 -2.249081 -2.311464 
-235.3913 -9.661728 -11.07781 -2.249081 -2.311464 
-235.2968 -9.657002 -11.07497 -2.249081 -2.311464 
-235.2023 -9.651329 -11.07119 -2.249081 -2.311464 
-235.1076 -9.644701 -11.06456 -2.249081 -2.311464 
-235.0126 -9.637105 -11.05886 -2.249081 -2.311464 
-234.9178 -9.630467 -11.05412 -2.249081 -2.311464 
-234.8234 -9.624804 -11.05035 -2.249081 -2.311464 
-234.7491 -9.619598 -11.04811 -2.249081 -2.311464 
-234.6748 -9.615144 -11.04663 -2.249081 -2.311464 
-234.5807 -9.612322 -11.04569 -2.249081 -2.311464 
-234.4865 -9.60855 -11.03815 -2.249081 -2.311464 
-234.3921 -9.605721 -11.0306 -2.249081 -2.302033 
-234.2978 -9.602889 -11.02305 -2.249081 -2.291547 
-234.2039 -9.600072 -11.01648 -2.249081 -2.282157 
-234.1096 -9.597244 -11.00988 -2.24154 -2.271683 
-234.0154 -9.594418 -11.00328 -2.234945 -2.259906 
-233.9212 -9.591593 -10.99669 -2.229295 -2.246454 
-233.8271 -9.58877 -10.99011 -2.22459 -2.230771 
-233.7331 -9.585949 -10.98352 -2.220829 -2.211966 
-233.6384 -9.582163 -10.9769 -2.217989 -2.188303 
-233.5642 -9.580679 -10.97171 -2.215021 -2.173463 
-233.4703 -9.577861 -10.96607 -2.209385 -2.160044 
-233.3763 -9.575042 -10.96043 -2.204686 -2.144381 
-233.2818 -9.571259 -10.9557 -2.199957 -2.128619 
-233.1879 -9.566566 -10.95195 -2.197142 -2.128619 
-233.0941 -9.560936 -10.94538 -2.197142 -2.128619 
-233.0003 -9.554371 -10.93975 -2.197142 -2.128619 
-232.9066 -9.546871 -10.93507 -2.197142 -2.128619 
-232.8129 -9.538442 -10.93132 -2.197142 -2.128619 
-232.7193 -9.530951 -10.92664 -2.197142 -2.128619 
-232.6257 -9.5244 -10.92102 -2.197142 -2.128619 
-232.5321 -9.518784 -10.91447 -2.197142 -2.128619 
-232.4385 -9.512234 -10.90886 -2.197142 -2.128619 
-232.345 -9.504752 -10.90418 -2.197142 -2.128619 
-232.2515 -9.496339 -10.90044 -2.197142 -2.128619 
-232.178 -9.494135 -10.89824 -2.197142 -2.128619 
-232.0844 -9.484769 -10.89636 -2.197142 -2.128619 
-231.9911 -9.476377 -10.89543 -2.197142 -2.128619 
-231.918 -9.473451 -10.8925 -2.197142 -2.128619 
-231.8245 -9.46878 -10.8897 -2.197142 -2.120833 
-231.7315 -9.465058 -10.88784 -2.197142 -2.11153 
-231.6385 -9.462269 -10.88505 -2.197142 -2.10223 
-231.5455 -9.460409 -10.88133 -2.197142 -2.092934 
-231.4526 -9.45948 -10.87669 -2.197142 -2.08364 
-231.3387 -9.450369 -10.86985 -2.197142 -2.072251 
-231.2457 -9.443857 -10.8652 -2.197142 -2.072251 
-231.1527 -9.437348 -10.86055 -2.197142 -2.072251 
-231.0595 -9.430827 -10.85124 -2.197142 -2.072251 
-230.9664 -9.424309 -10.84192 -2.197142 -2.072251 
-230.8733 -9.417793 -10.83262 -2.197142 -2.072251 
-230.78 -9.411258 -10.82328 -2.197142 -2.072251 
-230.6867 -9.405663 -10.81489 -2.197142 -2.072251 
-230.5936 -9.401006 -10.80744 -2.197142 -2.072251 
-230.5005 -9.397285 -10.80092 -2.197142 -2.072251 
-230.4077 -9.394499 -10.79535 -2.197142 -2.072251 
-230.3352 -9.39305 -10.79173 -2.197142 -2.072251 
-230.2627 -9.390149 -10.7881 -2.197142 -2.072251 
-230.1702 -9.385525 -10.7844 -2.197142 -2.072251 
-230.0778 -9.380904 -10.78163 -2.197142 -2.072251 
-229.9857 -9.375378 -10.77703 -2.197142 -2.072251 
-231.8931 -9.508901 -10.89147 -2.216217 -2.072251 
-231.7995 -9.499537 -10.88772 -2.216217 -2.072251 
-231.7059 -9.491119 -10.88492 -2.216217 -2.072251 
-231.6125 -9.483647 -10.88305 -2.216217 -2.072251 
-231.5193 -9.477118 -10.88212 -2.216217 -2.072251 
-231.4264 -9.471549 -10.88212 -2.216217 -2.072251 
-231.3337 -9.46691 -10.88119 -2.216217 -2.072251 
-231.2608 -9.463268 -10.87973 -2.216217 -2.072251 
-231.1681 -9.457704 -10.87881 -2.216217 -2.072251 
-231.0753 -9.453065 -10.87695 -2.216217 -2.072251 
-231.0028 -9.45234 -10.87623 -2.216217 -2.072251 
-230.8906 -9.450095 -10.87398 -2.216217 -2.072251 
-230.7975 -9.442646 -10.87119 -2.216217 -2.072251 
-230.7048 -9.436161 -10.86934 -2.216217 -2.072251 
-230.6121 -9.428742 -10.86655 -2.216217 -2.072251 
-230.5191 -9.420373 -10.86469 -2.216217 -2.072251 
-230.4265 -9.412967 -10.86377 -2.216217 -2.072251 
-230.3345 -9.404693 -10.86377 -2.216217 -2.072251 
-230.242 -9.397285 -10.86284 -2.216217 -2.056819 
-230.1493 -9.390797 -10.86099 -2.216217 -2.041369 
-230.0564 -9.383364 -10.8582 -2.216217 -2.029755 
-229.9641 -9.376907 -10.85636 -2.216217 -2.018226 
-229.8721 -9.373226 -10.85359 -2.216217 -2.009024 
-229.7793 -9.368587 -10.84988 -2.216217 -1.999747 
-229.6868 -9.364886 -10.84711 -2.216217 -1.992036 
-229.5943 -9.362112 -10.84526 -2.216217 -1.982789 
-229.522 -9.360665 -10.84453 -2.216217 -1.975553 
-229.4301 -9.359746 -10.84453 -2.216217 -1.966362 
-229.3178 -9.356379 -10.84341 -2.216217 -1.955137 
-229.2258 -9.354539 -10.84341 -2.216217 -1.943641 
-229.1343 -9.351793 -10.8425 -2.216217 -1.943641 
-229.0421 -9.348104 -10.84065 -2.216217 -1.943641 
-228.9504 -9.345352 -10.83974 -2.216217 -1.943641 
-228.8583 -9.343511 -10.83789 -2.216217 -1.943641 
-228.7665 -9.342592 -10.83238 -2.216217 -1.943641 
-228.6541 -9.333598 -10.82451 -2.216217 -1.943641 
-228.5618 -9.327137 -10.81898 -2.216217 -1.943641 
-228.4696 -9.321606 -10.81437 -2.216217 -1.943641 
-228.3775 -9.317002 -10.81068 -2.216217 -1.943641 
-228.2854 -9.311476 -10.80608 -2.216217 -1.943641 
-228.1934 -9.306876 -10.8024 -2.216217 -1.943641 
-228.1015 -9.303201 -10.79964 -2.216217 -1.943641 
-228.0097 -9.300447 -10.79781 -2.216217 -1.943641 
-227.9184 -9.29862 -10.79689 -2.216217 -1.943641 
-227.827 -9.295877 -10.79232 -2.216217 -1.943641 
-227.7354 -9.294045 -10.78774 -2.216217 -1.932189 
-227.6442 -9.291311 -10.7841 -2.216217 -1.923076 
-227.5527 -9.287653 -10.77952 -2.216217 -1.913929 
-227.461 -9.283981 -10.77493 -2.216217 -1.90373 
-227.3694 -9.281234 -10.77127 -2.216217 -1.893555 
-227.278 -9.279406 -10.76853 -2.216217 -1.880497 
-227.1868 -9.278494 -10.7667 -2.216217 -1.862255 
-227.0956 -9.27667 -10.76579 -2.216217 -1.844022 
-227.024 -9.270224 -10.75935 -2.216217 -1.829695 
-226.9313 -9.257256 -10.75194 -2.216217 -1.798819 
-226.8392 -9.245272 -10.74548 -2.216217 -1.780382 
-226.7472 -9.234238 -10.73997 -2.216217 -1.767247 
-226.6553 -9.224133 -10.73353 -2.216217 -1.75704 
-226.5638 -9.216805 -10.72804 -2.216217 -1.748713 
-226.4723 -9.210404 -10.72347 -2.216217 -1.740402 
-226.381 -9.204927 -10.71982 -2.216217 -1.730258 
-226.2899 -9.200371 -10.71708 -2.216217 -1.71724 
-226.199 -9.196736 -10.71526 -2.216217 -1.699068 
-226.1281 -9.193189 -10.71314 -2.216217 -1.684878 
-226.0372 -9.187737 -10.71132 -2.216217 -1.666704 
-225.9658 -9.182025 -10.70918 -2.216217 -1.652426 
-225.8747 -9.177467 -10.70553 -2.216217 -1.639404 
-225.784 -9.17384 -10.70281 -2.216217 -1.626447 
-225.6933 -9.171118 -10.69918 -2.216217 -1.613488 
-225.6028 -9.167499 -10.69647 -2.216217 -1.600564 
-225.512 -9.164776 -10.69284 -2.216217 -1.582409 
-225.4216 -9.162968 -10.68651 -2.216217 -1.569491 
-225.3304 -9.162056 -10.67921 -2.210748 -1.55647 
-225.2399 -9.160245 -10.67287 -2.207126 -1.55647 
-225.1492 -9.157525 -10.66925 -2.2035 -1.55647 
-225.0586 -9.155712 -10.66653 -2.198062 -1.55647 
-224.9681 -9.154807 -10.66472 -2.192631 -1.55647 
-224.8573 -9.135983 -10.66361 -2.185987 -1.55647 
-224.7664 -9.119609 -10.65451 -2.180529 -1.55647 
-224.6748 -9.104043 -10.64353 -2.176866 -1.538157 
-224.5835 -9.089429 -10.63348 -2.1723 -1.522935 
-224.4925 -9.081242 -10.62438 -2.168661 -1.504741 
-224.4017 -9.073977 -10.61621 -2.165937 -1.482042 
-224.3107 -9.067604 -10.60893 -2.164116 -1.451692 
-224.2197 -9.062147 -10.60256 -2.161387 -1.428956 
-224.1293 -9.057628 -10.59714 -2.161387 -1.410878 
-224.0391 -9.052217 -10.59263 -2.161387 -1.397994 
-223.949 -9.045906 -10.58902 -2.161387 -1.385116 
-223.8589 -9.038698 -10.58632 -2.161387 -1.372245 
-223.7686 -9.032377 -10.58451 -2.161387 -1.359345 
-223.6787 -9.025188 -10.58362 -2.161387 -1.359345 
-223.5888 -9.017091 -10.57732 -2.161387 -1.359345 
-223.4982 -9.009849 -10.57189 -2.161387 -1.34124 
-223.4081 -9.003539 -10.56738 -2.161387 -1.328364 
-223.3181 -8.998142 -10.56378 -2.161387 -1.310374 
-223.2283 -8.99365 -10.55929 -2.161387 -1.297541 
-223.1385 -8.99006 -10.5539 -2.161387 -1.287566 
-223.0488 -8.985574 -10.54942 -2.161387 -1.277597 
-222.9592 -8.981988 -10.54404 -2.161387 -1.269448 
-222.8694 -8.979296 -10.53506 -2.161387 -1.26129 
-222.7795 -8.975697 -10.52697 -2.161387 -1.26129 
-222.6896 -8.973001 -10.51978 -2.161387 -1.26129 
-222.6002 -8.971212 -10.5162 -2.161387 -1.26129 
-222.5108 -8.970319 -10.51352 -2.156027 -1.26129 
-222.4215 -8.968533 -10.51173 -2.152455 -1.26129 
-222.3331 -8.965879 -10.51085 -2.150686 -1.26129 
-222.2439 -8.964096 -10.50906 -2.148903 -1.26129 
-222.1549 -8.961426 -10.50817 -2.148013 -1.26129 
-222.1662 -8.961651 -10.5084 -2.148238 -1.26129 
-222.0967 -8.959568 -10.50701 -2.14685 -1.26129 
-222.0278 -8.95819 -10.50632 -2.146161 -1.26129 
-223.9389 -8.977301 -10.54455 -2.184383 -1.26129 
-223.829 -8.969604 -10.54125 -2.181084 -1.26129 
-223.739 -8.964201 -10.53765 -2.178383 -1.26129 
-223.6492 -8.959715 -10.53495 -2.177486 -1.26129 
-223.559 -8.956106 -10.53135 -2.17478 -1.26129 
-225.4691 -9.013407 -10.58865 -2.17478 -1.26129 
-227.3787 -9.0516 -10.62684 -2.17478 -1.26129 
-229.2876 -9.108868 -10.64593 -2.17478 -1.26129 
-231.1958 -9.147031 -10.68409 -2.17478 -1.26129 
-233.1031 -9.166104 -10.74131 -2.17478 -1.26129 
-235.0097 -9.204236 -10.77944 -2.17478 -1.26129 
-236.9154 -9.318582 -10.7985 -2.17478 -1.26129 
-238.8203 -9.413827 -10.8747 -2.17478 -1.26129 
-240.7244 -9.52807 -10.9699 -2.17478 -1.26129 
-242.6273 -9.623217 -11.08407 -2.17478 -1.26129 
-244.5299 -9.699319 -11.1792 -2.17478 -1.26129 
-246.4312 -9.889447 -11.25525 -2.17478 -1.26129 
-248.3321 -10.06053 -11.31228 -2.17478 -1.26129 
-250.2323 -10.21255 -11.38829 -2.17478 -1.26129 
-252.1313 -10.34548 -11.48324 -2.17478 -1.26129 
-254.0297 -10.45938 -11.55918 -2.17478 -1.26129 
-255.9274 -10.55427 -11.61611 -2.17478 -1.26129 
-257.8247 -10.63016 -11.65405 -2.17478 -1.26129 
-259.7213 -10.72499 -11.67302 -2.17478 -1.26129 
-261.6177 -10.83877 -11.74887 -2.17478 -1.26129 
-263.5122 -10.97139 -11.80571 -2.17478 -1.892785 
-265.4062 -11.08503 -11.88147 -2.17478 -2.271586 
-267.2994 -11.17969 -11.97613 -2.17478 -2.650228 
-269.1916 -11.25537 -12.08966 -2.17478 -3.028662 
-271.0831 -11.31212 -12.22206 -2.17478 -3.298882 
-272.974 -11.34994 -12.37333 -2.17478 -3.508976 
-274.8641 -11.36884 -12.54345 -2.17478 -3.68081 
-276.7534 -11.40662 -12.69459 -2.17478 -3.852567 
-278.6422 -11.46329 -12.82681 -2.17478 -3.852567 
-280.53 -11.5388 -12.92119 -2.17478 -3.852567 
-282.4174 -11.59542 -12.99669 -2.17478 -3.852567 
-284.304 -11.67089 -13.05329 -2.17478 -3.852567 
-286.19 -11.76518 -13.09101 -2.17478 -3.852567 
-288.0751 -11.87829 -13.10986 -2.17478 -3.852567 
-289.9615 -12.01033 -13.16645 -2.17478 -3.852567 
-291.8436 -12.16091 -13.20409 -2.17478 -4.479958 
-293.7256 -12.33029 -13.22291 -2.17478 -4.856355 
-295.6074 -12.51846 -13.22291 -2.17478 -5.125177 
-297.4882 -12.68774 -13.24172 -2.17478 -5.393865 
-299.3681 -12.72533 -13.26052 -2.17478 -5.628859 
-301.248 -12.74413 -13.26052 -2.17478 -5.816848 
-303.1266 -12.80049 -13.29809 -2.17478 -6.025578 
-305.0043 -12.83805 -13.3732 -2.17478 -6.234217 
-306.8818 -12.85682 -13.42953 -2.17478 -6.442828 
-308.7574 -12.89433 -13.46704 -2.17478 -6.651227 
-310.6337 -12.95062 -13.4858 -2.17478 -6.651227 
-312.5102 -13.02568 -13.5421 -2.17478 -6.651227 
-314.3848 -13.08192 -13.57959 -2.17478 -6.919028 
-316.2587 -13.13813 -13.61706 -2.17478 -7.231343 
-318.1319 -13.1756 -13.65453 -2.17478 -7.605978 
-320.0036 -13.26918 -13.7294 -2.17478 -7.917934 
-321.8741 -13.344 -13.80422 -2.17478 -8.292035 
-323.7439 -13.4001 -13.86031 -2.17478 -8.665998 
-325.6132 -13.45618 -13.91639 -2.17478 -8.977543 
-327.4825 -13.51225 -13.97247 -2.17478 -9.244579 
-329.3506 -13.5683 -14.02851 -2.17478 -9.555939 
-331.2179 -13.62432 -14.12188 -2.17478 -9.822693 
-333.0848 -13.66166 -14.23389 -2.17478 -10.0894 
-334.9509 -13.71764 -14.36452 -2.17478 -10.35598 
-336.8128 -13.79212 -14.51347 -2.17478 -10.62197 
-338.6773 -13.94127 -14.64398 -2.17478 -10.62197 
-340.5398 -14.12752 -14.81161 -2.17478 -10.62197 
-342.4028 -14.27656 -14.92339 -2.17478 -10.62197 
-344.2645 -14.4255 -15.03509 -2.17478 -10.62197 
-346.1256 -14.55578 -15.12815 -2.17478 -10.62197 
-347.986 -14.70461 -15.20256 -2.17478 -10.62197 
-349.8458 -14.83479 -15.25836 -2.17478 -10.62197 
-351.7049 -14.94634 -15.29554 -2.17478 -10.62197 
-353.5638 -15.03928 -15.31413 -2.17478 -10.62197 
-355.4243 -15.15091 -15.33273 -2.17478 -10.62197 
-357.2811 -15.24375 -15.33273 -2.17478 -10.93144 
-359.1368 -15.31798 -15.35129 -2.17478 -11.24071 
-360.9922 -15.3922 -15.36984 -2.17478 -11.50577 
-362.8468 -15.44783 -15.40694 -2.17478 -11.77072 
-364.7012 -15.48492 -15.46257 -2.17478 -12.03563 
-366.5542 -15.54051 -15.53669 -2.17478 -12.30034 
-368.407 -15.61462 -15.59227 -2.17478 -12.56502 
-370.2582 -15.74421 -15.66632 -2.17478 -12.82948 
-372.1052 -15.85503 -15.75867 -2.17478 -13.09334 
-373.9594 -15.94774 -15.85138 -2.17478 -13.09334 
-375.8036 -16.02151 -15.92515 -2.17478 -13.46218 
-377.6524 -16.07697 -15.98061 -2.17478 -13.46218 
-379.5005 -16.11393 -16.01757 -2.17478 -13.46218 
-381.348 -16.13241 -16.09147 -2.17478 -13.46218 
-381.1751 -16.12895 -16.08629 -2.171323 -13.46218 
-383.0223 -16.14742 -16.16017 -2.226737 -13.46218 
-382.8489 -16.13876 -16.1515 -2.22327 -13.46218 
-384.6938 -16.3417 -16.35445 -2.260169 -13.46218 
-386.538 -16.52612 -16.53887 -2.315495 -13.46218 
-388.3817 -16.69205 -16.7048 -2.333932 -13.46218 
-390.2248 -16.8395 -16.85225 -2.389224 -13.46218 
-392.0672 -16.96847 -16.98121 -2.462919 -13.46218 
-393.9089 -17.07897 -17.09172 -2.536591 -13.46218 
-395.7501 -17.17103 -17.18378 -2.610237 -13.46218 
-397.5906 -17.24465 -17.2574 -2.68386 -13.46218 
-399.431 -17.29986 -17.31261 -2.757473 -13.46218 
-401.2708 -17.37346 -17.34941 -2.757473 -13.46218 
-403.1099 -17.42863 -17.40458 -2.757473 -13.46218 
-404.9482 -17.46539 -17.47811 -2.757473 -13.46218 
-406.7858 -17.52052 -17.53324 -2.757473 -13.46218 
-408.6227 -17.594 -17.56998 -2.757473 -13.46218 
-410.4583 -17.77756 -17.62505 -2.757473 -13.46218 
-412.2929 -17.86929 -17.69843 -2.757473 -13.46218 
-414.1275 -17.94267 -17.75347 -2.757473 -13.46218 
-413.9601 -17.9209 -17.74677 -2.757473 -13.46218 
-413.7933 -17.9009 -17.7401 -2.757473 -13.46218 
-413.6267 -17.88256 -17.73177 -2.757473 -13.46218 
-413.4601 -17.8659 -17.72177 -2.757473 -13.46218 
-413.2935 -17.85092 -17.71012 -2.757473 -13.46218 
-413.1469 -17.83626 -17.69839 -2.757473 -13.46218 
-412.9804 -17.82127 -17.6834 -2.757473 -13.46218 
-412.8337 -17.81687 -17.66873 -2.757473 -13.46218 
-412.6678 -17.81189 -17.65379 -2.757473 -13.46218 
-412.5013 -17.80523 -17.64047 -2.757473 -13.46218 
-412.335 -17.80024 -17.62884 -2.757473 -13.46218 
-412.1695 -17.79693 -17.61891 -2.757473 -13.46218 
-412.0041 -17.79528 -17.60733 -2.757473 -13.46218 
-411.8179 -17.78969 -17.59244 -2.757473 -13.46218 
-411.6522 -17.77809 -17.58084 -2.757473 -13.46218 
-411.4865 -17.76815 -17.56758 -2.757473 -13.46218 
-411.321 -17.75987 -17.55268 -2.757473 -13.46218 
-411.1554 -17.75325 -17.53613 -2.757473 -13.46218 
-410.99 -17.74829 -17.51793 -2.757473 -13.46218 
-410.8246 -17.74168 -17.50139 -2.757473 -13.46218 
-410.6593 -17.73672 -17.48321 -2.757473 -13.46218 
-410.494 -17.73341 -17.46338 -2.757473 -13.46218 
-410.3289 -17.73176 -17.4419 -2.757473 -13.46218 
-410.1427 -17.71873 -17.41584 -2.757473 -13.46218 
-409.9768 -17.71044 -17.39427 -2.757473 -13.46218 
-409.8117 -17.70383 -17.37446 -2.757473 -13.46218 
-409.6467 -17.69888 -17.353 -2.757473 -13.46218 
-409.4817 -17.69558 -17.32991 -2.757473 -13.46218 
-409.3168 -17.69393 -17.30517 -2.757473 -13.46218 
-409.1307 -17.67719 -17.27541 -2.757473 -13.46218 
-408.9649 -17.66392 -17.25054 -2.757473 -13.46218 
-408.8004 -17.65405 -17.23902 -2.757473 -13.46218 
-408.6354 -17.6458 -17.22912 -2.736013 -13.46218 
-408.4705 -17.63921 -17.22088 -2.71788 -13.46218 
-408.3065 -17.63428 -17.21431 -2.703114 -13.46218 
-408.1425 -17.631 -17.20611 -2.691635 -13.46218 
-407.9786 -17.62937 -17.19628 -2.683442 -13.46218 
-407.8147 -17.62609 -17.1848 -2.675244 -13.46218 
-407.6503 -17.62116 -17.17494 -2.670314 -13.46218 
-407.4868 -17.61789 -17.16677 -2.665407 -13.46218 
-407.3633 -17.61418 -17.16183 -2.661703 -13.46218 
-407.2388 -17.6092 -17.15062 -2.656724 -13.46218 
-407.0745 -17.60427 -17.13748 -2.651794 -13.46218 
-406.93 -17.59127 -17.12737 -2.65035 -13.46218 
-406.7656 -17.57812 -17.1175 -2.645416 -13.46218 
-406.622 -17.56807 -17.11032 -2.645416 -13.46218 
-406.4585 -17.55826 -17.10052 -2.645416 -13.46218 
-406.2951 -17.55009 -17.08908 -2.645416 -13.46218 
-406.1317 -17.54355 -17.07601 -2.645416 -13.46218 
-405.9684 -17.53865 -17.06131 -2.645416 -13.46218 
-405.8052 -17.53539 -17.04499 -2.645416 -13.46218 
-405.6431 -17.53377 -17.04012 -2.645416 -13.46218 
-405.46 -17.52278 -17.0328 -2.623435 -13.46218 
-405.2964 -17.5146 -17.02462 -2.607074 -13.46218 
-405.133 -17.50806 -17.01808 -2.594002 -13.46218 
-404.9703 -17.50318 -17.0132 -2.584245 -13.46218 
-404.8078 -17.49993 -17.0067 -2.577744 -13.46218 
-404.6454 -17.49831 -16.99858 -2.574497 -13.46218 
-404.4823 -17.48037 -16.9888 -2.571234 -13.46218 
-404.3394 -17.46607 -16.97879 -2.569805 -13.46218 
-404.1959 -17.45316 -16.96731 -2.566935 -13.46218 
-404.0327 -17.4401 -16.95588 -2.565303 -13.46218 
-403.8695 -17.42868 -16.94609 -2.560406 -13.46218 
-403.7064 -17.41563 -16.93467 -2.560406 -13.46218 
-403.5434 -17.40422 -16.9249 -2.560406 -13.46218 
-403.3807 -17.39446 -16.91676 -2.560406 -13.46218 
-403.2182 -17.38633 -16.91026 -2.560406 -13.46218 
-403.0564 -17.37986 -16.90541 -2.560406 -13.46218 
-402.8947 -17.37501 -16.89894 -2.560406 -13.46218 
-402.7331 -17.37178 -16.89086 -2.560406 -13.46218 
-402.5715 -17.37016 -16.88116 -2.560406 -13.46218 
-402.3891 -17.36105 -16.87022 -2.560406 -13.46218 
-402.227 -17.35456 -16.86212 -2.560406 -13.46218 
-402.0651 -17.3497 -16.85564 -2.560406 -13.46218 
-401.9034 -17.34647 -16.85079 -2.560406 -13.46218 
-401.7424 -17.34486 -16.84757 -2.560406 -13.46218 
-401.5605 -17.33395 -16.84211 -2.560406 -13.46218 
-401.3989 -17.32586 -16.83888 -2.560406 -13.46218 
-401.238 -17.31943 -16.83727 -2.560406 -13.46218 
-401.0767 -17.31459 -16.83243 -2.560406 -13.46218 
-400.9359 -17.31177 -16.82962 -2.556185 -13.46218 
-400.7953 -17.31037 -16.8254 -2.550559 -13.46218 
-400.6137 -17.30311 -16.81814 -2.541482 -13.46218 
-400.4734 -17.29469 -16.81393 -2.537273 -13.46218 
-400.3118 -17.28337 -16.80746 -2.530808 -13.46218 
-400.151 -17.27373 -16.80264 -2.527593 -13.46218 
-401.9898 -17.36567 -17.02329 -2.564369 -13.46218 
-403.8279 -17.43919 -17.26225 -2.619512 -13.46218 
-405.6646 -17.49429 -17.51938 -2.711346 -13.46218 
-407.5012 -17.53102 -17.75813 -2.803173 -13.46218 
-409.3371 -17.5861 -17.97844 -2.85825 -13.46218 
-411.1722 -17.65951 -18.18031 -2.913305 -13.46218 
-413.0065 -17.75122 -18.36373 -2.968333 -13.46218 
-414.8402 -17.86124 -18.52876 -2.968333 -13.46218 
-416.6731 -17.98955 -18.6754 -2.968333 -13.46218 
-418.5053 -18.13613 -18.80366 -2.968333 -13.46218 
-420.3363 -18.28261 -18.91352 -2.968333 -13.46218 
-422.1664 -18.48392 -19.00502 -2.968333 -13.46218 
-423.9962 -18.5937 -19.07821 -2.968333 -13.46218 
-425.8253 -18.68516 -19.13309 -2.968333 -13.46218 
-427.654 -18.75831 -19.16966 -2.968333 -13.46218 
-429.4826 -18.81317 -19.18795 -2.968333 -13.46218 
-431.3117 -18.88633 -19.33427 -2.968333 -13.46218 
-433.1372 -18.9411 -19.46206 -2.968333 -13.66501 
-434.9627 -18.97761 -19.57159 -2.968333 -13.86785 
-436.7874 -19.03235 -19.66283 -2.968333 -14.0706 
-438.6116 -19.10531 -19.73579 -2.968333 -14.27328 
-440.4355 -19.16003 -19.79051 -2.968333 -14.53384 
-442.2584 -19.23295 -19.86343 -2.968333 -14.79426 
-444.0807 -19.30584 -19.93632 -2.968333 -15.09797 
-445.9012 -19.5243 -20.00914 -2.968333 -15.46207 
-447.72 -19.74256 -20.08189 -2.968333 -15.91678 
-449.5381 -19.94255 -20.17279 -2.968333 -16.37129 
-451.354 -20.16046 -20.24543 -2.968333 -16.82528 
-453.1699 -20.37837 -20.31807 -2.968333 -17.18846 
-454.9818 -20.59579 -20.35431 -2.968333 -17.49044 
-456.7982 -20.7411 -20.42696 -2.968333 -17.49044 
-456.6136 -20.72634 -20.41589 -2.968333 -17.49044 
-456.4294 -20.71344 -20.40667 -2.968333 -17.49044 
-456.2646 -20.69038 -20.40009 -2.968333 -17.49044 
-456.0802 -20.66639 -20.39455 -2.968333 -17.49044 
-455.8959 -20.64428 -20.39087 -2.968333 -17.49044 
-455.7119 -20.62404 -20.38902 -2.968333 -17.49044 
-455.5288 -20.60573 -20.38902 -2.968333 -17.49044 
-455.3462 -20.59843 -20.3872 -2.968333 -17.49044 
-455.1637 -20.59295 -20.38355 -2.968333 -17.49044 
-454.9812 -20.5893 -20.37807 -2.968333 -17.49044 
-454.8188 -20.58768 -20.37158 -2.968333 -17.49044 
-454.6364 -20.58403 -20.36611 -2.968333 -17.49044 
-454.4542 -20.58221 -20.35882 -2.968333 -17.49044 
-454.272 -20.57857 -20.35335 -2.968333 -17.49044 
-454.0893 -20.57674 -20.33326 -2.968333 -17.49044 
-453.8863 -20.56659 -20.30889 -2.968333 -17.49044 
-453.7027 -20.55924 -20.28503 -2.968333 -17.49044 
-453.5193 -20.55374 -20.26302 -2.968333 -17.49044 
-453.3359 -20.54641 -20.23918 -2.968333 -17.49044 
-453.1535 -20.53729 -20.22641 -2.968333 -17.49044 
-452.9706 -20.52997 -20.21543 -2.944546 -17.49044 
-452.7878 -20.52449 -20.2063 -2.924447 -17.49044 
-452.606 -20.52085 -20.19902 -2.908085 -17.49044 
-452.4443 -20.51924 -20.19094 -2.896766 -17.49044 
-452.2627 -20.5156 -20.18367 -2.887685 -17.49044 
-452.0812 -20.51016 -20.17823 -2.88224 -17.49044 
-451.9399 -20.50451 -20.1754 -2.880826 -17.49044 
-451.7786 -20.49805 -20.17218 -2.879214 -17.49044 
-451.6174 -20.49161 -20.16895 -2.877602 -17.49044 
-453.4362 -20.56436 -20.20533 -2.89579 -17.49044 
-453.253 -20.54604 -20.198 -2.89579 -17.49044 
-453.0699 -20.52956 -20.18885 -2.89579 -17.49044 
-452.9076 -20.52631 -20.18235 -2.89579 -17.49044 
-452.7248 -20.50986 -20.17687 -2.89579 -17.49044 
-452.5422 -20.49526 -20.17322 -2.89579 -17.49044 
-452.3606 -20.48436 -20.1714 -2.89579 -17.49044 
-452.1791 -20.47529 -20.16777 -2.89579 -17.49044 
-452.0176 -20.46721 -20.16293 -2.89579 -17.49044 
-451.8361 -20.45995 -20.15567 -2.89579 -17.49044 
-451.6547 -20.45451 -20.1466 -2.89579 -17.49044 
-451.4734 -20.45089 -20.13572 -2.89579 -17.49044 
-451.2922 -20.44907 -20.12303 -2.89579 -17.49044 
-451.0897 -20.43288 -20.10683 -2.89579 -17.49044 
-450.9075 -20.42012 -20.09408 -2.89579 -17.49044 
-450.7256 -20.41103 -20.08317 -2.89579 -17.49044 
-450.5439 -20.40376 -20.07408 -2.89579 -17.49044 
-450.3631 -20.39834 -20.06685 -2.89579 -17.49044 
-450.1824 -20.39472 -20.05782 -2.89579 -17.49044 
-450.0018 -20.39292 -20.04698 -2.89579 -17.49044 
-449.8001 -20.38284 -20.03287 -2.89579 -17.49044 
-449.6185 -20.37012 -20.02197 -2.89579 -17.49044 
-449.4572 -20.36206 -20.01391 -2.89579 -17.49044 
-449.276 -20.35118 -20.00666 -2.89579 -17.49044 
-449.095 -20.34213 -20.00123 -2.89579 -17.49044 
-448.9142 -20.3349 -19.99761 -2.89579 -17.49044 
-448.7337 -20.32949 -19.99581 -2.89579 -17.49044 
-448.5566 -20.32595 -19.99227 -2.89579 -17.49044 
-448.3756 -20.32414 -19.97416 -2.89579 -17.47234 
-448.1731 -20.29983 -19.95189 -2.89579 -17.45209 
-447.9916 -20.27987 -19.93374 -2.89579 -17.43394 
-447.8309 -20.27344 -19.91606 -2.89579 -17.42055 
-447.6486 -20.26433 -19.89418 -2.89579 -17.40752 
-447.4673 -20.23895 -19.87062 -2.89579 -17.40752 
-447.2874 -20.21375 -19.85982 -2.89579 -17.40752 
-447.1261 -20.20408 -19.85015 -2.874825 -17.40752 
-446.9466 -20.19869 -19.84117 -2.874825 -17.40752 
-446.7672 -20.19511 -19.83041 -2.874825 -17.40752 
-446.5878 -20.19331 -19.81785 -2.874825 -17.40752 
-446.3876 -20.18731 -19.80184 -2.874825 -17.40752 
-446.2084 -20.18372 -19.78929 -2.874825 -17.40752 
-446.0292 -20.18014 -19.77675 -2.874825 -17.40752 
-445.9107 -20.17777 -19.76846 -2.874825 -17.40752 
-445.7315 -20.1706 -19.75591 -2.874825 -17.40752 
-445.5517 -20.16161 -19.74512 -2.874825 -17.40752 
-445.3721 -20.15443 -19.73614 -2.874825 -17.40752 
-445.1934 -20.14907 -19.72899 -2.874825 -17.40752 
-445.0136 -20.14547 -19.70922 -2.874825 -17.40752 
-444.8347 -20.14368 -19.69133 -2.874825 -17.40752 
-444.635 -20.11971 -19.66936 -2.874825 -17.40752 
-444.4751 -20.11011 -19.65017 -2.874825 -17.40752 
-444.295 -20.09391 -19.63037 -2.874825 -17.40752 
-444.1153 -20.07953 -19.61239 -2.874825 -17.40752 
-443.9354 -20.06334 -19.5926 -2.874825 -17.40752 
-443.7558 -20.04897 -19.57464 -2.874825 -17.40752 
-443.5764 -20.03641 -19.55849 -2.874825 -17.40752 
-443.3972 -20.02566 -19.54416 -2.874825 -17.40752 
-443.2183 -20.01671 -19.53164 -2.874825 -17.40752 
-443.0396 -20.00957 -19.52091 -2.874825 -17.40752 
-442.8611 -20.00421 -19.51199 -2.874825 -17.40752 
-442.6828 -20.00065 -19.50486 -2.874825 -17.40752 
-442.5054 -19.99887 -19.49954 -2.874825 -17.40752 
-442.3072 -19.99094 -19.49161 -2.874825 -17.40752 
-442.1291 -19.9856 -19.48627 -2.874825 -17.40752 
-441.9513 -19.98205 -19.48271 -2.874825 -17.40752 
-441.7744 -19.98028 -19.48094 -2.874825 -17.40752 
-441.577 -19.96646 -19.47699 -2.874825 -17.40752 
-441.4596 -19.95942 -19.47347 -2.874825 -17.40752 
-441.2623 -19.94758 -19.46755 -2.874825 -17.40752 
-441.0651 -19.93575 -19.46164 -2.874825 -17.40752 
-440.868 -19.92392 -19.45572 -2.874825 -17.40752 
-442.6909 -20.03329 -19.51041 -2.874825 -17.40752 
-444.5131 -20.14263 -19.56507 -2.874825 -17.40752 
-446.3346 -20.2337 -19.63793 -2.874825 -17.40752 
-448.1553 -20.30653 -19.72897 -2.874825 -17.40752 
-449.9749 -20.36112 -19.87453 -2.874825 -17.40752 
-451.7935 -20.39749 -20.00183 -3.002125 -17.40752 
-453.6115 -20.41567 -20.11091 -3.129384 -17.40752 
-453.4082 -20.40551 -20.09466 -3.115158 -17.40752 
-453.2252 -20.39819 -20.08185 -3.102349 -17.40752 
-453.0425 -20.3927 -20.07088 -3.089556 -17.40752 
-452.8602 -20.38177 -20.06177 -3.076795 -17.40752 
-452.6779 -20.36901 -20.05448 -3.064039 -17.40752 
-452.5167 -20.36256 -20.04642 -3.055979 -17.40752 
-452.3346 -20.35528 -20.03549 -3.046872 -17.40752 
-452.1522 -20.3498 -20.02272 -3.046872 -17.40752 
-451.9701 -20.34616 -20.01179 -3.046872 -17.40752 
-451.7878 -20.34069 -19.99903 -3.046872 -17.40752 
-451.6058 -20.33706 -19.98812 -3.046872 -17.40752 
-451.424 -20.33524 -19.97903 -3.046872 -17.40752 
-451.2621 -20.33038 -19.96931 -3.046872 -17.40752 
-451.0799 -20.3158 -19.9602 -3.046872 -17.40752 
-450.8986 -20.30311 -19.95295 -3.046872 -17.40752 
-450.7174 -20.28861 -19.94751 -3.046872 -17.40752 
-450.5369 -20.27237 -19.9421 -3.046872 -17.40752 
-450.3549 -20.25417 -19.93482 -3.041412 -17.40752 
-450.1731 -20.23781 -19.92937 -3.035958 -17.40752 
-449.9915 -20.22328 -19.92573 -3.030511 -17.40752 
-449.8102 -20.21059 -19.92392 -3.025072 -17.40752 
-449.6297 -20.19976 -19.92392 -3.019658 -17.40752 
-449.4493 -20.19075 -19.92212 -3.014247 -17.40752 
-449.2887 -20.18753 -19.90605 -3.009427 -17.40752 
-449.1069 -20.17481 -19.88969 -3.000337 -17.40752 
-448.9253 -20.16391 -19.87516 -2.994891 -17.40752 
-448.7441 -20.15485 -19.86248 -2.993079 -17.40752 
-450.5638 -20.22764 -19.97166 -3.011276 -17.40752 
-450.3821 -20.21674 -19.96439 -3.011276 -17.40752 
-450.2007 -20.20767 -19.95895 -3.011276 -17.40752 
-450.0201 -20.20045 -19.95534 -3.011276 -17.40752 
-449.8397 -20.19503 -19.94992 -3.011276 -17.40752 
-449.6592 -20.19142 -19.94271 -3.011276 -17.40752 
-449.4789 -20.18962 -19.93369 -3.011276 -17.40752 
-449.2775 -20.17753 -19.92161 -3.011276 -17.40752 
-449.0958 -20.15573 -19.91252 -3.011276 -17.40752 
-448.9143 -20.13576 -19.90526 -3.011276 -17.40752 
-448.733 -20.11764 -19.89982 -3.011276 -17.40752 
-448.552 -20.10135 -19.8962 -3.011276 -17.40752 
-448.3712 -20.08688 -19.89439 -3.011276 -17.40752 
-448.1913 -20.07429 -19.89439 -3.011276 -17.40752 
-448.0117 -20.0689 -19.8926 -3.011276 -17.40752 
-447.8322 -20.06531 -19.88901 -3.011276 -17.40752 
-447.6527 -20.06352 -19.88362 -3.011276 -17.40752 
-447.4528 -20.04952 -19.87563 -3.011276 -17.40752 
-447.2927 -20.04472 -19.87082 -3.011276 -17.40752 
-447.1122 -20.02667 -19.86721 -3.011276 -17.40752 
-446.9316 -20.0068 -19.86179 -3.011276 -17.40752 
-446.7512 -19.98876 -19.85819 -3.011276 -17.40752 
-446.5711 -19.97255 -19.85639 -3.011276 -17.40752 
-446.4131 -19.97255 -19.85639 -3.011276 -17.40752 
-446.234 -19.9636 -19.8546 -3.011276 -17.40752 
-446.0544 -19.95641 -19.851 -3.011276 -17.40752 
-445.8757 -19.95105 -19.84922 -3.011276 -17.40752 
-445.697 -19.94748 -19.84564 -3.011276 -17.40752 
-445.5181 -19.94569 -19.83312 -3.011276 -17.40752 
-445.3189 -19.93772 -19.81719 -3.011276 -17.40752 
-445.1387 -19.9215 -19.80097 -3.011276 -17.40752 
-444.9594 -19.90716 -19.7938 -3.011276 -17.40752 
-444.7798 -19.89459 -19.78841 -2.998704 -17.40752 
-444.6005 -19.88383 -19.78482 -2.989738 -17.40752 
-444.422 -19.8749 -19.78304 -2.984384 -17.40752 
-444.2838 -19.86937 -19.78027 -2.983001 -17.40752 
-444.1448 -19.86381 -19.76359 -2.981611 -17.40752 
-443.9858 -19.85746 -19.74452 -2.980022 -17.40752 
-443.8267 -19.85586 -19.72542 -2.978431 -17.40752 
-443.6481 -19.85408 -19.70757 -2.973074 -17.40752 
-445.4698 -19.85408 -19.90795 -2.991291 -17.40752 
-445.2898 -19.83428 -19.90075 -2.991291 -17.40752 
-445.1305 -19.8295 -19.89597 -2.991291 -17.40752 
-444.9514 -19.82234 -19.89239 -2.991291 -17.40752 
-444.7724 -19.81697 -19.8906 -2.991291 -17.40752 
-444.599 -19.8135 -19.8906 -2.991291 -17.40752 
-444.4198 -19.81171 -19.88881 -2.991291 -17.37766 
-444.2215 -19.81171 -19.88881 -2.991291 -17.34461 
-444.0421 -19.80095 -19.88701 -2.991291 -17.31471 
-443.8628 -19.79557 -19.87984 -2.991291 -17.28482 
-443.6836 -19.7884 -19.87446 -2.991291 -17.25495 
-443.5053 -19.77948 -19.8709 -2.991291 -17.22524 
-443.3274 -19.77059 -19.86734 -2.991291 -17.18965 
-443.1501 -19.76172 -19.86379 -2.991291 -17.14532 
-442.9677 -19.7526 -19.86015 -2.991291 -17.08453 
-442.7905 -19.74374 -19.8566 -2.991291 -17.04023 
-442.6083 -19.73463 -19.85296 -2.991291 -16.9795 
-442.4312 -19.72578 -19.84942 -2.991291 -16.93524 
-442.2492 -19.71668 -19.84578 -2.991291 -16.87456 
-442.0633 -19.70738 -19.84206 -2.991291 -16.82808 
-441.9465 -19.70037 -19.83972 -2.991291 -16.82808 
-441.7889 -19.69092 -19.83342 -2.991291 -16.82808 
-441.6321 -19.68151 -19.82715 -2.991291 -16.82808 
-441.4539 -19.66725 -19.82002 -2.991291 -16.82808 
-441.2758 -19.65479 -19.81468 -2.991291 -16.82808 
-441.1184 -19.65164 -19.81153 -2.991291 -16.82808 
-440.9414 -19.64102 -19.80976 -2.991291 -16.82808 
-440.7645 -19.62863 -19.80976 -2.991291 -16.82808 
-440.5876 -19.61802 -19.80799 -2.991291 -16.82808 
-440.4108 -19.60918 -19.80445 -2.991291 -16.82808 
-440.2341 -19.60212 -19.79915 -2.991291 -16.82808 
-440.0575 -19.59328 -19.79562 -2.991291 -16.82808 
-439.8802 -19.58265 -19.77789 -2.991291 -16.82808 
-439.703 -19.57024 -19.76194 -2.991291 -16.82808 
-439.5258 -19.55607 -19.74777 -2.991291 -16.82808 
-439.3482 -19.54186 -19.73533 -2.991291 -16.82808 
-439.1908 -19.53084 -19.72589 -2.991291 -16.82808 
-439.0137 -19.52021 -19.71703 -2.991291 -16.82808 
-438.8374 -19.5114 -19.70998 -2.991291 -16.82808 
-438.6611 -19.50082 -19.70469 -2.991291 -16.82808 
-438.485 -19.48849 -19.70117 -2.991291 -16.82808 
-438.3087 -19.47439 -19.69588 -2.991291 -16.82808 
-438.1319 -19.45848 -19.69235 -2.991291 -16.82808 
-437.9559 -19.4444 -19.69059 -2.991291 -16.82808 
-437.782 -19.42875 -19.67493 -2.991291 -16.82808 
-437.6244 -19.41772 -19.66233 -2.991291 -16.81233 
-437.4477 -19.40711 -19.64996 -2.991291 -16.79465 
-437.271 -19.39474 -19.63935 -2.991291 -16.77699 
-437.114 -19.3869 -19.63151 -2.991291 -16.76129 
-436.938 -19.38338 -19.6227 -2.991291 -16.74368 
-436.762 -19.38161 -19.61214 -2.991291 -16.72608 
-436.5623 -19.36963 -19.59817 -2.991291 -16.70611 
-436.3864 -19.35732 -19.58937 -2.991291 -16.70611 
-436.216 -19.3471 -19.58256 -2.982775 -16.70611 
-436.0403 -19.3348 -19.57377 -2.97399 -16.67683 
-435.8636 -19.32773 -19.5667 -2.968688 -16.63264 
-435.6857 -19.32239 -19.5578 -2.96335 -16.58816 
-435.504 -19.31876 -19.54691 -2.956084 -16.55183 
-435.3292 -19.31351 -19.53816 -2.95084 -16.55183 
-435.1348 -19.30185 -19.5265 -2.943064 -16.55183 
-434.9783 -19.27838 -19.51555 -2.933674 -16.55183 
-434.8028 -19.27135 -19.50501 -2.924897 -16.55183 
-434.6276 -19.2661 -19.49625 -2.919641 -16.55183 
-434.4526 -19.2626 -19.48926 -2.914392 -16.55183 
-434.2984 -19.26105 -19.48463 -2.909764 -16.55183 
-434.123 -19.24351 -19.47761 -2.909764 -16.55183 
-433.9478 -19.22775 -19.47235 -2.909764 -16.55183 
-433.7728 -19.21375 -19.46885 -2.909764 -16.55183 
-433.5987 -19.20156 -19.46711 -2.909764 -16.55183 
-433.4246 -19.18763 -19.46711 -2.909764 -16.55183 
-433.2506 -19.17546 -19.46537 -2.909764 -16.55183 
-433.0767 -19.16502 -19.46189 -2.909764 -16.55183 
