0 -0.09999999 -0.1 -0.1 0.1 
0 -0.09999997 -0.1 -0.1 0.1 
0 -0.09999996 -0.1 -0.1 0.1 
0 -0.09999995 -0.1 -0.1 0.1 
0 -0.09999994 -0.1 -0.1 0.1 
0 -0.09999993 -0.1 -0.1 0.1 
0 -0.09999993 -0.1 -0.1 0.1 
0 -0.09999993 -0.1 -0.1 0.1 
0 -0.09999992 -0.1 -0.1 0.1 
0 -0.09999991 -0.1 -0.1 0.1 
0 -0.0999999 -0.1 -0.1 0.1 
0 -0.09999993 -0.1 -0.1 0.1 
0 -0.09999992 -0.1 -0.09999996 0.1 
0 -0.09999992 -0.1 -0.09968372 0.1 
0 -0.0999999 -0.1 -0.09968369 0.1 
0 -0.09999988 -0.1 -0.09968365 0.1 
0 -0.09999987 -0.1 -0.09968362 0.1 
0 -0.09999985 -0.1 -0.09968358 0.1 
0 -0.09999985 -0.1 -0.09936725 0.1 
0 -0.09999984 -0.1 -0.09936725 0.1 
0 -0.09999982 -0.1 -0.09936725 0.1 
0 -0.09999981 -0.1 -0.09936725 0.1 
0 -0.1005998 -0.1 -0.09936725 0.1 
0 -0.1005998 -0.1 -0.09936725 0.1 
0 -0.1005998 -0.1 -0.09936725 0.1 
0 -0.1005998 -0.1 -0.09936725 0.1 
0 -0.1005998 -0.1 -0.09936725 0.1 
0 -0.1003761 -0.1 -0.09936725 0.1 
0 -0.1003761 -0.1 -0.09936725 0.1 
0 -0.1003761 -0.1 -0.09936725 0.1 
0 -0.100659 -0.1 -0.09936725 0.1 
0 -0.1011881 -0.1 -0.09936725 0.1 
0 -0.1011881 -0.1 -0.09936725 0.1 
0 -0.1011881 -0.1 -0.09936725 0.1 
0 -0.1011881 -0.1 -0.09936725 0.1 
0 -0.1011881 -0.1 -0.09936725 0.1 
0 -0.1011881 -0.1 -0.09936725 0.1 
0 -0.1010466 -0.1 -0.09936725 0.1 
0 -0.1010466 -0.09999996 -0.09936725 0.1 
0 -0.1008734 -0.09977634 -0.09936725 0.1 
0 -0.1008734 -0.09977633 -0.09936725 0.1 
0 -0.1011896 -0.09999993 -0.09936725 0.1 
0 -0.1011896 -0.09999992 -0.09936725 0.1 
0 -0.1011896 -0.0999999 -0.09936725 0.1 
0 -0.1014896 -0.1002827 -0.09936725 0.1 
0 -0.1014895 -0.1002827 -0.09936725 0.1 
0 -0.1014895 -0.1002827 -0.09936725 0.1 
0 -0.1014895 -0.1002827 -0.09936725 0.1 
0 -0.1014895 -0.1002826 -0.09936725 0.1 
0 -0.1014894 -0.1002826 -0.09936725 0.1 
0 -0.1014894 -0.1002826 -0.09936725 0.1 
0 -0.1014894 -0.1002826 -0.09936725 0.1 
0 -0.1016894 -0.1002826 -0.09936725 0.1 
0 -0.1016894 -0.1002826 -0.09936725 0.1 
0 -0.1016894 -0.1002826 -0.09936719 0.1 
0 -0.1017894 -0.1002826 -0.0998671 0.1 
0 -0.1017894 -0.1002826 -0.09986706 0.1 
0 -0.1021499 -0.1002826 -0.1002753 0.1 
0 -0.1021499 -0.1002826 -0.1002752 0.1 
0 -0.1021499 -0.1002826 -0.1002752 0.1 
0 -0.1021498 -0.1002826 -0.1002752 0.1 
0 -0.1021498 -0.1002826 -0.1002752 0.1 
0 -0.1021498 -0.1002826 -0.1002751 0.1 
0 -0.1021497 -0.1002826 -0.1002751 0.1 
0 -0.1021497 -0.1002826 -0.1002751 0.1 
0 -0.1021497 -0.1002826 -0.100275 0.1 
0 -0.1021497 -0.1002825 -0.100275 0.1 
0 -0.1021496 -0.1002825 -0.1002749 0.1 
0 -0.1021496 -0.1002825 -0.1002749 0.1 
0 -0.1021496 -0.1002824 -0.1002748 0.1 
0 -0.1021496 -0.1002824 -0.1002748 0.1 
0 -0.1021496 -0.1002823 -0.1002747 0.1 
0 -0.1021496 -0.1000587 -0.09989671 0.1 
0 -0.1021496 -0.1000587 -0.09989668 0.1 
0 -0.1021495 -0.1000587 -0.09989662 0.1 
0 -0.1021495 -0.1000587 -0.09989657 0.1 
0 -0.1021495 -0.1000587 -0.09989651 0.1 
0 -0.1021493 -0.1000587 -0.09989619 0.1 
0 -0.1021493 -0.1000587 -0.09989619 0.09999998 
0 -0.1021493 -0.1000587 -0.09989619 0.1 
0 -0.1021492 -0.1000587 -0.09989619 0.1000002 
0 -0.1021492 -0.1000586 -0.09989619 0.1000002 
0 -0.1021492 -0.1000586 -0.09989619 0.1000002 
0 -0.1014784 -0.1000586 -0.09989619 0.1021214 
0 -0.1010312 -0.1000586 -0.09989619 0.1032761 
0 -0.100858 -0.1000586 -0.09989619 0.1037761 
0 -0.100858 -0.1000586 -0.09989619 0.1037761 
0 -0.1006131 -0.1000586 -0.09989619 0.1043534 
0 -0.1006131 -0.1000586 -0.09989619 0.1043534 
0 -0.100858 -0.1000586 -0.09989619 0.1038534 
0 -0.100858 -0.1000586 -0.09989619 0.1038534 
0 -0.100858 -0.1000586 -0.09989619 0.1038534 
0 -0.100858 -0.1000586 -0.09989619 0.1038534 
0 -0.100858 -0.1000586 -0.09989619 0.1038534 
0 -0.100858 -0.1000586 -0.09989619 0.1038534 
0 -0.1006131 -0.1000586 -0.09989619 0.1038534 
0 -0.100613 -0.1000586 -0.09989619 0.1038534 
0 -0.100613 -0.1000586 -0.09989619 0.1038534 
0 -0.100613 -0.1000586 -0.09989619 0.1038534 
0 -0.100613 -0.1000586 -0.09989619 0.1038534 
0 -0.100613 -0.1000586 -0.09989619 0.1038534 
0 -0.100613 -0.1000586 -0.09989619 0.1038534 
0 -0.100613 -0.1000586 -0.09989619 0.1038534 
0 -0.100613 -0.1000586 -0.09989619 0.1038534 
0 -0.1002813 -0.1000586 -0.09989619 0.1038534 
0 -0.1002813 -0.1000586 -0.09989619 0.1038534 
0 -0.1002813 -0.1000586 -0.09989619 0.1038534 
0 -0.1002813 -0.1000586 -0.09989619 0.1038534 
0 -0.1002813 -0.1000586 -0.09989619 0.1038534 
0 -0.1002812 -0.1000586 -0.09989619 0.1038534 
0 -0.1002812 -0.1000586 -0.09989619 0.1038534 
0 -0.1002812 -0.1000586 -0.09989619 0.1038534 
0 -0.1002812 -0.1000586 -0.09989619 0.1038534 
0 -0.1002812 -0.1000586 -0.09989619 0.1038534 
0 -0.1002811 -0.1000586 -0.09989619 0.1038534 
0 -0.1002811 -0.1000586 -0.09989619 0.1038534 
0 -0.1002811 -0.1000586 -0.09989619 0.1038534 
0 -0.1002811 -0.1000586 -0.09989619 0.1038534 
0 -0.1002811 -0.1000586 -0.09989619 0.1038534 
0 -0.1002811 -0.1000586 -0.09989619 0.1038534 
0 -0.1002811 -0.1000586 -0.09989619 0.1038534 
0 -0.1002811 -0.1000586 -0.09989619 0.1038534 
0 -0.1002811 -0.1000586 -0.09989619 0.1038534 
0 -0.1002811 -0.1000586 -0.09989619 0.1038534 
0 -0.1002811 -0.1000586 -0.09989616 0.1038534 
0 -0.1002811 -0.1000586 -0.09989612 0.1038534 
0 -0.1002811 -0.1000586 -0.09989606 0.1038534 
0 -0.1001079 -0.1000586 -0.09948777 0.1038534 
0 -0.1003907 -0.1000586 -0.1003042 0.1038534 
0 -0.1004907 -0.1000586 -0.1006821 0.1038534 
0 -0.1004907 -0.1000586 -0.1003286 0.1038534 
0 -0.1004907 -0.1000586 -0.1003285 0.1038534 
0 -0.1004905 -0.1000586 -0.1003284 0.1038534 
0 -0.1004906 -0.1000586 -0.1003284 0.1038534 
0 -0.1004905 -0.1000586 -0.1003282 0.1038534 
0 -0.1004906 -0.1000586 -0.1003282 0.1038534 
0 -0.1004905 -0.1000586 -0.100328 0.1038534 
0 -0.1004905 -0.1000586 -0.100328 0.1038534 
0 -0.1004905 -0.1000586 -0.100328 0.1038534 
0 -0.1004905 -0.1000586 -0.100328 0.1038534 
0 -0.1004905 -0.1000586 -0.100328 0.1038534 
0 -0.1004905 -0.1000586 -0.100328 0.1038534 
0 -0.1002076 -0.1000586 -0.100328 0.1038534 
0 -0.1002076 -0.1000586 -0.100328 0.1038534 
0 -0.1002076 -0.1000586 -0.100328 0.1038534 
0 -0.1002076 -0.1000586 -0.100328 0.1038534 
0 -0.1002076 -0.1000586 -0.100328 0.1038534 
0 -0.1002076 -0.1000586 -0.100328 0.1038534 
0 -0.1002076 -0.1000586 -0.1003279 0.1038534 
0 -0.1000343 -0.1000586 -0.1003279 0.1038534 
0 -0.1000343 -0.1000586 -0.1003279 0.1038534 
0 -0.1000343 -0.1000586 -0.1003279 0.1038534 
0 -0.09981073 -0.1000586 -0.1000116 0.1038534 
0 -0.09981073 -0.1000586 -0.1000116 0.1038534 
0 -0.09981072 -0.1000586 -0.1000116 0.1038534 
0 -0.09981072 -0.1000586 -0.1004199 0.1038534 
0 -0.0998107 -0.1000586 -0.1004198 0.1038534 
0 -0.09981068 -0.1000586 -0.1004198 0.1038534 
0 -0.1003398 -0.1000586 -0.1014197 0.1038534 
0 -0.1006225 -0.1000586 -0.1018667 0.1038534 
0 -0.1009225 -0.1000586 -0.1018667 0.1038534 
0 -0.1009225 -0.1000586 -0.1018667 0.1038534 
0 -0.1009225 -0.1000586 -0.1018667 0.1038534 
0 -0.1009225 -0.1000586 -0.1018667 0.1038534 
0 -0.1009225 -0.1000586 -0.1018667 0.1038534 
0 -0.1009224 -0.1000586 -0.1018667 0.1038534 
0 -0.1009224 -0.1000586 -0.1018667 0.1038534 
0 -0.1009224 -0.1000586 -0.1018667 0.1038534 
0 -0.1009224 -0.1000586 -0.1018667 0.1038534 
0 -0.1009224 -0.1000586 -0.1018667 0.1038534 
0 -0.1009224 -0.1000586 -0.1018667 0.1038534 
0 -0.1009224 -0.1000586 -0.1018667 0.1038534 
0 -0.1009224 -0.1000586 -0.1018667 0.1038534 
0 -0.1009224 -0.1000586 -0.1018667 0.1038534 
0 -0.1009224 -0.1000586 -0.1018667 0.1038534 
0 -0.1009224 -0.1000586 -0.1018667 0.1038534 
0 -0.1009224 -0.1000586 -0.1018667 0.1038534 
0 -0.1009224 -0.1000586 -0.1018667 0.1038534 
0 -0.1009223 -0.1000586 -0.1018667 0.1038534 
0 -0.1009224 -0.1000586 -0.1018667 0.1038534 
0 -0.1009224 -0.1000586 -0.1018667 0.1038534 
0 -0.1009223 -0.1000586 -0.1018666 0.1038534 
0 -0.1009223 -0.1000586 -0.1018666 0.1038534 
0 -0.1006395 -0.1000586 -0.1018666 0.1038534 
0 -0.1006394 -0.1000586 -0.1018666 0.1038534 
0 -0.1006394 -0.1000586 -0.1018666 0.1038534 
0 -0.100863 -0.1000586 -0.1018666 0.1038534 
0 -0.100863 -0.1000586 -0.1018666 0.1038534 
0 -0.100863 -0.1000586 -0.1018666 0.1038534 
0 -0.100863 -0.1000586 -0.1018666 0.1038534 
0 -0.100863 -0.1000586 -0.1018666 0.1038534 
0 -0.100863 -0.1000586 -0.1014194 0.1038534 
0 -0.100863 -0.1000586 -0.1014194 0.1038534 
0 -0.1010362 -0.1000586 -0.1018665 0.1038534 
0 -0.1011776 -0.1000586 -0.1022747 0.1038534 
0 -0.1011776 -0.1000586 -0.1022747 0.1038534 
0 -0.1011776 -0.1000586 -0.1022746 0.1038534 
0 -0.1011776 -0.1000586 -0.1022746 0.1038534 
0 -0.1011776 -0.1000586 -0.1022746 0.1038534 
0 -0.1011776 -0.1000586 -0.1022746 0.1038534 
0 -0.1011776 -0.1000586 -0.1022746 0.1038534 
0 -0.1014775 -0.1000586 -0.1026525 0.1038534 
0 -0.1014775 -0.1000586 -0.1026525 0.1038534 
0 -0.1014775 -0.1000586 -0.1026525 0.1038534 
0 -0.1014775 -0.1000586 -0.1026524 0.1038534 
0 -0.1014775 -0.1000586 -0.1026524 0.1038534 
0 -0.1016774 -0.1000586 -0.1030994 0.1038534 
0 -0.1016774 -0.1000586 -0.1030994 0.1038534 
0 -0.1016773 -0.1000586 -0.1030994 0.1038534 
0 -0.1016773 -0.1000585 -0.1030994 0.1038534 
0 -0.1016773 -0.1000585 -0.1030994 0.1038534 
0 -0.1016773 -0.1000585 -0.1030994 0.1038534 
0 -0.1014323 -0.09981352 -0.1030994 0.1038534 
0 -0.1014323 -0.0998135 -0.1030994 0.1038534 
0 -0.1014323 -0.1000135 -0.1030994 0.1038534 
0 -0.1014323 -0.1000135 -0.1030994 0.1038534 
0 -0.1014323 -0.1000135 -0.1030994 0.1038534 
0 -0.1014322 -0.1000134 -0.1030994 0.1038534 
0 -0.101432 -0.1000134 -0.1030994 0.1038534 
0 -0.101432 -0.1000134 -0.1030994 0.1038534 
0 -0.101432 -0.1000134 -0.1030994 0.1038534 
0 -0.101432 -0.1000134 -0.1030994 0.1038534 
0 -0.101432 -0.1000134 -0.1030994 0.1038534 
0 -0.101432 -0.1000134 -0.1030994 0.1038534 
0 -0.101432 -0.1000134 -0.1030994 0.1038534 
0 -0.101432 -0.1000134 -0.1030994 0.1038534 
0 -0.101432 -0.1000134 -0.1030994 0.1038534 
0 -0.1014319 -0.1000134 -0.1030994 0.1038534 
0 -0.1014319 -0.1000134 -0.1030994 0.1038534 
0 -0.1014319 -0.1000134 -0.1030994 0.1038534 
0 -0.1014319 -0.1000134 -0.1030994 0.1038534 
0 -0.1014319 -0.1000134 -0.1030994 0.1038534 
0 -0.1014319 -0.1000134 -0.1030994 0.1038534 
0 -0.1014319 -0.1000134 -0.1030994 0.1038534 
0 -0.1014319 -0.1000134 -0.1030994 0.1038534 
0 -0.1014319 -0.1000134 -0.1030994 0.1038534 
0 -0.1014319 -0.1000134 -0.1030994 0.1038534 
0 -0.1011157 -0.1000134 -0.1030994 0.1038534 
0 -0.1011157 -0.1000134 -0.1030994 0.1038534 
0 -0.1011156 -0.1000134 -0.1030993 0.1038534 
0 -0.1011156 -0.1000134 -0.1030993 0.1038534 
0 -0.1011156 -0.1000134 -0.1030993 0.1038534 
0 -0.1011156 -0.1000133 -0.1030992 0.1038534 
0 -0.101257 -0.1002369 -0.1030992 0.1038534 
0 -0.101257 -0.1002369 -0.1030992 0.1038534 
0 -0.101257 -0.1000637 -0.1030992 0.1038534 
0 -0.101257 -0.1000637 -0.1030992 0.1038534 
0 -0.1012569 -0.1000637 -0.1030992 0.1038534 
0 -0.1012569 -0.1000637 -0.1030992 0.1038534 
0 -0.1012569 -0.1000637 -0.1030992 0.1038534 
0 -0.1012569 -0.1000637 -0.1030992 0.1038534 
0 -0.1009741 -0.1000637 -0.1030992 0.104207 
0 -0.1009741 -0.1000637 -0.1030992 0.104207 
0 -0.1009741 -0.1000637 -0.1030992 0.104207 
0 -0.1009741 -0.1000637 -0.1030992 0.104207 
0 -0.1009741 -0.1000637 -0.1030992 0.104207 
0 -0.1009741 -0.1000637 -0.1030992 0.104207 
0 -0.1009741 -0.1000637 -0.1030992 0.1042069 
0 -0.1009741 -0.1000637 -0.1030992 0.1042069 
0 -0.1009741 -0.1000637 -0.1030992 0.1042069 
0 -0.100974 -0.1000637 -0.1030991 0.1042069 
0 -0.1009741 -0.1000637 -0.1030991 0.1042069 
0 -0.1009741 -0.1000637 -0.1030991 0.1042069 
0 -0.100974 -0.1000637 -0.1030991 0.1042069 
0 -0.100974 -0.1000637 -0.1030991 0.1042069 
0 -0.100974 -0.1000637 -0.103099 0.1042069 
0 -0.1012386 -0.1000637 -0.1035073 0.1042069 
0 -0.1012386 -0.1000637 -0.1035072 0.1042069 
0 -0.1012385 -0.1000637 -0.1035072 0.1042069 
0 -0.1019093 -0.1000637 -0.1047317 0.1042069 
0 -0.1023093 -0.1000637 -0.1047317 0.1042069 
0 -0.1025092 -0.1000637 -0.1047317 0.1042069 
0 -0.1025092 -0.1000637 -0.1047317 0.1042069 
0 -0.1025092 -0.1000637 -0.1047317 0.1042069 
0 -0.1025092 -0.1000637 -0.1047317 0.1042069 
0 -0.1025092 -0.1000637 -0.1047317 0.1042069 
0 -0.1025092 -0.1000637 -0.1047317 0.1042069 
0 -0.1025092 -0.1000637 -0.1047317 0.1042069 
0 -0.1027328 -0.1000637 -0.1047317 0.1042069 
0 -0.1027328 -0.1000637 -0.1047317 0.1042069 
0 -0.1027328 -0.1000637 -0.1047317 0.1042069 
0 -0.1027328 -0.1000637 -0.1047317 0.1042069 
0 -0.1027328 -0.1000637 -0.1047317 0.1042069 
0 -0.1027328 -0.1000637 -0.1047317 0.1042069 
0 -0.1027328 -0.1000637 -0.1047317 0.1042069 
0 -0.1027328 -0.1000637 -0.1047317 0.1042069 
0 -0.1028742 -0.1000637 -0.1047317 0.1042069 
0 -0.1030978 -0.1000637 -0.1047317 0.1042069 
0 -0.1030978 -0.1000637 -0.1047317 0.1042069 
0 -0.1030978 -0.1000637 -0.1047317 0.1042069 
0 -0.1030978 -0.1000637 -0.1047317 0.1042069 
0 -0.1030978 -0.1000637 -0.1047317 0.1042069 
0 -0.1030978 -0.1000637 -0.1047317 0.1042069 
0 -0.1030978 -0.1000637 -0.1047317 0.1042069 
0 -0.1030978 -0.1000637 -0.1047317 0.1042069 
0 -0.1030978 -0.1000637 -0.1047317 0.1042069 
0 -0.1030978 -0.1000637 -0.1047317 0.1042069 
0 -0.1030978 -0.1000637 -0.1047317 0.1042069 
0 -0.1030978 -0.1000637 -0.1047317 0.1042069 
0 -0.1030978 -0.1000637 -0.1047317 0.1042069 
0 -0.1030978 -0.1000637 -0.1047317 0.1042069 
0 -0.1030978 -0.1000637 -0.1047317 0.1042069 
0 -0.1030978 -0.1000637 -0.1047317 0.1042069 
0 -0.1030977 -0.1000637 -0.1047317 0.1042069 
0 -0.1030977 -0.1000637 -0.1047316 0.1042069 
0 -0.1030976 -0.1000636 -0.1047315 0.1042069 
0 -0.1030975 -0.1000636 -0.1047315 0.1042069 
0 -0.1030975 -0.1000636 -0.1047315 0.1042069 
0 -0.1030975 -0.1000636 -0.1047315 0.104207 
0 -0.1030975 -0.1000636 -0.1047315 0.104207 
0 -0.1028525 -0.1000636 -0.1047315 0.1047846 
0 -0.1028525 -0.1000636 -0.1047315 0.1047845 
0 -0.1028525 -0.1000636 -0.1047315 0.1047844 
0 -0.1028525 -0.1000636 -0.1047315 0.1047843 
0 -0.1017943 -0.1000636 -0.1047315 0.108784 
0 -0.1010006 -0.1000636 -0.1047315 0.1109052 
0 -0.1010005 -0.1000636 -0.1047315 0.1109054 
0 -0.1006006 -0.1000636 -0.1047315 0.112905 
0 -0.1006006 -0.1000636 -0.1047315 0.112905 
0 -0.1006008 -0.1000636 -0.1047315 0.1129045 
0 -0.1006007 -0.1000636 -0.1047315 0.1129045 
0 -0.1006007 -0.1000636 -0.1047315 0.1129045 
0 -0.1006007 -0.1000636 -0.1047315 0.1129045 
0 -0.1006007 -0.1000636 -0.1047315 0.1129045 
0 -0.1006007 -0.1000636 -0.1047315 0.1129045 
0 -0.1008456 -0.1000636 -0.1047315 0.1129045 
0 -0.1008456 -0.1000636 -0.1047315 0.1129045 
0 -0.1008456 -0.1000636 -0.1047315 0.1129045 
0 -0.1008456 -0.1000636 -0.1047315 0.1129045 
0 -0.1008456 -0.1000636 -0.1047315 0.1129045 
0 -0.1008456 -0.1000636 -0.1047315 0.1129045 
0 -0.1008456 -0.1000636 -0.1047315 0.1129045 
0 -0.1008456 -0.1000636 -0.1047315 0.1129045 
0 -0.1008456 -0.1000636 -0.1047315 0.1129045 
0 -0.1008456 -0.1000636 -0.1047315 0.1129045 
0 -0.1008456 -0.1000636 -0.1047315 0.1129045 
0 -0.1008455 -0.1000636 -0.1047315 0.1129045 
0 -0.1008455 -0.1000636 -0.1047315 0.1129045 
0 -0.1008455 -0.1000636 -0.1047315 0.1129045 
0 -0.1008455 -0.1000636 -0.1047315 0.1129045 
0 -0.1008455 -0.1000636 -0.1047315 0.1129045 
0 -0.1008455 -0.1000636 -0.1047315 0.1129045 
0 -0.1008455 -0.1000636 -0.1047315 0.1129045 
0 -0.1008455 -0.1000636 -0.1047315 0.1129045 
0 -0.1008455 -0.1000636 -0.1047315 0.1129045 
0 -0.1008455 -0.1000636 -0.1047315 0.1129045 
0 -0.1008455 -0.1000636 -0.1047315 0.1129045 
0 -0.1008455 -0.1000636 -0.1047315 0.1129045 
0 -0.1008454 -0.1000636 -0.1047315 0.1129045 
0 -0.1008454 -0.1000636 -0.1047315 0.1129045 
0 -0.1008454 -0.1000636 -0.1047315 0.1129045 
0 -0.1008454 -0.1000636 -0.1047315 0.1129045 
0 -0.1008454 -0.1000636 -0.1047315 0.1129045 
0 -0.1008455 -0.1000636 -0.1047315 0.1129045 
0 -0.1008454 -0.1000636 -0.1047314 0.1129045 
0 -0.1008454 -0.1000636 -0.1043779 0.1129045 
0 -0.1008454 -0.1000636 -0.1043779 0.1129045 
0 -0.1014778 -0.1000636 -0.1050849 0.1129045 
0 -0.1014778 -0.1000636 -0.1050849 0.1129045 
0 -0.1014778 -0.1000636 -0.1050849 0.1129045 
0 -0.1014778 -0.1000636 -0.1050848 0.1129045 
0 -0.1014777 -0.1000636 -0.1050847 0.1129045 
0 -0.1014777 -0.1000636 -0.1050847 0.1129045 
0 -0.1014777 -0.1000636 -0.1050847 0.1129045 
0 -0.1014777 -0.1000636 -0.1050847 0.1129045 
0 -0.1014776 -0.1000636 -0.1050847 0.1129045 
0 -0.1014776 -0.1000636 -0.1050847 0.1129045 
0 -0.1014776 -0.1000636 -0.1050847 0.1129045 
0 -0.1014776 -0.1000636 -0.1050847 0.1129045 
0 -0.1014776 -0.1000636 -0.1050847 0.1129045 
0 -0.1014776 -0.1000636 -0.1050847 0.1129045 
0 -0.1014776 -0.1000636 -0.1050847 0.1129045 
0 -0.1016776 -0.1000636 -0.1050847 0.1129045 
0 -0.1016776 -0.1000636 -0.1050847 0.1129045 
0 -0.1016776 -0.1000636 -0.1050847 0.1129045 
0 -0.1016776 -0.1000636 -0.1050847 0.1129045 
0 -0.1016777 -0.1000636 -0.1050847 0.1129045 
0 -0.1016777 -0.1000636 -0.1050847 0.1129045 
0 -0.1016776 -0.1000636 -0.1050847 0.1129045 
0 -0.1016776 -0.1000636 -0.1050847 0.1129045 
0 -0.1016776 -0.1000636 -0.1050846 0.1129045 
0 -0.1016776 -0.1000636 -0.1050846 0.1129045 
0 -0.1016776 -0.1000636 -0.1050846 0.1129045 
0 -0.1014326 -0.1000636 -0.1046373 0.1129045 
0 -0.1014326 -0.1000636 -0.1046373 0.1129045 
0 -0.1014326 -0.1000636 -0.1046372 0.1129045 
0 -0.1014325 -0.1000635 -0.104637 0.1129045 
0 -0.1014325 -0.1000635 -0.104637 0.1129045 
0 -0.1014324 -0.1000635 -0.104637 0.1129045 
0 -0.1014324 -0.1000635 -0.104637 0.1129045 
0 -0.1014324 -0.1000634 -0.104637 0.1129045 
0 -0.1011678 -0.09981847 -0.104637 0.1129045 
0 -0.1011678 -0.09981845 -0.104637 0.1129045 
0 -0.1011678 -0.09981843 -0.104637 0.1129045 
0 -0.1011678 -0.09981842 -0.104637 0.1129045 
0 -0.1011678 -0.09981841 -0.104637 0.1129045 
0 -0.1011677 -0.0998184 -0.104637 0.1129045 
0 -0.1011675 -0.0998184 -0.104637 0.1129045 
0 -0.1004327 -0.0998184 -0.104637 0.1159042 
0 -0.1004328 -0.0998184 -0.104637 0.1159041 
0 -0.1004328 -0.0998184 -0.104637 0.1159041 
0 -0.1004328 -0.0998184 -0.104637 0.115904 
0 -0.1000864 -0.0998184 -0.104637 0.1173182 
0 -0.1000864 -0.0998184 -0.104637 0.1173181 
0 -0.0998864 -0.0998184 -0.104637 0.1180252 
0 -0.09968641 -0.0998184 -0.104637 0.1187323 
0 -0.09948642 -0.09948675 -0.104637 0.1197322 
0 -0.08534429 -0.09948675 -0.104637 0.1904429 
0 -0.07120217 -0.09948675 -0.104637 0.2611535 
0 -0.07120215 -0.09948675 -0.104637 0.2611535 
0 -0.07120214 -0.09948675 -0.104637 0.2611535 
0 -0.07120213 -0.09948675 -0.104637 0.2611535 
0 -0.07120212 -0.09948675 -0.104637 0.2611535 
0 -0.07120211 -0.09948675 -0.104637 0.2611535 
0 -0.07120209 -0.09948673 -0.104637 0.2611535 
0 -0.07120207 -0.09948671 -0.104637 0.2611535 
0 -0.07120207 -0.09975127 -0.104637 0.2611535 
0 -0.07120205 -0.09975126 -0.104637 0.2611535 
0 -0.07120203 -0.09975125 -0.104637 0.2611535 
0 -0.07120202 -0.09975124 -0.104637 0.2611535 
0 -0.071202 -0.09975123 -0.104637 0.2611535 
0 -0.07120198 -0.09975123 -0.104637 0.2611535 
0 -0.07120194 -0.09975121 -0.104637 0.2611535 
0 -0.07120158 -0.09975121 -0.104637 0.2611535 
0 -0.07120154 -0.09975121 -0.104637 0.2611535 
0 -0.07120157 -0.09975121 -0.104637 0.2611535 
0 -0.07120159 -0.09975121 -0.104637 0.2611534 
0 -0.07120162 -0.09975121 -0.104637 0.2611534 
0 -0.07106023 -0.09975121 -0.104637 0.2616532 
0 -0.07091884 -0.09975121 -0.104637 0.2621004 
0 -0.07091881 -0.09975121 -0.104637 0.2621004 
0 -0.07091878 -0.09975121 -0.104637 0.2621006 
0 -0.07077738 -0.09975121 -0.104637 0.2628076 
0 -0.0707774 -0.09975124 -0.104637 0.2628075 
0 -0.07067741 -0.09952767 -0.104637 0.2635145 
0 -0.07067744 -0.09952772 -0.104637 0.2635143 
0 -0.05653554 -0.07503324 -0.104637 0.3342238 
0 -0.02653553 -0.05503323 -0.104637 0.3342238 
0 -0.02653553 -0.03771272 -0.104637 0.3342238 
0 -0.02653553 -0.02357058 -0.104637 0.3342238 
0 -0.02653553 -0.01357057 -0.104637 0.3342238 
0 -0.02653553 -0.01357057 -0.104637 0.3342238 
0 -0.02653553 -0.01357057 -0.104637 0.378945 
0 -0.02653553 -0.01357057 -0.104637 0.4167414 
0 -0.02653553 -0.01357057 -0.104637 0.4545378 
0 -0.02653553 -0.01357057 -0.104637 0.4923342 
0 -0.02653553 -0.01357057 -0.104637 0.5256675 
0 -7.806742E-05 -0.01357057 -0.104637 0.5634639 
0 -7.806742E-05 -0.01357057 -0.104637 0.6012603 
0 -7.806742E-05 -0.01357057 -0.104637 0.6390567 
0 -0.0002785505 -0.01357057 -0.104637 0.6386778 
0 -0.0002785505 -0.01357057 -0.104637 0.6386778 
0 -0.0002785496 -0.01357057 -0.104637 0.6386778 
0 -0.0002785496 -0.01385341 -0.104637 0.6386778 
0 -0.0002785478 -0.01385341 -0.104637 0.6386778 
0 -0.0002785462 -0.01385341 -0.104637 0.6386778 
0 -0.0002785447 -0.01385341 -0.104637 0.6386778 
0 -0.0002785433 -0.01385341 -0.104637 0.6386778 
0 -0.000278542 -0.01385341 -0.104637 0.6386778 
0 -0.0002785407 -0.0138534 -0.104637 0.6386778 
0 -0.0002785388 -0.0138534 -0.104637 0.6386778 
0 -0.0002783215 -0.0138534 -0.104637 0.6386778 
0 -0.0002782994 -0.0138534 -0.104637 0.6386778 
0 -0.0002782193 -0.0138534 -0.104637 0.638678 
0 -0.0002778121 -0.0138534 -0.104637 0.6386792 
0 -5.471836E-05 -0.01365386 -0.104637 0.6396769 
0 -5.48195E-05 -0.01365386 -0.104637 0.6396766 
0 -5.48195E-05 -0.01365386 -0.104637 0.7103865 
0 -5.48195E-05 -0.01365386 -0.104637 0.7681212 
0 -5.48195E-05 -0.01365386 -0.104637 0.825856 
0 -5.48195E-05 -0.01365386 -0.104637 0.8835881 
0 -5.48195E-05 -0.01365386 -0.05991558 0.8835881 
0 -5.48195E-05 -0.01365386 -0.02211912 0.8835881 
0 -5.48195E-05 -0.01365386 -0.02211912 0.8835881 
0 -5.48195E-05 -0.01365386 -0.02211912 0.8835881 
0 -5.48195E-05 -0.01365386 -0.02211912 0.8835881 
0 -5.48195E-05 -0.01365386 -0.02211912 0.8835881 
0 -5.48195E-05 -0.01365386 -0.02211912 0.8835881 
0 -5.48195E-05 -0.01365386 -0.02211912 0.8835881 
0 -5.48195E-05 -0.01365386 -0.02211912 0.8835881 
0 -5.48195E-05 -0.01365386 -0.02211912 0.8835881 
0 -5.48195E-05 -0.01365386 -0.02211912 0.8835881 
0 -5.48195E-05 -0.01365386 -0.02211912 0.8835881 
0 -5.48195E-05 -0.01365386 -0.02211912 0.8835881 
0 -5.48195E-05 -0.01365386 -0.02211912 0.8835881 
0 -5.48195E-05 -0.01365386 -0.02211912 0.8835881 
0 -5.48195E-05 -0.01365386 -0.02211912 0.8835881 
0 -5.48195E-05 -0.01365386 -0.02211912 0.8835881 
0 -5.48195E-05 -0.01365386 -0.02211912 0.8835881 
0 -5.48195E-05 -0.01365386 -0.02211912 0.8835881 
0 -5.48195E-05 -0.01365386 -0.02211912 0.8835881 
0 -5.48195E-05 -0.01365386 -0.02211912 0.8835881 
0 -5.48195E-05 -0.01365386 -0.02211912 0.8835881 
0 -0.000386482 -0.01365386 -0.02211912 0.8835881 
0 -0.0003864819 -0.01365386 -0.02211912 0.8835881 
0 -0.0003865117 -0.01365386 -0.02211912 0.8835881 
0 -0.0003865086 -0.01365386 -0.02211912 0.8835881 
0 -0.0009156531 -0.01365386 -0.02311911 0.8835881 
0 -0.001160597 -0.01365386 -0.02356631 0.8835881 
0 -0.001384201 -0.01365386 -0.02397455 0.8835881 
0 -0.001384197 -0.01365386 -0.02397455 0.8835881 
0 -0.001384195 -0.01365386 -0.02397454 0.8835881 
0 -0.001384191 -0.01365385 -0.02397454 0.8835881 
0 -0.001384186 -0.01365385 -0.02397453 0.8835881 
0 -0.001383293 -0.01365385 -0.02397315 0.8835881 
0 -0.001383124 -0.01365385 -0.02397315 0.8835884 
0 -0.001383248 -0.01365385 -0.02397315 0.8835881 
0 -0.001382611 -0.01365385 -0.02397315 0.8835897 
0 -0.001383248 -0.01365449 -0.02397315 0.8835866 
0 -0.001383205 -0.01365449 -0.02397315 0.8835866 
0 -0.001383319 -0.01365449 -0.02397315 0.8835863 
0 -0.001383319 -0.01365449 -0.02397315 0.9413207 
0 -0.001383319 -0.01365449 -0.02397315 0.9913183 
0 -0.001383319 -0.01365449 -0.02397315 0.9913183 
0 -0.001383319 -0.01365449 -0.02397315 0.9913183 
0 -0.001383319 -0.01365449 -0.02397315 0.9913183 
0 -0.001383319 -0.01365449 -0.02397315 0.9913183 
0 -0.001383319 -0.01365449 -0.02397315 0.9913183 
0 -0.001383319 -0.01365449 -0.02397315 0.9913183 
0 -0.001383319 -0.01365449 -0.02397315 0.9913183 
0 -0.001383319 -0.01365449 -0.02397315 0.9913183 
0 -0.001383319 -0.01365449 -0.02397315 0.9913183 
0 -0.001383319 -0.01365449 -0.02397315 0.9913183 
0 -0.001383319 -0.01365449 -0.02397315 0.9913183 
0 -0.001383318 -0.01365449 -0.02397315 0.9913183 
0 -0.001383318 -0.01365449 -0.02397315 0.9913183 
0 -0.001159711 -0.01365449 -0.02397315 0.9913183 
0 -0.001159711 -0.01365449 -0.02397315 0.9913183 
0 -0.001159711 -0.01365449 -0.02397315 0.9913183 
0 -0.001159711 -0.01365449 -0.02397315 0.9913183 
0 -0.001159711 -0.01365449 -0.02397315 0.9913183 
0 -0.0008133005 -0.01365449 -0.02397315 0.9913183 
0 -0.0008133004 -0.01365449 -0.02397315 0.9913183 
0 -0.0008132984 -0.01365449 -0.02397315 0.9913183 
0 -0.000813296 -0.01365449 -0.02397315 0.9913183 
0 -0.0008132912 -0.01365449 -0.02397315 0.9913183 
0 -0.0008123625 -0.01365449 -0.02397315 0.9913183 
0 -0.0008123625 -0.01391914 -0.02397315 0.9910295 
0 -0.0008123692 -0.01391914 -0.02397315 0.9910295 
0 -0.0008123647 -0.01391914 -0.02397315 0.9910295 
0 -0.0008123444 -0.01391911 -0.02397315 0.9910296 
0 -0.000812303 -0.01391904 -0.02397315 0.9910297 
0 -0.000812303 -0.01371877 -0.02397315 0.9915304 
0 -0.0008124529 -0.01371892 -0.02397315 0.9915299 
0 -0.0003656549 -0.01371892 -0.02397315 0.9929429 
0 -0.000141917 -0.01371892 -0.02397315 0.9935206 
0 -0.0001420386 -0.01371892 -0.02397315 0.9935201 
0 -0.0001421791 -0.01371892 -0.02397315 0.9935196 
0 -0.0001436058 -0.01371892 -0.02397315 0.9935145 
0 -0.0001436037 -0.01371892 -0.02397314 0.9935145 
0 -0.0001436004 -0.01371892 -0.02397313 0.9935145 
0 -0.0003435985 -0.01371892 -0.02486755 0.9935145 
0 -0.0006264388 -0.01371892 -0.02568404 0.9935145 
0 -0.0007996412 -0.01371892 -0.026062 0.9935145 
0 -0.0007996393 -0.01371892 -0.026062 0.9935145 
0 -0.0007996376 -0.01371892 -0.02606199 0.9935145 
0 -0.0007996362 -0.01371892 -0.02606199 0.9935145 
0 -0.0007996269 -0.01371892 -0.02606196 0.9935145 
0 -0.0007996269 -0.01371892 -0.02606196 0.9935145 
0 -0.0007996269 -0.01371892 -0.02606196 0.9935145 
0 -0.0007996269 -0.01371892 -0.02606196 0.9935145 
0 -0.0007996269 -0.01371892 -0.02606196 0.9935145 
0 -0.0007996269 -0.01371892 -0.02606196 0.9935145 
0 -0.0007996269 -0.01371892 -0.02606196 0.9935145 
0 -0.0007996268 -0.01371892 -0.02606196 0.9935145 
0 -0.0007996268 -0.01371892 -0.02606196 0.9935145 
0 -0.0007996267 -0.01371892 -0.02606196 0.9935145 
0 -0.001115854 -0.01371892 -0.02606196 0.9935145 
0 -0.001115854 -0.01371892 -0.02606196 0.9935145 
0 -0.001115854 -0.01371892 -0.02606196 0.9935145 
0 -0.001115854 -0.01371892 -0.02606196 0.9935145 
0 -0.001115854 -0.01371892 -0.02606196 0.9935145 
0 -0.001115854 -0.01371892 -0.02606196 0.9935145 
0 -0.001115854 -0.01371892 -0.02606196 0.9935145 
0 -0.001115854 -0.01371892 -0.02606196 0.9935145 
0 -0.001115854 -0.01371892 -0.02606196 0.9935145 
0 -0.001115853 -0.01371892 -0.02606196 0.9935145 
0 -0.001115853 -0.01371892 -0.02606196 0.9935145 
0 -0.001115853 -0.01371892 -0.02606196 0.9935145 
0 -0.001115853 -0.01371892 -0.02606196 0.9935145 
0 -0.001115853 -0.01371892 -0.02606196 0.9935145 
0 -0.001115853 -0.01371892 -0.02606196 0.9935145 
0 -0.001115853 -0.01371892 -0.02606196 0.9935145 
0 -0.001115853 -0.01371892 -0.02606196 0.9935145 
0 -0.00111588 -0.01371892 -0.02606196 0.9935145 
0 -0.001115877 -0.01371892 -0.02606195 0.9935145 
0 -0.001115874 -0.01371892 -0.02606195 0.9935145 
0 -0.001115871 -0.01371892 -0.02606194 0.9935145 
0 -0.001115867 -0.01371892 -0.02606194 0.9935145 
0 -0.001115865 -0.01371892 -0.02606193 0.9935145 
0 -0.001115864 -0.01371892 -0.02606193 0.9935145 
0 -0.001115863 -0.01371892 -0.02606192 0.9935145 
0 -0.001115863 -0.01371892 -0.02570837 0.9935145 
0 -0.001476385 -0.01371892 -0.02606189 0.9935145 
0 -0.001476385 -0.01371892 -0.02606189 0.9935145 
0 -0.001808047 -0.01371892 -0.02606189 0.9935145 
0 -0.001808047 -0.01371892 -0.02606189 0.9935145 
0 -0.001808047 -0.01371892 -0.02606189 0.9935145 
0 -0.002154457 -0.01371892 -0.02606189 0.9935145 
0 -0.002154456 -0.01371892 -0.02606189 0.9935145 
0 -0.002154456 -0.01371892 -0.02606189 0.9935145 
0 -0.002154456 -0.01371892 -0.02606189 0.9935145 
0 -0.002154456 -0.01371892 -0.02606189 0.9935145 
0 -0.002154455 -0.01371892 -0.02606189 0.9935145 
0 -0.002154455 -0.01371892 -0.02606189 0.9935145 
0 -0.002154455 -0.01371892 -0.02606189 0.9935145 
0 -0.002154455 -0.01371892 -0.02606189 0.9935145 
0 -0.002154455 -0.01371892 -0.02606189 0.9935145 
0 -0.002154455 -0.01371892 -0.02606189 0.9935145 
0 -0.002486117 -0.01371892 -0.02606189 0.9935145 
0 -0.002486117 -0.01371892 -0.02606189 0.9935145 
0 -0.002486116 -0.01371892 -0.02606189 0.9935145 
0 -0.002486116 -0.01371892 -0.02606189 0.9935145 
0 -0.002486116 -0.01371892 -0.02606189 0.9935145 
0 -0.002731065 -0.01371892 -0.02606189 0.9935145 
0 -0.002731065 -0.01371892 -0.02606189 0.9935145 
0 -0.002731065 -0.01371892 -0.02606189 0.9935145 
0 -0.002731064 -0.01371892 -0.02606189 0.9935145 
0 -0.002731064 -0.01371892 -0.02606189 0.9935145 
0 -0.002731064 -0.01371892 -0.02606189 0.9935145 
0 -0.002731064 -0.01371892 -0.02606189 0.9935145 
0 -0.002731063 -0.01371892 -0.02606189 0.9935145 
0 -0.002731063 -0.01371892 -0.02606189 0.9935145 
0 -0.002731063 -0.01371892 -0.02606189 0.9935145 
0 -0.002370545 -0.01371892 -0.02606189 0.9935145 
0 -0.002370541 -0.01371892 -0.02606188 0.9935145 
0 -0.002370537 -0.01371892 -0.02606188 0.9935145 
0 -0.003002985 -0.01371892 -0.0269563 0.9935145 
0 -0.003302979 -0.01371892 -0.02736454 0.9935145 
0 -0.003302976 -0.01371892 -0.02736453 0.9935145 
0 -0.003302973 -0.01371892 -0.02736453 0.9935145 
0 -0.003302973 -0.01391892 -0.02736453 0.9935145 
0 -0.003302972 -0.01391892 -0.02736453 0.9935145 
0 -0.00330297 -0.01391892 -0.02736453 0.9935145 
0 -0.003302969 -0.01391892 -0.02736453 0.9935145 
0 -0.003302453 -0.01391892 -0.02736453 0.9935145 
0 -0.003302411 -0.01391892 -0.02736453 0.9935147 
0 -0.003302411 -0.01391892 -0.02736453 0.9940153 
0 -0.003302633 -0.01391892 -0.02736453 0.9940149 
0 -0.002703191 -0.01391892 -0.02736453 0.9954277 
0 -0.002403015 -0.01391892 -0.02736453 0.9960054 
0 -0.002103582 -0.01391892 -0.02736453 0.9967112 
0 -0.002102617 -0.01391827 -0.02736453 0.996713 
0 -0.002102617 -0.01391827 -0.02736453 1.096709 
0 -0.002102617 -0.01391827 -0.02736453 1.167422 
0 -0.002102617 -0.01391827 -0.02736453 1.267417 
0 -0.002102617 -0.01391827 -0.02736453 1.338126 
0 -0.002102617 -0.01391827 -0.02736453 1.395857 
0 -0.002102617 -0.01391827 -0.02736453 1.395857 
0 -0.002102617 -0.01391827 -0.02736453 1.395857 
0 -0.002102617 -0.01391827 -0.02736453 1.395857 
0 -0.002102617 -0.01391827 -0.02736453 1.395857 
0 -0.002102617 -0.01391827 -0.02736453 1.395857 
0 -0.002102617 -0.01391827 -0.02736453 1.395857 
0 -0.002102617 -0.01391827 -0.02736453 1.395857 
0 -0.002102617 -0.01391827 -0.02736453 1.395857 
0 -0.002102617 -0.01391827 -0.02736453 1.395857 
0 -0.002102617 -0.01391827 -0.02736453 1.395857 
0 -0.002102617 -0.01391827 -0.02736453 1.395857 
0 -0.002102617 -0.01391827 -0.02736453 1.395857 
0 -0.002102617 -0.01391827 -0.02736453 1.395857 
0 -0.002102617 -0.01391827 -0.02736453 1.395857 
0 -0.002102617 -0.01391827 -0.02736453 1.395857 
0 -0.002102617 -0.01391827 -0.02736453 1.395857 
0 -0.002102617 -0.01391827 -0.02736453 1.395857 
0 -0.002102617 -0.01391827 -0.02736453 1.395857 
0 -0.002102617 -0.01391827 -0.02736453 1.395857 
0 -0.002102617 -0.00391827 -0.02736453 1.395857 
0 -0.002102617 -0.00391827 -0.02736453 1.395857 
0 -0.002102617 -0.00391827 -0.02736453 1.436682 
0 -0.002102617 -0.00391827 -0.02736453 1.486682 
0 -0.002102617 -0.00391827 -0.02736453 1.536681 
0 -0.002102617 -0.00391827 -0.02736453 1.586681 
0 -0.002102617 -0.00391827 -0.02736453 1.63668 
0 -0.002102617 -0.00391827 -0.02736453 1.68668 
0 -0.002102617 -0.004218523 -0.02736453 1.68618 
0 -0.002102855 -0.004218789 -0.02736453 1.686179 
0 -0.002103107 -0.004219041 -0.02736453 1.686179 
0 -0.002103345 -0.004219307 -0.02736453 1.686178 
0 -0.002103345 -0.004219306 -0.02736453 1.686178 
0 -0.002103344 -0.004219305 -0.02736453 1.686178 
0 -0.002103343 -0.004219304 -0.02736453 1.686178 
0 -0.002103343 -0.004219303 -0.02736453 1.686178 
0 -0.002103342 -0.004219303 -0.02736453 1.686178 
0 -0.002103342 -0.004219302 -0.02736453 1.686178 
0 -0.002103342 -0.004219302 -0.02736453 1.686178 
0 -0.002103341 -0.004219302 -0.02736453 1.686178 
0 -0.002103341 -0.004219301 -0.02736453 1.686178 
0 -0.002103341 -0.004360722 -0.02736453 1.686178 
0 -0.002103339 -0.004360721 -0.02736453 1.686178 
0 -0.002103339 -0.004360721 -0.02736453 1.686178 
0 -0.002103337 -0.004360721 -0.02736453 1.686178 
0 -0.002103337 -0.004360721 -0.02736453 1.686178 
0 -0.002103271 -0.004360721 -0.02736453 1.686178 
0 -0.002103084 -0.004360721 -0.02736453 1.686178 
0 -0.002102911 -0.004360721 -0.02736453 1.686179 
0 -0.0021031 -0.004360721 -0.02736453 1.686178 
0 -0.002435042 -0.004360721 -0.02736453 1.685678 
0 -0.002434245 -0.004360721 -0.02736453 1.685679 
0 -0.002434675 -0.004360721 -0.02736453 1.685678 
0 -0.002061691 -0.004360721 -0.02736453 1.686383 
0 -0.002062028 -0.004360721 -0.02736453 1.686382 
0 -0.002062351 -0.004360721 -0.02736453 1.686382 
0 -0.002062658 -0.004360721 -0.02736453 1.686381 
0 -0.002065579 -0.004360721 -0.02736453 1.686376 
0 -0.00206561 -0.004360721 -0.02736453 1.686376 
0 -0.002065606 -0.004360721 -0.02736452 1.686376 
0 -0.002065602 -0.004360717 -0.02736452 1.686376 
0 -0.002289204 -0.004584318 -0.02781172 1.686376 
0 -0.0022892 -0.004584316 -0.02781171 1.686376 
0 -0.002289197 -0.004584313 -0.02781171 1.686376 
0 -0.002289194 -0.004584312 -0.0278117 1.686376 
0 -0.002289191 -0.00458431 -0.02781169 1.686376 
0 -0.002288299 -0.00458431 -0.02780912 1.686376 
0 -0.002288228 -0.00458431 -0.02780912 1.686376 
0 -0.002288129 -0.00458431 -0.02780912 1.686376 
0 -0.00228773 -0.00458431 -0.02780912 1.686377 
0 -0.002287899 -0.004584516 -0.02780912 1.686376 
0 -0.002287335 -0.004583865 -0.02780912 1.686379 
0 -0.002287335 -0.00478509 -0.02780912 1.685373 
0 -0.002113568 -0.00478509 -0.02780912 1.686082 
0 -0.001941423 -0.004644534 -0.02780912 1.687076 
0 -0.001942629 -0.004644534 -0.02780912 1.687067 
0 -0.001942627 -0.004644534 -0.02780911 1.687067 
0 -0.001942627 -0.004644534 -0.0283091 1.687067 
0 -0.001942619 -0.004644531 -0.02830909 1.687067 
0 -0.001942611 -0.004644527 -0.02830908 1.687067 
0 -0.001942608 -0.004644527 -0.02830907 1.687067 
0 -0.001942606 -0.004644527 -0.02830907 1.687067 
0 -0.001942603 -0.004644527 -0.02830906 1.687067 
0 -0.001942599 -0.004644527 -0.02830905 1.687067 
0 -0.001942596 -0.004644527 -0.02830904 1.687067 
0 -0.002042594 -0.004644527 -0.02862526 1.687067 
0 -0.001797643 -0.004644527 -0.02833659 1.687067 
0 -0.001797641 -0.004644527 -0.02833658 1.687067 
0 -0.001797638 -0.004644527 -0.02833658 1.687067 
0 -0.001797635 -0.004644527 -0.02833658 1.687067 
0 -0.002042567 -0.004644527 -0.02858656 1.687067 
0 -0.002042566 -0.004644527 -0.02858656 1.687067 
0 -0.002042566 -0.004644527 -0.02858656 1.687067 
0 -0.002042577 -0.004644527 -0.02858656 1.687067 
0 -0.002042576 -0.004644527 -0.02858656 1.687067 
0 -0.002042576 -0.004644527 -0.02858656 1.687067 
0 -0.002042576 -0.004644527 -0.02858656 1.687067 
0 -0.002042575 -0.004644527 -0.02858656 1.687067 
0 -0.002042575 -0.004644527 -0.02858656 1.687067 
0 -0.002042575 -0.004644527 -0.02858656 1.687067 
0 -0.002042574 -0.004644527 -0.02858656 1.687067 
0 -0.002042574 -0.004644526 -0.02858656 1.687067 
0 -0.002183995 -0.004744526 -0.02858656 1.687067 
0 -0.00218268 -0.004744526 -0.02858656 1.687067 
0 -0.002182219 -0.004744526 -0.02858656 1.687068 
0 -0.002182424 -0.00474479 -0.02858656 1.687067 
0 -0.001900478 -0.00474479 -0.02858656 1.687772 
0 -0.001898938 -0.0047437 -0.02858656 1.687775 
0 -0.001676701 -0.004521464 -0.02858656 1.688769 
0 -0.001453803 -0.004521464 -0.02858656 1.689474 
0 -0.001453972 -0.004521633 -0.02858656 1.689474 
0 -0.00145411 -0.004521828 -0.02858656 1.689473 
0 -0.001676498 -0.004744215 -0.02858656 1.688899 
0 -0.001433052 -0.00450077 -0.02858656 1.689893 
0 -0.001233291 -0.004256113 -0.02858656 1.690599 
0 -0.001233528 -0.004256404 -0.02858656 1.690598 
0 -0.001233528 -0.004256404 -0.02858656 1.7613 
0 -0.001233528 -0.004256404 -0.02858656 1.7613 
0 -0.001233528 -0.004256404 -0.02858656 1.7613 
0 -0.00156519 -0.004256404 -0.02858656 1.7613 
0 -0.00156519 -0.004256404 -0.02858656 1.7613 
0 -0.00156519 -0.004256404 -0.02858656 1.7613 
0 -0.00156519 -0.004256404 -0.02858656 1.7613 
0 -0.001565213 -0.004256404 -0.02858656 1.7613 
0 -0.00156521 -0.004256404 -0.02858656 1.7613 
0 -0.001565208 -0.004256404 -0.02858655 1.7613 
0 -0.001565205 -0.004256404 -0.02858655 1.7613 
0 -0.001565203 -0.004256404 -0.02858655 1.7613 
0 -0.001565201 -0.004256404 -0.02858654 1.7613 
0 -0.001565186 -0.004256404 -0.02858652 1.7613 
0 -0.001565186 -0.004256404 -0.02858652 1.7613 
0 -0.001565186 -0.004256404 -0.02858652 1.7613 
0 -0.001565186 -0.004256404 -0.02858652 1.7613 
0 -0.001565186 -0.004256404 -0.02858652 1.7613 
0 -0.001565186 -0.004256404 -0.02858652 1.7613 
0 -0.001565186 -0.004256404 -0.02858652 1.7613 
0 -0.001565186 -0.004256404 -0.02858652 1.7613 
0 -0.001565186 -0.004256404 -0.02858652 1.7613 
0 -0.001565186 -0.004256404 -0.02858652 1.7613 
0 -0.001565185 -0.004256404 -0.02858652 1.7613 
0 -0.001320236 -0.004256404 -0.02858652 1.7613 
0 -0.001320236 -0.004256404 -0.02858652 1.7613 
0 -0.001320232 -0.0042564 -0.02858652 1.7613 
0 -0.001320232 -0.0042564 -0.02858652 1.7613 
0 -0.001320232 -0.0042564 -0.02858652 1.7613 
0 -0.001320234 -0.0042564 -0.02858652 1.7613 
0 -0.001320232 -0.004256397 -0.02858652 1.7613 
0 -0.001320231 -0.004256397 -0.02858652 1.7613 
0 -0.001636459 -0.004256397 -0.02858652 1.7613 
0 -0.001636459 -0.004256397 -0.02858652 1.7613 
0 -0.001636459 -0.004256397 -0.02858652 1.7613 
0 -0.001636489 -0.004256397 -0.02858652 1.7613 
0 -0.001636486 -0.004256397 -0.02858651 1.7613 
0 -0.001636482 -0.004256397 -0.0285865 1.7613 
0 -0.002126374 -0.004256397 -0.02948092 1.7613 
0 -0.002390944 -0.004256397 -0.02988916 1.7613 
0 -0.002673781 -0.004256397 -0.03026712 1.7613 
0 -0.002673778 -0.004256397 -0.03026711 1.7613 
0 -0.002673775 -0.004256397 -0.03026711 1.7613 
0 -0.002673776 -0.004256397 -0.03026711 1.7613 
0 -0.002673779 -0.004256397 -0.03026712 1.7613 
0 -0.002673767 -0.004256397 -0.0302671 1.7613 
0 -0.002673732 -0.004256397 -0.03026704 1.7613 
0 -0.002673731 -0.004256397 -0.03026704 1.7613 
0 -0.002673731 -0.004256397 -0.03026704 1.7613 
0 -0.002673731 -0.004256397 -0.03026704 1.7613 
0 -0.00267373 -0.004256397 -0.03026704 1.7613 
0 -0.00267373 -0.004256397 -0.03026704 1.7613 
0 -0.00267373 -0.004256397 -0.03026704 1.7613 
0 -0.002673729 -0.004256397 -0.03026704 1.7613 
0 -0.002673729 -0.004256397 -0.03026704 1.7613 
0 -0.002673729 -0.004256397 -0.03026704 1.7613 
0 -0.002673729 -0.004256397 -0.03026704 1.7613 
0 -0.002673729 -0.004256397 -0.03026704 1.7613 
0 -0.002673729 -0.004256397 -0.03026704 1.7613 
0 -0.002673729 -0.004256397 -0.03026704 1.7613 
0 -0.002673728 -0.004256397 -0.03026704 1.7613 
0 -0.002673728 -0.004256397 -0.03026704 1.7613 
0 -0.002673728 -0.004256397 -0.03026704 1.7613 
0 -0.002673728 -0.004256397 -0.03026704 1.7613 
0 -0.002873728 -0.004256397 -0.03026704 1.7613 
0 -0.002873728 -0.004256397 -0.03026704 1.7613 
0 -0.002873728 -0.004256397 -0.03026704 1.7613 
0 -0.002873728 -0.004256397 -0.03026704 1.7613 
0 -0.002873728 -0.004256397 -0.03026704 1.7613 
0 -0.002873727 -0.004256397 -0.03026704 1.7613 
0 -0.002873727 -0.004256397 -0.03026704 1.7613 
0 -0.002873727 -0.004256397 -0.03026704 1.7613 
0 -0.002873727 -0.004256397 -0.03026704 1.7613 
0 -0.002873727 -0.004256397 -0.03026704 1.7613 
0 -0.003073727 -0.004256397 -0.03026704 1.7613 
0 -0.003073727 -0.004256397 -0.03026704 1.7613 
0 -0.003073726 -0.004256397 -0.03026704 1.7613 
0 -0.003073726 -0.004256397 -0.03026704 1.7613 
0 -0.003073726 -0.004256397 -0.03026704 1.7613 
0 -0.003073726 -0.004256397 -0.03026704 1.7613 
0 -0.00290052 -0.004256397 -0.03026704 1.7613 
0 -0.00290052 -0.004256397 -0.03026704 1.7613 
0 -0.00290052 -0.004256397 -0.03026704 1.7613 
0 -0.00270052 -0.004256397 -0.03026704 1.7613 
0 -0.002700539 -0.004256397 -0.03026704 1.7613 
0 -0.002700537 -0.004256397 -0.03026704 1.7613 
0 -0.002700535 -0.004256397 -0.03026703 1.7613 
0 -0.002700535 -0.004256397 -0.02985878 1.7613 
0 -0.003500527 -0.004256397 -0.03067527 1.7613 
0 -0.003912835 -0.004256397 -0.03105323 1.7613 
0 -0.003912834 -0.004256397 -0.03105323 1.7613 
0 -0.003912834 -0.004256397 -0.03105323 1.7613 
0 -0.003912834 -0.004256397 -0.03105323 1.7613 
0 -0.003912833 -0.004256397 -0.03105323 1.7613 
0 -0.003912833 -0.004256397 -0.03105323 1.7613 
0 -0.003912833 -0.004397818 -0.03105323 1.7613 
0 -0.003912831 -0.004397817 -0.03105323 1.7613 
0 -0.003910889 -0.004397817 -0.03105323 1.7613 
0 -0.003911092 -0.004397817 -0.03105323 1.7613 
0 -0.003911279 -0.004397817 -0.03105323 1.761299 
0 -0.003911279 -0.004397817 -0.03105323 1.760946 
0 -0.003911209 -0.004397817 -0.03105323 1.760946 
0 -0.003911399 -0.004397817 -0.03105323 1.760946 
0 -0.003911574 -0.004397817 -0.03105323 1.760945 
0 -0.003911735 -0.004397817 -0.03105323 1.760945 
0 -0.003911878 -0.004397817 -0.03105323 1.760945 
0 -0.003913123 -0.004397817 -0.03105323 1.760942 
0 -0.003913122 -0.004397817 -0.03105323 1.760942 
0 -0.003913122 -0.004397817 -0.03105323 1.760942 
0 -0.003648546 -0.004397817 -0.03105323 1.760942 
0 -0.003648546 -0.004397817 -0.03105323 1.760942 
0 -0.003648545 -0.004397817 -0.03105323 1.760942 
0 -0.003648545 -0.004397817 -0.03105323 1.760942 
0 -0.003648545 -0.004397817 -0.03105323 1.760942 
0 -0.003648545 -0.004397817 -0.03105323 1.760942 
0 -0.003648544 -0.004397817 -0.03105323 1.760942 
0 -0.003548544 -0.004397817 -0.03105323 1.760942 
0 -0.003548544 -0.004397817 -0.03105323 1.760942 
0 -0.003548543 -0.004397817 -0.03105323 1.760942 
0 -0.003548543 -0.004397817 -0.03105323 1.760942 
0 -0.003548542 -0.004397817 -0.03105323 1.760942 
0 -0.003548541 -0.004397817 -0.03105323 1.760942 
0 -0.00354854 -0.004397816 -0.03105323 1.760942 
0 -0.003548539 -0.004397816 -0.03105323 1.760942 
0 -0.003548538 -0.004397816 -0.03105323 1.760942 
0 -0.003548536 -0.004397815 -0.03105323 1.760942 
0 -0.003547242 -0.004397815 -0.03105323 1.760942 
0 -0.003547516 -0.004397815 -0.03105323 1.760941 
0 -0.003547604 -0.004397815 -0.03105323 1.760941 
0 -0.003547712 -0.004397815 -0.03105323 1.760941 
0 -0.003547837 -0.004397815 -0.03105323 1.760941 
0 -0.003547976 -0.004397815 -0.03105323 1.76094 
0 -0.003548115 -0.004397815 -0.03105323 1.76094 
0 -0.003748239 -0.004397815 -0.03105323 1.760586 
0 -0.003748363 -0.004397815 -0.03105323 1.760586 
0 -0.003948474 -0.004397815 -0.03105323 1.76027 
0 -0.003948473 -0.004397815 -0.03105323 1.76027 
0 -0.003948473 -0.004397815 -0.03105323 1.76027 
0 -0.003948472 -0.004397815 -0.03105323 1.76027 
0 -0.003948486 -0.004397815 -0.03105323 1.76027 
0 -0.003948485 -0.004397815 -0.03105323 1.76027 
0 -0.003948484 -0.004397815 -0.03105322 1.76027 
0 -0.003948482 -0.004397815 -0.03105322 1.76027 
0 -0.003948479 -0.004397815 -0.03105322 1.76027 
0 -0.003948477 -0.004397815 -0.03105321 1.76027 
0 -0.00412168 -0.004397815 -0.03140676 1.76027 
0 -0.00440452 -0.004397815 -0.03211386 1.76027 
0 -0.004604509 -0.004397815 -0.03278049 1.76027 
0 -0.004604508 -0.004397815 -0.03278049 1.76027 
0 -0.004604508 -0.004397815 -0.03278049 1.76027 
0 -0.004604508 -0.004397815 -0.03278049 1.76027 
0 -0.004604507 -0.004397815 -0.03278049 1.76027 
0 -0.004604506 -0.004397815 -0.03278049 1.76027 
0 -0.004604505 -0.004397815 -0.03278049 1.76027 
0 -0.004604504 -0.004397815 -0.03278049 1.76027 
0 -0.004604503 -0.004397815 -0.03278049 1.76027 
0 -0.004604503 -0.004397815 -0.03278049 1.76027 
0 -0.004604502 -0.004397815 -0.03278049 1.76027 
0 -0.004604502 -0.004397815 -0.03278049 1.76027 
0 -0.004604501 -0.004397815 -0.03278049 1.76027 
0 -0.004243945 -0.004397815 -0.03278049 1.76027 
0 -0.004243944 -0.004397815 -0.03278049 1.76027 
0 -0.004243944 -0.004397815 -0.03278049 1.76027 
0 -0.004243943 -0.004397815 -0.03278049 1.76027 
0 -0.004243943 -0.004397815 -0.03278049 1.76027 
0 -0.004243942 -0.004397815 -0.03278049 1.76027 
0 -0.004243942 -0.004397815 -0.03278049 1.76027 
0 -0.004243961 -0.004397815 -0.03278049 1.76027 
0 -0.004243959 -0.004397815 -0.03278049 1.76027 
0 -0.004243957 -0.004397815 -0.03278048 1.76027 
0 -0.004243934 -0.004397815 -0.03278046 1.76027 
0 -0.004243957 -0.004397815 -0.03278046 1.76027 
0 -0.004243928 -0.004397815 -0.03278043 1.76027 
0 -0.004243928 -0.004397815 -0.03278043 1.76027 
0 -0.004243928 -0.004397815 -0.03278043 1.76027 
0 -0.004243928 -0.004397815 -0.03278043 1.76027 
0 -0.004243927 -0.004397815 -0.03278043 1.76027 
0 -0.004243926 -0.004397815 -0.03278043 1.76027 
0 -0.004243925 -0.004397815 -0.03278043 1.76027 
0 -0.004243924 -0.004397815 -0.03278043 1.76027 
0 -0.004243924 -0.004397815 -0.03278043 1.76027 
0 -0.004243923 -0.004397815 -0.03278043 1.76027 
0 -0.004243923 -0.004397815 -0.03278043 1.76027 
0 -0.004243922 -0.004397815 -0.03278043 1.76027 
0 -0.004243922 -0.004397815 -0.03278043 1.76027 
0 -0.004243921 -0.004397815 -0.03278043 1.76027 
0 -0.004243921 -0.004397815 -0.03278043 1.76027 
0 -0.004243921 -0.004397815 -0.03278043 1.76027 
0 -0.00424392 -0.004397815 -0.03278043 1.76027 
0 -0.00424392 -0.004397815 -0.03278043 1.76027 
0 -0.004070715 -0.004397815 -0.03278043 1.76027 
0 -0.004070714 -0.004397815 -0.03278043 1.76027 
0 -0.004070714 -0.004397815 -0.03278043 1.76027 
0 -0.004070713 -0.004397815 -0.03278043 1.76027 
0 -0.003847106 -0.004397815 -0.03278043 1.76027 
0 -0.003847106 -0.004397815 -0.03278043 1.76027 
0 -0.003847105 -0.004397815 -0.03278043 1.76027 
0 -0.003847105 -0.004397815 -0.03278043 1.76027 
0 -0.003847105 -0.004397815 -0.03278043 1.76027 
0 -0.003847108 -0.004397815 -0.03278043 1.76027 
0 -0.004070714 -0.004744224 -0.03278043 1.76027 
0 -0.004070713 -0.004744222 -0.03278043 1.76027 
0 -0.004070713 -0.004744222 -0.03278043 1.76027 
0 -0.004070712 -0.004744222 -0.03278043 1.76027 
0 -0.004070712 -0.004744222 -0.03278043 1.76027 
0 -0.004070712 -0.004744222 -0.03278043 1.76027 
0 -0.004070712 -0.004744222 -0.03278043 1.76027 
0 -0.004070711 -0.004744222 -0.03278043 1.76027 
0 -0.004070711 -0.004744222 -0.03278043 1.76027 
0 -0.00407071 -0.004744221 -0.03278043 1.76027 
0 -0.00407071 -0.004744221 -0.03278043 1.76027 
0 -0.00406959 -0.004744221 -0.03278043 1.76027 
0 -0.004069349 -0.004744221 -0.03278043 1.760271 
0 -0.004069349 -0.004744221 -0.03278043 1.761685 
0 -0.003896358 -0.004544468 -0.03278043 1.762391 
0 -0.003755404 -0.004544468 -0.03278043 1.763095 
0 -0.003613835 -0.004544468 -0.03278043 1.763673 
0 -0.003613835 -0.004544468 -0.03278043 1.762965 
0 -0.003614248 -0.004544468 -0.03278043 1.762965 
0 -0.003614642 -0.004544468 -0.03278043 1.762964 
0 -0.003284075 -0.004544468 -0.03278043 1.763669 
0 -0.003284075 -0.004544468 -0.03278043 1.821402 
0 -0.003284075 -0.004544468 -0.03278043 1.871398 
0 -0.003284075 -0.004544468 -0.03278043 1.871398 
0 -0.003284075 -0.004544468 -0.03278043 1.871398 
0 -0.003284075 -0.004544468 -0.03278043 1.871398 
0 -0.003284075 -0.004544468 -0.03278043 1.871398 
0 -0.003284075 -0.004544468 -0.03278043 1.871398 
0 -0.003284075 -0.004544468 -0.03278043 1.871398 
0 -0.003284075 -0.004544468 -0.03278043 1.871398 
0 -0.003284075 -0.004544468 -0.03278043 1.871398 
0 -0.003284075 -0.004544468 -0.03278043 1.871398 
0 -0.003284075 -0.004544468 -0.03278043 1.871398 
0 -0.003284075 -0.004544468 -0.03278043 1.871398 
0 -0.003284075 -0.004544468 -0.03278043 1.871398 
0 -0.003284075 -0.004544468 -0.03278043 1.871398 
0 -0.003284075 -0.004544468 -0.03278043 1.871398 
0 -0.003284075 -0.004544468 -0.03278043 1.871398 
0 -0.003284075 -0.004544468 -0.03278043 1.871398 
0 -0.003284075 -0.004544468 -0.03278043 1.871398 
0 -0.003284075 -0.004544468 -0.03278043 1.871398 
0 -0.003284075 -0.004544468 -0.03278043 1.871398 
0 -0.003284075 -0.004544468 -0.03278043 1.871398 
0 -0.003284075 -0.004544468 -0.03278043 1.871398 
0 -0.003284075 -0.004544468 -0.03278043 1.871398 
0 -0.003284075 -0.004544468 -0.03278043 1.871398 
0 -0.003284075 -0.004544468 -0.03278043 1.871398 
0 -0.003284075 -0.004544468 -0.03278043 1.871398 
0 -0.003284075 -0.004544468 -0.03278043 1.871398 
0 -0.003284075 -0.004544468 -0.03278043 1.871398 
0 -0.003384075 -0.004544468 -0.03278043 1.871398 
0 -0.003384075 -0.004544468 -0.03278043 1.871398 
0 -0.003384074 -0.004544468 -0.03278043 1.871398 
0 -0.003384074 -0.004544468 -0.03278043 1.871398 
0 -0.003384074 -0.004544468 -0.03278043 1.871398 
0 -0.003384074 -0.004544468 -0.03278043 1.871398 
0 -0.003384073 -0.004544468 -0.03278043 1.871398 
0 -0.003384073 -0.004544468 -0.03278043 1.871398 
0 -0.003384073 -0.004544468 -0.03278043 1.871398 
0 -0.003384073 -0.004544468 -0.03278043 1.871398 
0 -0.003384073 -0.004544468 -0.03278043 1.871398 
0 -0.003384073 -0.004544468 -0.03278043 1.871398 
0 -0.003384072 -0.004544468 -0.03278043 1.871398 
0 -0.003384072 -0.004544468 -0.03278043 1.871398 
0 -0.003384072 -0.004544468 -0.03278043 1.871398 
0 -0.003384072 -0.004544468 -0.03278043 1.871398 
0 -0.003384072 -0.004544468 -0.03278043 1.871398 
0 -0.003384071 -0.004544468 -0.03278043 1.871398 
0 -0.003384071 -0.004544468 -0.03278043 1.871398 
0 -0.00338407 -0.004544468 -0.03278043 1.871398 
0 -0.00338407 -0.004544468 -0.03278043 1.871398 
0 -0.00338407 -0.004544468 -0.03278043 1.871398 
0 -0.003607676 -0.004544468 -0.03278043 1.871398 
0 -0.003607676 -0.004544468 -0.03278043 1.871398 
0 -0.003607676 -0.004544468 -0.03278043 1.871398 
0 -0.003607676 -0.004544468 -0.03278043 1.871398 
0 -0.003907675 -0.004544468 -0.03278043 1.871398 
0 -0.003907675 -0.004544468 -0.03278043 1.871398 
0 -0.003907674 -0.004544468 -0.03278043 1.871398 
0 -0.003907674 -0.004544468 -0.03278043 1.871398 
0 -0.004578494 -0.004544468 -0.03278043 1.871398 
0 -0.005025707 -0.004544468 -0.03278043 1.871398 
0 -0.005249314 -0.004544468 -0.03278043 1.871398 
0 -0.00547292 -0.004544468 -0.03278043 1.871398 
0 -0.006038604 -0.004544468 -0.03278043 1.871398 
0 -0.006038603 -0.004544466 -0.03278043 1.871398 
0 -0.006038602 -0.004544465 -0.03278043 1.871398 
0 -0.006038602 -0.004544463 -0.03278043 1.871398 
0 -0.006038601 -0.004544462 -0.03278043 1.871398 
0 -0.0060386 -0.004544461 -0.03278043 1.871398 
0 -0.0060386 -0.004544459 -0.03278043 1.871398 
0 -0.0060386 -0.004544459 -0.03278043 1.871398 
0 -0.006038599 -0.004544458 -0.03278043 1.871398 
0 -0.006038598 -0.004544457 -0.03278043 1.871398 
0 -0.006038597 -0.004544456 -0.03278043 1.871398 
0 -0.006038596 -0.004544455 -0.03278043 1.871398 
0 -0.006338594 -0.004876116 -0.03278043 1.871398 
0 -0.006338593 -0.004876114 -0.03278043 1.871398 
0 -0.006338592 -0.004876113 -0.03278043 1.871398 
0 -0.006338591 -0.004876112 -0.03278043 1.871398 
0 -0.006338591 -0.004876111 -0.03278043 1.871398 
0 -0.00633859 -0.00487611 -0.03278043 1.871398 
0 -0.006338589 -0.004876107 -0.03278043 1.871398 
0 -0.00602236 -0.004529695 -0.03278043 1.871398 
0 -0.006022358 -0.004529694 -0.03278043 1.871398 
0 -0.006022357 -0.004529693 -0.03278043 1.871398 
0 -0.006022356 -0.004529691 -0.03278043 1.871398 
0 -0.006022355 -0.00452969 -0.03278043 1.871398 
0 -0.006022354 -0.004529689 -0.03278043 1.871398 
0 -0.006022353 -0.004529688 -0.03278043 1.871398 
0 -0.006195557 -0.004753293 -0.03278043 1.871398 
0 -0.006195556 -0.004753293 -0.03278043 1.871398 
0 -0.006195555 -0.004753292 -0.03278043 1.871398 
0 -0.006195555 -0.004753292 -0.03278043 1.871398 
0 -0.006195554 -0.004753292 -0.03278043 1.871398 
0 -0.006195554 -0.004753292 -0.03278043 1.871398 
0 -0.006195553 -0.004753292 -0.03278043 1.871398 
0 -0.006195553 -0.004753292 -0.03278043 1.871398 
0 -0.005930977 -0.004753292 -0.03278043 1.871398 
0 -0.005930976 -0.004753292 -0.03278043 1.871398 
0 -0.005930976 -0.004753292 -0.03278043 1.871398 
0 -0.00629153 -0.004753292 -0.03278043 1.871398 
0 -0.006291529 -0.004753292 -0.03278043 1.871398 
0 -0.006291527 -0.004753291 -0.03278043 1.871398 
0 -0.006291526 -0.004753291 -0.03278043 1.871398 
0 -0.006291524 -0.00475329 -0.03278043 1.871398 
0 -0.006289578 -0.00475329 -0.03278043 1.871398 
0 -0.006289786 -0.00475329 -0.03278043 1.871398 
0 -0.006289987 -0.00475329 -0.03278043 1.871398 
0 -0.006290181 -0.00475329 -0.03278043 1.871398 
0 -0.006650929 -0.00475329 -0.03278043 1.871109 
0 -0.006651115 -0.00475329 -0.03278043 1.871109 
0 -0.006651139 -0.00475329 -0.03278043 1.871109 
0 -0.006651139 -0.00475329 -0.03278043 1.870792 
0 -0.006651306 -0.00475329 -0.03278043 1.870792 
0 -0.006652871 -0.00475329 -0.03278043 1.87079 
0 -0.006652871 -0.00475329 -0.03278043 1.87079 
0 -0.006652871 -0.00475329 -0.03278043 1.87079 
0 -0.006652871 -0.00475329 -0.03278043 1.87079 
0 -0.00665287 -0.00475329 -0.03278043 1.87079 
0 -0.00665287 -0.00475329 -0.03278043 1.87079 
0 -0.006652869 -0.00475329 -0.03278043 1.87079 
0 -0.006969096 -0.00475329 -0.03278043 1.87079 
0 -0.006969095 -0.00475329 -0.03278043 1.87079 
0 -0.006969094 -0.00475329 -0.03278043 1.87079 
0 -0.006969094 -0.00475329 -0.03278043 1.87079 
0 -0.006969112 -0.00475329 -0.03278043 1.87079 
0 -0.006969109 -0.00475329 -0.03278043 1.87079 
0 -0.006969108 -0.00475329 -0.03278042 1.87079 
0 -0.006969107 -0.00475329 -0.03278042 1.87079 
0 -0.006969105 -0.00475329 -0.03278042 1.87079 
0 -0.007369102 -0.00475329 -0.03348752 1.87079 
0 -0.007369102 -0.00475329 -0.03348752 1.87079 
0 -0.007369099 -0.00475329 -0.03348751 1.87079 
0 -0.007651937 -0.00475329 -0.03386547 1.87079 
0 -0.007651937 -0.00475329 -0.03386547 1.87079 
0 -0.007651899 -0.004753248 -0.03386542 1.87079 
0 -0.007651934 -0.004753287 -0.03386542 1.87079 
0 -0.007896844 -0.005036085 -0.03431256 1.87079 
0 -0.007896843 -0.005036084 -0.03431256 1.87079 
0 -0.007896842 -0.005036083 -0.03431256 1.87079 
0 -0.007896842 -0.005036081 -0.03431256 1.87079 
0 -0.007896841 -0.00503608 -0.03431256 1.87079 
0 -0.00789684 -0.005036078 -0.03431256 1.87079 
0 -0.00789684 -0.004836078 -0.03431256 1.87079 
0 -0.007896838 -0.004836077 -0.03431256 1.87079 
0 -0.007896837 -0.004836076 -0.03431256 1.87079 
0 -0.007896835 -0.004836076 -0.03431256 1.87079 
0 -0.007893798 -0.004836076 -0.03431256 1.87079 
0 -0.007892912 -0.004836076 -0.03431256 1.870791 
0 -0.00789335 -0.004836076 -0.03431256 1.87079 
0 -0.006945775 -0.004836076 -0.03431256 1.872909 
0 -0.006314073 -0.004836076 -0.03431256 1.874063 
0 -0.005998422 -0.004836076 -0.03431256 1.874562 
0 -0.005682667 -0.004836076 -0.03431256 1.875008 
0 -0.005682575 -0.004836076 -0.03431256 1.875008 
0 -0.005682804 -0.004836076 -0.03431256 1.875008 
0 -0.005682936 -0.004836076 -0.03431256 1.875008 
0 -0.005683044 -0.004836076 -0.03431256 1.875007 
0 -0.005783121 -0.004836076 -0.03431256 1.874599 
0 -0.00578312 -0.004836076 -0.03431256 1.874599 
0 -0.005783136 -0.004836076 -0.03431256 1.874599 
0 -0.005783135 -0.004836076 -0.03431256 1.874599 
0 -0.005783134 -0.004836076 -0.03431255 1.874599 
0 -0.005783132 -0.004836076 -0.03431255 1.874599 
0 -0.005783131 -0.004836076 -0.03431255 1.874599 
0 -0.005783129 -0.004836076 -0.03431254 1.874599 
0 -0.005783128 -0.004836076 -0.03431254 1.874599 
0 -0.005783105 -0.004836076 -0.03431251 1.874599 
0 -0.005783124 -0.004836076 -0.03431251 1.874599 
0 -0.0059831 -0.004836076 -0.03466602 1.874599 
0 -0.005983099 -0.004836076 -0.03466602 1.874599 
0 -0.005983099 -0.004836076 -0.03466602 1.874599 
0 -0.005983115 -0.004836076 -0.03466602 1.874599 
0 -0.00622802 -0.004836076 -0.03516593 1.874599 
0 -0.006451627 -0.004836076 -0.03516593 1.874599 
0 -0.006451626 -0.004836076 -0.03516593 1.874599 
0 -0.006451626 -0.004836076 -0.03516593 1.874599 
0 -0.006451625 -0.004836076 -0.03516593 1.874599 
0 -0.006451625 -0.004836076 -0.03516593 1.874599 
0 -0.006135396 -0.004836076 -0.03516593 1.874599 
0 -0.006135395 -0.004836076 -0.03516593 1.874599 
0 -0.006135394 -0.004836076 -0.03516593 1.874599 
0 -0.006135393 -0.004836076 -0.03516593 1.874599 
0 -0.006135392 -0.004836076 -0.03516593 1.874599 
0 -0.006135392 -0.004836076 -0.03516593 1.874599 
0 -0.006135391 -0.004836076 -0.03516593 1.874599 
0 -0.006135391 -0.004836076 -0.03516593 1.874599 
0 -0.00613539 -0.004836076 -0.03516593 1.874599 
0 -0.00613539 -0.004836076 -0.03516593 1.874599 
0 -0.006135389 -0.004836076 -0.03516593 1.874599 
0 -0.006135388 -0.004836076 -0.03516593 1.874599 
0 -0.006135388 -0.004836076 -0.03516593 1.874599 
0 -0.006135387 -0.004836076 -0.03516593 1.874599 
0 -0.006135386 -0.004836076 -0.03516593 1.874599 
0 -0.006135385 -0.004836076 -0.03516593 1.874599 
0 -0.006135385 -0.004836076 -0.03516593 1.874599 
0 -0.006135407 -0.004836076 -0.03516593 1.874599 
0 -0.006135379 -0.004836076 -0.03516591 1.874599 
0 -0.006135378 -0.004836076 -0.03516591 1.874599 
0 -0.006135402 -0.004836076 -0.03516591 1.874599 
0 -0.006135373 -0.004836076 -0.03516588 1.874599 
0 -0.006135399 -0.004836076 -0.03516588 1.874599 
0 -0.006135368 -0.004836076 -0.03516585 1.874599 
0 -0.006135367 -0.004836076 -0.03516585 1.874599 
0 -0.006135367 -0.004836076 -0.03516585 1.874599 
0 -0.006135366 -0.004836076 -0.03516585 1.874599 
0 -0.006135365 -0.004836076 -0.03516585 1.874599 
0 -0.006135365 -0.004836076 -0.03516585 1.874599 
0 -0.006135365 -0.004836076 -0.03516585 1.874599 
0 -0.006135365 -0.004836076 -0.03516585 1.874599 
0 -0.006135364 -0.004836076 -0.03516585 1.874599 
0 -0.006135364 -0.004836076 -0.03516585 1.874599 
0 -0.005835363 -0.004836076 -0.03516585 1.874599 
0 -0.005835362 -0.004836076 -0.03516585 1.874599 
0 -0.005835361 -0.004836076 -0.03516585 1.874599 
0 -0.00583536 -0.004836076 -0.03516585 1.874599 
0 -0.005835385 -0.004836076 -0.03516585 1.874599 
0 -0.005835381 -0.004836076 -0.03516585 1.874599 
0 -0.006135376 -0.004836076 -0.03545452 1.874599 
0 -0.006135345 -0.004836076 -0.03545449 1.874599 
0 -0.006135345 -0.004836076 -0.03545449 1.874599 
0 -0.006135344 -0.004836076 -0.03545449 1.874599 
0 -0.006135343 -0.004836076 -0.03545449 1.874599 
0 -0.006135342 -0.004836076 -0.03545449 1.874599 
0 -0.006135342 -0.004836076 -0.03545449 1.874599 
0 -0.006135341 -0.004836076 -0.03545449 1.874599 
0 -0.006135364 -0.004836076 -0.03545449 1.874599 
0 -0.006399901 -0.004836076 -0.03586268 1.874599 
0 -0.0063999 -0.004836076 -0.03586268 1.874599 
0 -0.006399899 -0.004836076 -0.03586268 1.874599 
0 -0.006889795 -0.00540176 -0.03586268 1.874599 
0 -0.006889794 -0.005401758 -0.03586268 1.874599 
0 -0.006889793 -0.005401757 -0.03586268 1.874599 
0 -0.006889792 -0.005401756 -0.03586268 1.874599 
0 -0.006889791 -0.005401754 -0.03586268 1.874599 
0 -0.006889791 -0.005401753 -0.03586268 1.874599 
0 -0.006589789 -0.005201752 -0.03586268 1.874599 
0 -0.006589788 -0.005201751 -0.03586268 1.874599 
0 -0.006589786 -0.00520175 -0.03586268 1.874599 
0 -0.006589784 -0.00520175 -0.03586268 1.874599 
0 -0.006588097 -0.00520175 -0.03586268 1.874599 
0 -0.006587765 -0.00520175 -0.03586268 1.8746 
0 -0.006588051 -0.005202035 -0.03586268 1.874599 
0 -0.006586338 -0.005200323 -0.03586268 1.874602 
0 -0.005794412 -0.004408397 -0.03586268 1.877596 
0 -0.005266193 -0.004408397 -0.03586268 1.879007 
0 -0.005266518 -0.004408397 -0.03586268 1.879007 
0 -0.004984352 -0.004408397 -0.03586268 1.879583 
0 -0.004702027 -0.004408397 -0.03586268 1.880082 
0 -0.004702264 -0.004408397 -0.03586268 1.880082 
0 -0.00470452 -0.004408397 -0.03586268 1.880078 
0 -0.004704517 -0.004408397 -0.03586267 1.880078 
0 -0.004969084 -0.004408397 -0.03624063 1.880078 
0 -0.004969081 -0.004408397 -0.03624062 1.880078 
0 -0.004969078 -0.004408397 -0.03624062 1.880078 
0 -0.004969075 -0.004408397 -0.03624061 1.880078 
0 -0.004969073 -0.004408397 -0.03624061 1.880078 
0 -0.004969072 -0.004408397 -0.0362406 1.880078 
0 -0.004869059 -0.004408397 -0.03590723 1.880078 
0 -0.004869059 -0.004408397 -0.03590723 1.880078 
0 -0.004869059 -0.004408397 -0.03590723 1.880078 
0 -0.004869058 -0.004408397 -0.03590723 1.880078 
0 -0.004869058 -0.004408397 -0.03590723 1.880078 
0 -0.004869057 -0.004408397 -0.03590723 1.880078 
0 -0.004869057 -0.004408397 -0.03590723 1.880078 
0 -0.004869056 -0.004408397 -0.03590723 1.880078 
0 -0.004869056 -0.004408397 -0.03590723 1.880078 
0 -0.004869056 -0.004408397 -0.03590723 1.880078 
0 -0.004869054 -0.004408396 -0.03590723 1.880078 
0 -0.004869053 -0.004408395 -0.03590723 1.880078 
0 -0.004869051 -0.004408394 -0.03590723 1.880078 
0 -0.004869049 -0.004408392 -0.03590723 1.880078 
0 -0.004869047 -0.004408391 -0.03590723 1.880078 
0 -0.004869046 -0.00440839 -0.03590723 1.880078 
0 -0.004869044 -0.004408389 -0.03590723 1.880078 
0 -0.004869043 -0.004408388 -0.03590723 1.880078 
0 -0.004869041 -0.004408388 -0.03590723 1.880078 
0 -0.004869039 -0.004408387 -0.03590723 1.880078 
0 -0.004865449 -0.004408387 -0.03590723 1.880078 
0 -0.004865824 -0.004408387 -0.03590723 1.880077 
0 -0.004602181 -0.004408387 -0.03590723 1.880781 
0 -0.004602181 -0.004408387 -0.03590723 1.938515 
0 -0.004602181 -0.004408387 -0.03590723 1.988516 
0 -0.004602181 -0.004408387 -0.03590723 2.059226 
0 -0.004602181 -0.004408387 -0.03590723 2.129934 
0 -0.004602181 -0.004408387 -0.03590723 2.187668 
0 -0.004602181 -0.004408387 -0.03590723 2.232389 
0 -0.004602181 -0.00474038 -0.03590723 2.231941 
0 -0.004602425 -0.004740695 -0.03590723 2.231941 
0 -0.004602425 -0.005040993 -0.03590723 2.231493 
0 -0.004605579 -0.005043815 -0.03590723 2.231489 
0 -0.004605578 -0.005043814 -0.03590723 2.231489 
0 -0.004605576 -0.005043813 -0.03590723 2.231489 
0 -0.004605575 -0.005043812 -0.03590723 2.231489 
0 -0.004605575 -0.005043811 -0.03590723 2.231489 
0 -0.004605574 -0.00504381 -0.03590723 2.231489 
0 -0.004605573 -0.005043809 -0.03590723 2.231489 
0 -0.004605572 -0.005043808 -0.03590723 2.231489 
0 -0.004805571 -0.005185229 -0.03590723 2.231489 
0 -0.00480557 -0.005185229 -0.03590723 2.231489 
0 -0.004801554 -0.005185229 -0.03590723 2.231489 
0 -0.004579761 -0.005185229 -0.03590723 2.232481 
0 -0.004580033 -0.005185229 -0.03590723 2.232479 
0 -0.004438835 -0.005185229 -0.03590723 2.233185 
0 -0.004439058 -0.005185229 -0.03590723 2.233184 
0 -0.004439058 -0.005185229 -0.03590723 2.303894 
0 -0.004439058 -0.005185229 -0.03590723 2.374603 
0 -0.004439058 -0.005185229 -0.03590723 2.445313 
0 -0.004439057 -0.005185229 -0.03590723 2.445313 
0 -0.004439057 -0.005185229 -0.03590723 2.445313 
0 -0.004439057 -0.005185229 -0.03590723 2.445313 
0 -0.004439056 -0.005185229 -0.03590723 2.445313 
0 -0.004439056 -0.005185229 -0.03590723 2.445313 
0 -0.004439055 -0.005185229 -0.03590723 2.445313 
0 -0.004439055 -0.005185229 -0.03590723 2.445313 
0 -0.004439055 -0.005185229 -0.03590723 2.445313 
0 -0.004684003 -0.005185229 -0.03590723 2.445313 
0 -0.004684003 -0.005185229 -0.03590723 2.445313 
0 -0.004684002 -0.005185229 -0.03590723 2.445313 
0 -0.004684002 -0.005185229 -0.03590723 2.445313 
0 -0.004684001 -0.005185229 -0.03590723 2.445313 
0 -0.004684001 -0.005185229 -0.03590723 2.445313 
0 -0.004684001 -0.005185229 -0.03590723 2.445313 
0 -0.004684 -0.005185229 -0.03590723 2.445313 
0 -0.004684 -0.005185229 -0.03590723 2.445313 
0 -0.004684018 -0.005185229 -0.03590723 2.445313 
0 -0.004684014 -0.005185229 -0.03590722 2.445313 
0 -0.004352347 -0.005185229 -0.03555366 2.445313 
0 -0.004984796 -0.005185229 -0.03626076 2.445313 
0 -0.004984788 -0.005185229 -0.03626075 2.445313 
0 -0.004984784 -0.005185229 -0.03626075 2.445313 
0 -0.004984743 -0.005185229 -0.03626071 2.445313 
0 -0.004984742 -0.005185229 -0.03626071 2.445313 
0 -0.004984742 -0.005185229 -0.03626071 2.445313 
0 -0.00498474 -0.005185228 -0.03626071 2.445313 
0 -0.004984739 -0.005185227 -0.03626071 2.445313 
0 -0.004984737 -0.005185226 -0.03626071 2.445313 
0 -0.004984736 -0.005185225 -0.03626071 2.445313 
0 -0.004984735 -0.005185225 -0.03626071 2.445313 
0 -0.004984733 -0.005185224 -0.03626071 2.445313 
0 -0.004983069 -0.005185224 -0.03626071 2.445313 
0 -0.004982935 -0.005185224 -0.03626071 2.445313 
0 -0.004982502 -0.005185224 -0.03626071 2.445314 
0 -0.004983632 -0.005185224 -0.03626071 2.445312 
0 -0.004983942 -0.005185224 -0.03626071 2.445311 
0 -0.004984269 -0.005185224 -0.03626071 2.445311 
0 -0.004983835 -0.005185224 -0.03626071 2.445311 
0 -0.004454303 -0.005185224 -0.03626071 2.446467 
0 -0.004455967 -0.005185224 -0.03626071 2.446462 
0 -0.004456312 -0.005185224 -0.03626071 2.446462 
0 -0.004192368 -0.005185224 -0.03626071 2.44696 
0 -0.004192657 -0.005185224 -0.03626071 2.44696 
0 -0.004192925 -0.005185224 -0.03626071 2.446959 
0 -0.004478863 -0.005185224 -0.03626071 2.446507 
0 -0.004478862 -0.005185224 -0.03626071 2.446507 
0 -0.004478862 -0.005185224 -0.03626071 2.446507 
0 -0.004795089 -0.005185224 -0.03626071 2.446507 
0 -0.004795088 -0.005185224 -0.03626071 2.446507 
0 -0.004795088 -0.005185224 -0.03626071 2.446507 
0 -0.004795088 -0.005185224 -0.03626071 2.446507 
0 -0.004795087 -0.005185224 -0.03626071 2.446507 
0 -0.004795087 -0.005185224 -0.03626071 2.446507 
0 -0.004795086 -0.005185224 -0.03626071 2.446507 
0 -0.004968291 -0.005185224 -0.03626071 2.446507 
0 -0.00496829 -0.005185224 -0.03626071 2.446507 
0 -0.00496829 -0.005185224 -0.03626071 2.446507 
0 -0.004568289 -0.005185224 -0.03626071 2.446507 
0 -0.004568288 -0.005185224 -0.03626071 2.446507 
0 -0.004568287 -0.005185224 -0.03626071 2.446507 
0 -0.004568286 -0.005185224 -0.03626071 2.446507 
0 -0.004568285 -0.005185224 -0.03626071 2.446507 
0 -0.004568285 -0.005185224 -0.03626071 2.446507 
0 -0.004568284 -0.005185223 -0.03626071 2.446507 
0 -0.004568283 -0.005185223 -0.03626071 2.446507 
0 -0.004568283 -0.005185222 -0.03626071 2.446507 
0 -0.004568281 -0.005185222 -0.03626071 2.446507 
0 -0.004566078 -0.005185222 -0.03626071 2.446507 
0 -0.00456603 -0.005185222 -0.03626071 2.446507 
0 -0.004565871 -0.005185222 -0.03626071 2.446508 
0 -0.004566138 -0.005185222 -0.03626071 2.446507 
0 -0.004566383 -0.005185222 -0.03626071 2.446507 
0 -0.00456665 -0.005185222 -0.03626071 2.446506 
0 -0.004566805 -0.005185222 -0.03626071 2.446506 
0 -0.004567911 -0.005185222 -0.03626071 2.446501 
0 -0.004567913 -0.005185222 -0.03626072 2.446501 
0 -0.004567917 -0.005185222 -0.03626073 2.446501 
0 -0.004567908 -0.005185222 -0.0362607 2.446501 
0 -0.004567901 -0.005185222 -0.03626068 2.446501 
0 -0.004567897 -0.005185222 -0.03626067 2.446501 
0 -0.004567893 -0.005185222 -0.03626066 2.446501 
0 -0.004567889 -0.005185222 -0.03626065 2.446501 
0 -0.005015072 -0.005877996 -0.03696771 2.446501 
0 -0.005015097 -0.005878037 -0.03696771 2.446501 
0 -0.005015072 -0.005877987 -0.03696766 2.446501 
0 -0.005015072 -0.005877986 -0.03696766 2.446501 
0 -0.005015071 -0.005877983 -0.03696766 2.446501 
0 -0.00475049 -0.005490676 -0.03696766 2.446501 
0 -0.005240388 -0.005490676 -0.03696766 2.446501 
0 -0.005240387 -0.005490676 -0.03696766 2.446501 
0 -0.005240387 -0.005490676 -0.03696766 2.446501 
0 -0.005240386 -0.005490676 -0.03696766 2.446501 
0 -0.005240386 -0.005490676 -0.03696766 2.446501 
0 -0.005240385 -0.005490676 -0.03696766 2.446501 
0 -0.004924157 -0.005490676 -0.03696766 2.446501 
0 -0.004924156 -0.005490676 -0.03696766 2.446501 
0 -0.005240383 -0.005490676 -0.03696766 2.446501 
0 -0.005240382 -0.005490676 -0.03696766 2.446501 
0 -0.00562768 -0.005490676 -0.03696766 2.446501 
0 -0.005627679 -0.005490676 -0.03696766 2.446501 
0 -0.005627678 -0.005490676 -0.03696766 2.446501 
0 -0.005627677 -0.005490676 -0.03696766 2.446501 
0 -0.005627676 -0.005490676 -0.03696766 2.446501 
0 -0.005627676 -0.005490676 -0.03696766 2.446501 
0 -0.005627695 -0.005490676 -0.03696766 2.446501 
0 -0.005827693 -0.005490676 -0.03723492 2.446501 
0 -0.00582769 -0.005490676 -0.03723491 2.446501 
0 -0.005827676 -0.005490676 -0.03723489 2.446501 
0 -0.005827676 -0.005490676 -0.03723489 2.446501 
0 -0.005627675 -0.005490676 -0.03723489 2.446501 
0 -0.005627675 -0.005490676 -0.03723489 2.446501 
0 -0.005627674 -0.005490676 -0.03723489 2.446501 
0 -0.005627674 -0.005490676 -0.03723489 2.446501 
0 -0.005627673 -0.005490676 -0.03723489 2.446501 
0 -0.005363123 -0.005490676 -0.03723489 2.446501 
0 -0.00536312 -0.005490676 -0.03723489 2.446501 
0 -0.005363119 -0.005490676 -0.03723489 2.446501 
0 -0.005363116 -0.005490676 -0.03723488 2.446501 
0 -0.005363113 -0.005490676 -0.03723488 2.446501 
0 -0.00536311 -0.005490676 -0.03723488 2.446501 
0 -0.005363108 -0.005490676 -0.03723487 2.446501 
0 -0.005363084 -0.005490676 -0.03723484 2.446501 
0 -0.005363083 -0.005490676 -0.03723484 2.446501 
0 -0.005363083 -0.005490676 -0.03723484 2.446501 
0 -0.005363096 -0.005490676 -0.03723484 2.446501 
0 -0.005363074 -0.005490676 -0.03723477 2.446501 
0 -0.005363074 -0.005490676 -0.03723477 2.446501 
0 -0.00508023 -0.005490676 -0.03723477 2.446501 
0 -0.00560938 -0.005490676 -0.03723477 2.446501 
0 -0.005609379 -0.005490676 -0.03723477 2.446501 
0 -0.005609379 -0.005490676 -0.03723477 2.446501 
0 -0.005609378 -0.005490675 -0.03723477 2.446501 
0 -0.005609377 -0.005490674 -0.03723477 2.446501 
0 -0.005609376 -0.005490673 -0.03723477 2.446501 
0 -0.005609375 -0.005490672 -0.03723477 2.446501 
0 -0.005326531 -0.005290671 -0.03723477 2.446501 
0 -0.00532653 -0.00529067 -0.03723477 2.446501 
0 -0.005326529 -0.005290669 -0.03723477 2.446501 
0 -0.005326527 -0.005290668 -0.03723477 2.446501 
0 -0.005324557 -0.005290668 -0.03723477 2.446501 
0 -0.005324307 -0.005290668 -0.03723477 2.446502 
0 -0.00532294 -0.005289089 -0.03723477 2.446506 
0 -0.005124718 -0.00506747 -0.03723477 2.447497 
0 -0.005124962 -0.005067857 -0.03723477 2.447496 
0 -0.005125136 -0.005068281 -0.03723477 2.447495 
0 -0.004984363 -0.004804919 -0.03723477 2.448199 
0 -0.004720076 -0.004581557 -0.03723477 2.448646 
0 -0.004720344 -0.004581775 -0.03723477 2.448645 
0 -0.004720588 -0.004581964 -0.03723477 2.448645 
0 -0.004722777 -0.004583512 -0.03723477 2.44864 
0 -0.004722775 -0.004583512 -0.03723477 2.44864 
0 -0.004721381 -0.004583512 -0.03723477 2.44864 
0 -0.004721203 -0.004583512 -0.03723477 2.44864 
0 -0.004495829 -0.004583512 -0.03723477 2.449222 
0 -0.00429761 -0.004583512 -0.03723477 2.450213 
0 -0.00429761 -0.004583512 -0.03723477 2.520921 
0 -0.00429761 -0.004583512 -0.03723477 2.578655 
0 -0.004542924 -0.004583512 -0.03723477 2.578077 
0 -0.004542924 -0.004583512 -0.03723477 2.635813 
0 -0.004542924 -0.004583512 -0.03723477 2.706522 
0 -0.004542924 -0.004583512 -0.03723477 2.777231 
0 -0.004542924 -0.004583512 -0.03723477 2.847941 
0 -0.004788366 -0.004583512 -0.03723477 2.847232 
0 -0.004788898 -0.004583512 -0.03723477 2.847231 
0 -0.004788898 -0.004583512 -0.03723477 2.917938 
0 -0.004788898 -0.004583512 -0.03723477 2.975672 
0 -0.004788898 -0.004583512 -0.03723477 3.033412 
0 -0.004788898 -0.004583512 -0.03723477 3.133382 
0 -0.004788897 -0.004583512 -0.03723477 3.133382 
0 -0.004788897 -0.004583512 -0.03723477 3.133382 
0 -0.004788897 -0.004583512 -0.03723477 3.133382 
0 -0.004788897 -0.004583512 -0.03723477 3.133382 
0 -0.004788896 -0.004583512 -0.03723477 3.133382 
0 -0.004788896 -0.004583512 -0.03723477 3.133382 
0 -0.004788896 -0.004583512 -0.03723477 3.133382 
0 -0.004788896 -0.004583512 -0.03723477 3.133382 
0 -0.004788895 -0.004583512 -0.03723477 3.133382 
0 -0.004788895 -0.004583512 -0.03723477 3.133382 
0 -0.004788894 -0.004583511 -0.03723477 3.133382 
0 -0.004788893 -0.004583511 -0.03723477 3.133382 
0 -0.004788893 -0.00458351 -0.03723477 3.133382 
0 -0.004788891 -0.00458351 -0.03723477 3.133382 
0 -0.004786368 -0.00458351 -0.03723477 3.133382 
0 -0.004786352 -0.00458351 -0.03723477 3.133382 
0 -0.004786352 -0.00458351 -0.03723477 3.133029 
0 -0.00478603 -0.004583037 -0.03723477 3.133029 
0 -0.004785074 -0.004581556 -0.03723477 3.133031 
0 -0.004295718 -0.003861243 -0.03723477 3.134444 
0 -0.004296158 -0.003862037 -0.03723477 3.134442 
0 -0.004123971 -0.003862037 -0.03723477 3.135145 
0 -0.004125027 -0.003862037 -0.03723477 3.135143 
0 -0.004124071 -0.003862037 -0.03723477 3.135145 
0 -0.004124513 -0.003862037 -0.03723477 3.135143 
0 -0.004124897 -0.003862037 -0.03723477 3.135142 
0 -0.00412521 -0.003862037 -0.03723477 3.13514 
0 -0.004127427 -0.003862037 -0.03723477 3.135124 
0 -0.004127427 -0.003862037 -0.03723477 3.135124 
0 -0.004127427 -0.003862037 -0.03723477 3.135124 
0 -0.004127427 -0.003862037 -0.03723477 3.135124 
0 -0.004127427 -0.003862037 -0.03723477 3.135124 
0 -0.004127426 -0.003862037 -0.03723477 3.135124 
0 -0.004127455 -0.003862037 -0.03723477 3.135124 
0 -0.004127452 -0.003862037 -0.03723476 3.135124 
0 -0.004127449 -0.003862037 -0.03723476 3.135124 
0 -0.004127446 -0.003862037 -0.03723476 3.135124 
0 -0.004127442 -0.003862037 -0.03723475 3.135124 
0 -0.004656587 -0.003862037 -0.03794185 3.135124 
0 -0.004656584 -0.003862037 -0.03794185 3.135124 
0 -0.004656579 -0.003862037 -0.03794185 3.135124 
0 -0.004656539 -0.003862037 -0.0379418 3.135124 
0 -0.004656577 -0.003862037 -0.0379418 3.135124 
0 -0.004656549 -0.003862037 -0.03794175 3.135124 
0 -0.004656548 -0.003862037 -0.03794175 3.135124 
0 -0.004656548 -0.003862037 -0.03794175 3.135124 
0 -0.004656547 -0.003862037 -0.03794175 3.135124 
0 -0.00428238 -0.003862037 -0.03794175 3.135124 
0 -0.00428238 -0.003862037 -0.03794175 3.135124 
0 -0.004282379 -0.003862037 -0.03794175 3.135124 
0 -0.004282378 -0.003862037 -0.03794175 3.135124 
0 -0.004282378 -0.003862037 -0.03794175 3.135124 
0 -0.004282377 -0.003862037 -0.03794175 3.135124 
0 -0.004282377 -0.003862037 -0.03794175 3.135124 
0 -0.004282376 -0.003862037 -0.03794175 3.135124 
0 -0.004282402 -0.003862037 -0.03794175 3.135124 
0 -0.0042824 -0.003862037 -0.03794174 3.135124 
0 -0.004282397 -0.003862037 -0.03794173 3.135124 
0 -0.004505997 -0.003862037 -0.03838893 3.135124 
0 -0.004705992 -0.003862037 -0.03879716 3.135124 
0 -0.004879192 -0.003862037 -0.03917512 3.135124 
0 -0.00487919 -0.003862037 -0.03917511 3.135124 
0 -0.004879188 -0.003862037 -0.0391751 3.135124 
0 -0.004614609 -0.003862037 -0.03882154 3.135124 
0 -0.004614575 -0.003862037 -0.0388215 3.135124 
0 -0.004614606 -0.003862037 -0.0388215 3.135124 
0 -0.004614574 -0.003862037 -0.03882143 3.135124 
0 -0.004614574 -0.003862037 -0.03882143 3.135124 
0 -0.004614573 -0.003862037 -0.03882143 3.135124 
0 -0.004614573 -0.003862037 -0.03882143 3.135124 
0 -0.004473151 -0.003862037 -0.03882143 3.135124 
0 -0.004473151 -0.003862037 -0.03882143 3.135124 
0 -0.004473151 -0.003862037 -0.03882143 3.135124 
0 -0.004473148 -0.003862032 -0.03882143 3.135124 
0 -0.004473147 -0.003862032 -0.03882143 3.135124 
0 -0.004473147 -0.003862032 -0.03882143 3.135124 
0 -0.004473147 -0.003862032 -0.03882143 3.135124 
0 -0.004789374 -0.003862032 -0.03882143 3.135124 
0 -0.004789373 -0.003862032 -0.03882143 3.135124 
0 -0.004789372 -0.003862032 -0.03882143 3.135124 
0 -0.004789372 -0.003862032 -0.03882143 3.135124 
0 -0.004789371 -0.003862032 -0.03882143 3.135124 
0 -0.004789371 -0.003862032 -0.03882143 3.135124 
0 -0.00478937 -0.003862032 -0.03882143 3.135124 
0 -0.00478937 -0.003862032 -0.03882143 3.135124 
0 -0.004789369 -0.003862032 -0.03882143 3.135124 
0 -0.004789381 -0.003862032 -0.03882143 3.135124 
0 -0.004589377 -0.003862032 -0.03846787 3.135124 
0 -0.00476258 -0.003862032 -0.03882142 3.135124 
0 -0.004762577 -0.003862032 -0.03882141 3.135124 
0 -0.004762575 -0.003862032 -0.0388214 3.135124 
0 -0.004430907 -0.003862032 -0.03841315 3.135124 
0 -0.005063354 -0.003862032 -0.03922964 3.135124 
0 -0.00572667 -0.003862032 -0.03998556 3.135124 
0 -0.005726669 -0.003862032 -0.03998555 3.135124 
0 -0.005726625 -0.003861988 -0.0399855 3.135124 
0 -0.005726665 -0.003862028 -0.0399855 3.135124 
0 -0.005726621 -0.003861984 -0.03998543 3.135124 
0 -0.00572662 -0.003861983 -0.03998543 3.135124 
0 -0.005726619 -0.003861982 -0.03998543 3.135124 
0 -0.005726619 -0.003861982 -0.03998543 3.135124 
0 -0.005726618 -0.00386198 -0.03998543 3.135124 
0 -0.005526617 -0.00361703 -0.03998543 3.135124 
0 -0.005526616 -0.003617029 -0.03998543 3.135124 
0 -0.005526616 -0.003617028 -0.03998543 3.135124 
0 -0.005526615 -0.003617028 -0.03998543 3.135124 
0 -0.005303006 -0.003417026 -0.03998543 3.135124 
0 -0.005303006 -0.003417026 -0.03998543 3.135124 
0 -0.005303005 -0.003417026 -0.03998543 3.135124 
0 -0.005103005 -0.003417026 -0.03998543 3.135124 
0 -0.00510303 -0.003417026 -0.03998543 3.135124 
0 -0.005103029 -0.003417026 -0.03998543 3.135124 
0 -0.005103029 -0.003417026 -0.03998543 3.135124 
0 -0.005103028 -0.003417026 -0.03998543 3.135124 
0 -0.005103028 -0.003417026 -0.03998543 3.135124 
0 -0.005103028 -0.003417026 -0.03998543 3.135124 
0 -0.005103027 -0.003417026 -0.03998543 3.135124 
0 -0.005103027 -0.003417026 -0.03998543 3.135124 
0 -0.005103061 -0.003417026 -0.03998543 3.135124 
0 -0.005103053 -0.003417026 -0.03998542 3.135124 
0 -0.005103048 -0.003417026 -0.03998541 3.135124 
0 -0.005103048 -0.003417026 -0.04030164 3.135124 
0 -0.005103046 -0.003417026 -0.04030163 3.135124 
0 -0.005103016 -0.003417002 -0.0403016 3.135124 
0 -0.005103042 -0.003417022 -0.0403016 3.135124 
0 -0.00510301 -0.003416996 -0.04030156 3.135124 
0 -0.005103038 -0.003417017 -0.04030156 3.135124 
0 -0.005103038 -0.003558418 -0.04065506 3.135124 
0 -0.005103037 -0.003558418 -0.04065506 3.135124 
0 -0.005100461 -0.003558418 -0.04065506 3.135124 
0 -0.005100199 -0.003558418 -0.04065506 3.135124 
0 -0.00510047 -0.00355864 -0.04065506 3.135124 
0 -0.005100783 -0.003558911 -0.04065506 3.135123 
0 -0.005099827 -0.003558056 -0.04065506 3.135125 
0 -0.005100369 -0.00355855 -0.04065506 3.135123 
0 -0.004569619 -0.00355855 -0.04065506 3.136542 
0 -0.004124954 -0.003160829 -0.04065506 3.138531 
0 -0.00412545 -0.003160829 -0.04065506 3.138529 
0 -0.004126469 -0.003160829 -0.04065506 3.138527 
0 -0.004126175 -0.003160829 -0.04065506 3.138527 
0 -0.004126175 -0.003160829 -0.04065506 3.138027 
0 -0.00412659 -0.003160829 -0.04065506 3.138026 
0 -0.004126589 -0.003160829 -0.04065506 3.138026 
0 -0.004126622 -0.003160829 -0.04065506 3.138026 
0 -0.004126619 -0.003160829 -0.04065505 3.138026 
0 -0.004126615 -0.003160829 -0.04065505 3.138026 
0 -0.004268032 -0.003160829 -0.04106328 3.138026 
0 -0.00436803 -0.003160829 -0.04144124 3.138026 
0 -0.004368028 -0.003160829 -0.04144123 3.138026 
0 -0.004368026 -0.003160829 -0.04144123 3.138026 
0 -0.004368024 -0.003160829 -0.04144122 3.138026 
0 -0.004368022 -0.003160829 -0.04144122 3.138026 
0 -0.004367992 -0.003160829 -0.04144117 3.138026 
0 -0.004368019 -0.003160829 -0.04144117 3.138026 
0 -0.004684193 -0.003160829 -0.04184935 3.138026 
0 -0.004684248 -0.003160829 -0.04184935 3.138026 
0 -0.004684189 -0.003160829 -0.04184924 3.138026 
0 -0.004948764 -0.003360828 -0.04184924 3.138026 
0 -0.004948763 -0.003360828 -0.04184924 3.138026 
0 -0.004948762 -0.003360827 -0.04184924 3.138026 
0 -0.004948761 -0.003360827 -0.04184924 3.138026 
0 -0.004945937 -0.003360827 -0.04184924 3.138026 
0 -0.004946227 -0.003360827 -0.04184924 3.138026 
0 -0.004946492 -0.003360827 -0.04184924 3.138025 
0 -0.004946728 -0.003360827 -0.04184924 3.138025 
0 -0.004946595 -0.003360827 -0.04184924 3.138025 
0 -0.004946273 -0.003360827 -0.04184924 3.138026 
0 -0.004946273 -0.003360827 -0.04184924 3.137454 
0 -0.004501609 -0.003360827 -0.04184924 3.139443 
0 -0.004328788 -0.003360827 -0.04184924 3.140148 
0 -0.004155968 -0.003360827 -0.04184924 3.140854 
0 -0.003983147 -0.003360827 -0.04184924 3.141559 
0 -0.003983147 -0.003360827 -0.04184924 3.212268 
0 -0.003983147 -0.003360827 -0.04184924 3.282977 
0 -0.003983147 -0.003360827 -0.04184924 3.353672 
0 -0.003983147 -0.003360827 -0.04184924 3.353672 
0 -0.003983147 -0.003360827 -0.04184924 3.353672 
0 -0.003983147 -0.003360827 -0.04184924 3.353672 
0 -0.003983147 -0.003360827 -0.04184924 3.353672 
0 -0.003983147 -0.003360827 -0.04184924 3.353672 
0 -0.003983147 -0.003360827 -0.04184924 3.353672 
0 -0.003983147 -0.003360827 -0.04184924 3.353672 
0 -0.003983147 -0.003360827 -0.04184924 3.353672 
0 -0.003983147 -0.003360827 -0.04184924 3.353672 
0 -0.003983147 -0.003360827 -0.04184924 3.353672 
0 -0.003983147 -0.003360827 -0.04184924 3.353672 
0 -0.003983147 -0.003360827 -0.04184924 3.353672 
0 -0.003983147 -0.003360827 -0.04184924 3.353672 
0 -0.003983147 -0.003360827 -0.04184924 3.353672 
0 -0.003983147 -0.003360827 -0.04184924 3.353672 
0 -0.003983147 -0.003360827 -0.04184924 3.353672 
0 -0.003983147 -0.003360827 -0.04184924 3.353672 
0 -0.003983147 -0.003360827 -0.04184924 3.353672 
0 -0.003983147 -0.003360827 -0.04184924 3.353672 
0 -0.003983147 -0.003360827 -0.04184924 3.353672 
0 -0.003983147 -0.003360827 -0.04184924 3.353672 
0 -0.003983147 -0.003677054 -0.04184924 3.353672 
0 -0.003983147 -0.003677053 -0.04184924 3.353672 
0 -0.003983146 -0.003677052 -0.04184924 3.353672 
0 -0.003983146 -0.003677052 -0.04184924 3.353672 
0 -0.003983145 -0.003677051 -0.04184924 3.353672 
0 -0.003983145 -0.00367705 -0.04184924 3.353672 
0 -0.003983145 -0.003360822 -0.04184924 3.353672 
0 -0.003983144 -0.003360821 -0.04184924 3.353672 
0 -0.003983143 -0.00336082 -0.04184924 3.353672 
0 -0.003983142 -0.003360819 -0.04184924 3.353672 
0 -0.003983141 -0.003360818 -0.04184924 3.353672 
0 -0.00398314 -0.003360817 -0.04184924 3.353672 
0 -0.00398314 -0.003360817 -0.04184924 3.353672 
0 -0.00398314 -0.003360817 -0.04184924 3.353672 
0 -0.003983139 -0.003360816 -0.04184924 3.353672 
0 -0.003983139 -0.003360816 -0.04184924 3.353672 
0 -0.003983139 -0.003360816 -0.04184924 3.353672 
0 -0.003983139 -0.003360816 -0.04184924 3.353672 
0 -0.003983139 -0.003360816 -0.04184924 3.353672 
0 -0.003983139 -0.003360816 -0.04184924 3.353672 
0 -0.003983139 -0.003360816 -0.04184924 3.353672 
0 -0.003983139 -0.003360816 -0.04184924 3.353672 
0 -0.003983139 -0.003360816 -0.04184924 3.353672 
0 -0.003983139 -0.003360816 -0.04184924 3.353672 
0 -0.003983139 -0.003360816 -0.04184924 3.353672 
0 -0.003983139 -0.003360816 -0.04184924 3.353672 
0 -0.003983139 -0.003360816 -0.04184924 3.353672 
0 -0.003983138 -0.003360816 -0.04184924 3.353672 
0 -0.003983138 -0.003360816 -0.04184924 3.353672 
0 -0.003983137 -0.003360816 -0.04184924 3.353672 
0 -0.003983137 -0.003360816 -0.04184924 3.353672 
0 -0.003983136 -0.003360816 -0.04184924 3.353672 
0 -0.003983136 -0.003360816 -0.04184924 3.353672 
0 -0.003983135 -0.003360816 -0.04184924 3.353672 
0 -0.003983135 -0.003360816 -0.04184924 3.353672 
0 -0.003983135 -0.003360816 -0.04184924 3.353672 
0 -0.003983161 -0.003360816 -0.04184924 3.353672 
0 -0.003983159 -0.003360816 -0.04184923 3.353672 
0 -0.004183155 -0.003360816 -0.04266572 3.353672 
0 -0.004183155 -0.003360816 -0.04266571 3.353672 
0 -0.004183152 -0.003360816 -0.0426657 3.353672 
0 -0.004183148 -0.003360816 -0.0426657 3.353672 
0 -0.004183143 -0.003360816 -0.04266569 3.353672 
0 -0.004183145 -0.003360816 -0.04266569 3.353672 
0 -0.004183149 -0.003360816 -0.0426657 3.353672 
0 -0.004183143 -0.003360816 -0.04266569 3.353672 
0 -0.004183138 -0.003360816 -0.04266568 3.353672 
0 -0.004406735 -0.003360816 -0.04316566 3.353672 
0 -0.004606696 -0.003360816 -0.04361279 3.353672 
0 -0.004606695 -0.003360816 -0.04361279 3.353672 
0 -0.004606695 -0.003360816 -0.04361279 3.353672 
0 -0.004606694 -0.003360815 -0.04361279 3.353672 
0 -0.004306693 -0.003219393 -0.04361279 3.353672 
0 -0.004306692 -0.003219393 -0.04361279 3.353672 
0 -0.004303431 -0.003219393 -0.04361279 3.353672 
0 -0.004303088 -0.003219393 -0.04361279 3.353673 
0 -0.004303531 -0.003219393 -0.04361279 3.353672 
0 -0.004303942 -0.003219393 -0.04361279 3.353671 
0 -0.004304316 -0.003219393 -0.04361279 3.35367 
0 -0.004304651 -0.003219393 -0.04361279 3.353669 
0 -0.004304941 -0.003219393 -0.04361279 3.353668 
0 -0.004305178 -0.003219393 -0.04361279 3.353667 
0 -0.004305468 -0.003219393 -0.04361279 3.353666 
0 -0.004305804 -0.003219393 -0.04361279 3.353665 
0 -0.004306178 -0.003219393 -0.04361279 3.353664 
0 -0.004306979 -0.003219393 -0.04361279 3.353662 
0 -0.004307346 -0.003219393 -0.04361279 3.353662 
0 -0.004310699 -0.003219393 -0.04361279 3.353655 
0 -0.004310699 -0.003219393 -0.04361279 3.353655 
0 -0.004310698 -0.003219393 -0.04361279 3.353655 
0 -0.004310698 -0.003219392 -0.04361279 3.353655 
0 -0.004310697 -0.003219391 -0.04361279 3.353655 
0 -0.004137492 -0.002974441 -0.04361279 3.353655 
0 -0.004137491 -0.00297444 -0.04361279 3.353655 
0 -0.004137491 -0.002974439 -0.04361279 3.353655 
0 -0.004137491 -0.002974439 -0.04361279 3.353655 
0 -0.00413749 -0.002974438 -0.04361279 3.353655 
0 -0.004137489 -0.002974438 -0.04361279 3.353655 
0 -0.004137488 -0.002974437 -0.04361279 3.353655 
0 -0.004137487 -0.002974437 -0.04361279 3.353655 
0 -0.004135511 -0.002974437 -0.04361279 3.353655 
0 -0.004135765 -0.002974437 -0.04361279 3.353654 
0 -0.004135581 -0.002974437 -0.04361279 3.353655 
0 -0.004134986 -0.002974437 -0.04361279 3.353656 
0 -0.004132123 -0.002974437 -0.04361279 3.353662 
0 -0.003645211 -0.002974437 -0.04361279 3.35565 
0 -0.003401803 -0.002974437 -0.04361279 3.356352 
0 -0.003156369 -0.002974437 -0.04361279 3.356931 
0 -0.00315695 -0.002974437 -0.04361279 3.356929 
0 -0.00315695 -0.002974437 -0.04361279 3.427635 
0 -0.00315695 -0.002974437 -0.04361279 3.485377 
0 -0.00315695 -0.002974437 -0.04361279 3.585364 
0 -0.00315695 -0.002974437 -0.04361279 3.65607 
0 -0.00315695 -0.002974437 -0.04361279 3.713793 
0 -0.00315695 -0.002974437 -0.04361279 3.713793 
0 -0.00315695 -0.002974437 -0.005816328 3.713793 
0 -0.00315695 -0.002974437 -0.005816328 3.713793 
0 -0.00315695 -0.002974437 -0.005816328 3.713793 
0 -0.00315695 -0.002974437 -0.005816328 3.713793 
0 -0.00315695 -0.002974437 -0.005816328 3.713793 
0 -0.00315695 -0.002974437 -0.005816328 3.713793 
0 -0.00315695 -0.002974437 -0.005816328 3.713793 
0 -0.00315695 -0.002974437 -0.005816328 3.713793 
0 -0.00315695 -0.002974437 -0.005816328 3.713793 
0 -0.00315695 -0.002974437 -0.005816328 3.713793 
0 -0.00315695 -0.002974437 -0.005816328 3.713793 
0 -0.00315695 -0.002974437 -0.005816328 3.713793 
0 -0.00315695 -0.002974437 -0.005816328 3.713793 
0 -0.00315695 -0.002974437 -0.005816328 3.713793 
0 -0.00315695 -0.002974437 -0.005816328 3.713793 
0 -0.00315695 -0.002974437 -0.005816328 3.713793 
0 -0.00315695 -0.002974437 -0.005816328 3.713793 
0 -0.00315695 -0.002974437 -0.005816328 3.713793 
0 -0.00315695 -0.002974437 -0.005816328 3.713793 
0 -0.00315695 -0.002974437 -0.005816328 3.713793 
0 -0.00315695 -0.002974437 -0.005816328 3.713793 
0 -0.00315695 -0.002974437 -0.005816328 3.713793 
0 -0.00315695 -0.002974437 -0.005816328 3.713793 
0 -0.00315695 -0.002974437 -0.005816328 3.713793 
0 -0.00315695 -0.002974437 -0.005816328 3.713793 
0 -0.00315695 -0.002974437 -0.005816328 3.713793 
0 -0.00315695 -0.002974437 -0.005816328 3.713793 
0 -0.003156948 -0.002974436 -0.005816328 3.713793 
0 -0.003156948 -0.002974436 -0.005816328 3.713793 
0 -0.003156947 -0.002974436 -0.005816328 3.713793 
0 -0.003156953 -0.002974436 -0.005816328 3.713793 
0 -0.003156952 -0.002974436 -0.005816326 3.713793 
0 -0.003156951 -0.002974436 -0.005816325 3.713793 
0 -0.00350336 -0.002974436 -0.006710749 3.713793 
0 -0.00364478 -0.002974436 -0.007118995 3.713793 
0 -0.00364478 -0.002974436 -0.007118993 3.713793 
0 -0.003298369 -0.002974436 -0.006741027 3.713793 
0 -0.003521974 -0.002974436 -0.00711899 3.713793 
0 -0.003521974 -0.002974436 -0.007118988 3.713793 
0 -0.003521966 -0.002974436 -0.007118976 3.713793 
0 -0.003521972 -0.002974436 -0.007118976 3.713793 
0 -0.003521964 -0.002974436 -0.007118963 3.713793 
0 -0.003521963 -0.002974435 -0.007118963 3.713793 
0 -0.003521962 -0.002974434 -0.007118963 3.713793 
0 -0.003521962 -0.003219383 -0.007118963 3.713793 
0 -0.003521961 -0.003219382 -0.007118963 3.713793 
0 -0.00352196 -0.003219381 -0.007118963 3.713793 
0 -0.00352196 -0.003219381 -0.007118963 3.713793 
0 -0.003521959 -0.003219381 -0.007118963 3.713793 
0 -0.003521958 -0.00321938 -0.007118963 3.713793 
0 -0.003515273 -0.00321938 -0.007118963 3.713793 
0 -0.003515967 -0.00321938 -0.007118963 3.713791 
0 -0.00351661 -0.00321938 -0.007118963 3.713789 
0 -0.002989302 -0.00321938 -0.007118963 3.715199 
0 -0.002725978 -0.00321938 -0.007118963 3.715773 
0 -0.002503182 -0.00321938 -0.007118963 3.716271 
0 -0.00250294 -0.00321938 -0.007118963 3.716272 
0 -0.00250338 -0.00321938 -0.007118963 3.716271 
0 -0.002507456 -0.00321938 -0.007118963 3.716264 
0 -0.002507455 -0.00321938 -0.007118962 3.716264 
0 -0.002507455 -0.00321938 -0.00711896 3.716264 
0 -0.002507454 -0.00321938 -0.007118959 3.716264 
0 -0.002507454 -0.00321938 -0.007118958 3.716264 
0 -0.002507453 -0.00321938 -0.007118956 3.716264 
0 -0.002334247 -0.00321938 -0.006740989 3.716264 
0 -0.002617089 -0.00321938 -0.007448094 3.716264 
0 -0.002617086 -0.00321938 -0.007448085 3.716264 
0 -0.002417086 -0.00321938 -0.007448085 3.716264 
0 -0.002417086 -0.00321938 -0.007448085 3.716264 
0 -0.002417085 -0.00321938 -0.007448085 3.716264 
0 -0.002417085 -0.00321938 -0.007448085 3.716264 
0 -0.002217085 -0.002995773 -0.007448085 3.716264 
0 -0.002563494 -0.003485669 -0.007448085 3.716264 
0 -0.002563493 -0.003485669 -0.007448085 3.716264 
0 -0.002563493 -0.003485669 -0.007448085 3.716264 
0 -0.002390288 -0.003485669 -0.007448085 3.716264 
0 -0.002390288 -0.003485669 -0.007448085 3.716264 
0 -0.002390287 -0.003485669 -0.007448085 3.716264 
0 -0.002248869 -0.003485669 -0.007448085 3.716264 
0 -0.002248869 -0.003485669 -0.007448085 3.716264 
0 -0.002248868 -0.003485669 -0.007448084 3.716264 
0 -0.002248868 -0.003485669 -0.007448084 3.716264 
0 -0.002248868 -0.003485669 -0.007448084 3.716264 
0 -0.002248867 -0.003485669 -0.007448083 3.716264 
0 -0.002248866 -0.003485669 -0.007448082 3.716264 
0 -0.002248859 -0.003485669 -0.007448074 3.716264 
0 -0.002623034 -0.003485669 -0.007448074 3.716264 
0 -0.002623024 -0.003485669 -0.007448064 3.716264 
0 -0.002623033 -0.003485669 -0.007448064 3.716264 
0 -0.002623022 -0.003485669 -0.007448051 3.716264 
0 -0.002623033 -0.003485669 -0.007448051 3.716264 
0 -0.002623021 -0.003485669 -0.007448032 3.716264 
0 -0.003188706 -0.003485669 -0.007448032 3.716264 
0 -0.002924131 -0.003485669 -0.007448032 3.716264 
0 -0.00292413 -0.003485669 -0.007448032 3.716264 
0 -0.00292413 -0.003485669 -0.007448032 3.716264 
0 -0.00292413 -0.003485669 -0.007448032 3.716264 
0 -0.00292413 -0.003485669 -0.007448032 3.716264 
0 -0.002924129 -0.003485669 -0.007448032 3.716264 
0 -0.002924129 -0.003485669 -0.007448032 3.716264 
0 -0.002750924 -0.003485669 -0.007448032 3.716264 
0 -0.002750924 -0.003485669 -0.007448032 3.716264 
0 -0.002750923 -0.003485669 -0.007448032 3.716264 
0 -0.002750923 -0.003262062 -0.007448032 3.716264 
0 -0.002750923 -0.003262061 -0.007448032 3.716264 
0 -0.002750922 -0.003262061 -0.007448032 3.716264 
0 -0.002750922 -0.003262061 -0.007448032 3.716264 
0 -0.002750921 -0.00326206 -0.007448032 3.716264 
0 -0.002750921 -0.00326206 -0.007448032 3.716264 
0 -0.002750919 -0.00326206 -0.007448032 3.716264 
0 -0.002750919 -0.00326206 -0.007448032 3.716264 
0 -0.002750949 -0.00326206 -0.007448032 3.716264 
0 -0.002750942 -0.00326206 -0.007448032 3.716264 
0 -0.002750869 -0.00326206 -0.007448032 3.716264 
0 -0.002750714 -0.00326206 -0.007448032 3.716264 
0 -0.0025497 -0.003061046 -0.007448032 3.716767 
0 -0.002550287 -0.003061633 -0.007448032 3.716765 
0 -0.002550813 -0.003062277 -0.007448032 3.716763 
0 -0.002551266 -0.00306297 -0.007448032 3.716761 
0 -0.002349833 -0.00306297 -0.007448032 3.717474 
0 -0.002349833 -0.00306297 -0.007448032 3.81746 
0 -0.002349833 -0.00306297 -0.007448032 3.816751 
0 -0.002349833 -0.00306297 -0.007448032 3.887457 
0 -0.002349833 -0.00306297 -0.007448032 3.945179 
0 -0.002349833 -0.00306297 -0.007448032 3.945179 
0 -0.002349833 -0.00306297 -0.007448032 3.945179 
0 -0.002349833 -0.00306297 -0.007448032 3.945179 
0 -0.002349833 -0.00306297 -0.007448032 3.945179 
0 -0.002349833 -0.00306297 -0.007448032 3.945179 
0 -0.002349833 -0.00306297 -0.007448032 3.945179 
0 -0.002349833 -0.00306297 -0.007448032 3.945179 
0 -0.002349833 -0.00306297 -0.007448032 3.945179 
0 -0.002349833 -0.00306297 -0.007448032 3.945179 
0 -0.002349833 -0.00306297 -0.007448032 3.945179 
0 -0.002349833 -0.00306297 -0.007448032 3.945179 
0 -0.002349833 -0.00306297 -0.007448032 3.945179 
0 -0.002349833 -0.00306297 -0.007448032 3.982975 
0 -0.002349833 -0.00306297 -0.007448032 4.020772 
0 -0.002349833 -0.00306297 -0.007448032 4.065494 
0 -0.002349833 -0.00306297 -0.007448032 4.123228 
0 -0.002349833 -0.00306297 -0.007448032 4.180961 
0 -0.002349833 -0.00306297 -0.007448032 4.238695 
0 -0.002615056 -0.003363704 -0.007448032 4.238116 
0 -0.002615655 -0.003364477 -0.007448032 4.238114 
0 -0.002616301 -0.003365288 -0.007448032 4.238113 
0 -0.002612951 -0.00336055 -0.007448032 4.238121 
0 -0.002612951 -0.00336055 -0.007448032 4.338106 
0 -0.002612951 -0.00336055 -0.007448032 4.408814 
0 -0.002612951 -0.00336055 -0.007448032 4.479503 
0 -0.002612951 -0.00336055 -0.007448032 4.479503 
0 -0.002812951 -0.00336055 -0.007448032 4.479503 
0 -0.002812951 -0.00336055 -0.007448032 4.479503 
0 -0.002812951 -0.00336055 -0.007448032 4.479503 
0 -0.002812951 -0.00336055 -0.007448032 4.479503 
0 -0.00281295 -0.00336055 -0.007448032 4.479503 
0 -0.00281295 -0.00336055 -0.007448032 4.479503 
0 -0.00281295 -0.00336055 -0.007448032 4.479503 
0 -0.00281295 -0.00336055 -0.007448032 4.479503 
0 -0.002812949 -0.00336055 -0.007448032 4.479503 
0 -0.003112949 -0.00336055 -0.007448032 4.479503 
0 -0.003112949 -0.00336055 -0.007448032 4.479503 
0 -0.003112948 -0.00336055 -0.007448032 4.479503 
0 -0.003112948 -0.00336055 -0.007448032 4.479503 
0 -0.003112948 -0.00336055 -0.007448032 4.479503 
0 -0.003112948 -0.00336055 -0.007448032 4.479503 
0 -0.003112947 -0.00336055 -0.007448032 4.479503 
0 -0.003112947 -0.00336055 -0.007448032 4.479503 
0 -0.003112947 -0.00336055 -0.007448032 4.479503 
0 -0.003112947 -0.00336055 -0.007448032 4.479503 
0 -0.003112947 -0.00336055 -0.007448032 4.479503 
0 -0.003112947 -0.00336055 -0.007448032 4.479503 
0 -0.003112946 -0.00336055 -0.007448032 4.479503 
0 -0.003112946 -0.00336055 -0.007448032 4.479503 
0 -0.003112945 -0.00336055 -0.007448032 4.479503 
0 -0.003112945 -0.00336055 -0.007448032 4.479503 
0 -0.003112944 -0.00336055 -0.007448032 4.479503 
0 -0.003459354 -0.00336055 -0.007448032 4.479503 
0 -0.003459353 -0.00336055 -0.007448032 4.479503 
0 -0.003459353 -0.00336055 -0.007448032 4.479503 
0 -0.00345935 -0.003360547 -0.007448032 4.479503 
0 -0.00345935 -0.003360547 -0.007448032 4.479503 
0 -0.003459349 -0.003360547 -0.007448032 4.479503 
0 -0.003459349 -0.003360547 -0.007448032 4.479503 
0 -0.003459348 -0.003360547 -0.007448032 4.479503 
0 -0.003459348 -0.003360547 -0.007448032 4.479503 
0 -0.003459348 -0.003360547 -0.007448032 4.479503 
0 -0.003459347 -0.003360547 -0.007448032 4.479503 
0 -0.003682954 -0.003360547 -0.007448032 4.479503 
0 -0.003682959 -0.003360547 -0.007448032 4.479503 
0 -0.003682958 -0.003360547 -0.007448029 4.479503 
0 -0.003982957 -0.003360547 -0.007801581 4.479503 
0 -0.003982955 -0.003360547 -0.00780158 4.479503 
0 -0.003982954 -0.003360547 -0.007801578 4.479503 
0 -0.003982953 -0.003360547 -0.007801577 4.479503 
0 -0.004430165 -0.003360547 -0.008508681 4.479503 
0 -0.004430164 -0.003360547 -0.008508679 4.479503 
0 -0.004430159 -0.003360547 -0.008508669 4.479503 
0 -0.004430159 -0.003360547 -0.008508669 4.479503 
0 -0.004430158 -0.003360547 -0.008508669 4.479503 
0 -0.004430158 -0.003360547 -0.008508669 4.479503 
0 -0.004630158 -0.003360547 -0.008508669 4.479503 
0 -0.004630158 -0.003360547 -0.008508669 4.479503 
0 -0.004630157 -0.003360547 -0.008508669 4.479503 
0 -0.004630157 -0.003360547 -0.008508669 4.479503 
0 -0.004630156 -0.003360547 -0.008508669 4.479503 
0 -0.004630156 -0.003360547 -0.008508669 4.479503 
0 -0.00445695 -0.003360547 -0.008508669 4.479503 
0 -0.00445695 -0.003360547 -0.008508669 4.479503 
0 -0.004456949 -0.003360547 -0.008508669 4.479503 
0 -0.004456949 -0.003360547 -0.008508669 4.479503 
0 -0.004456949 -0.003360547 -0.008508669 4.479503 
0 -0.004456949 -0.003360547 -0.008508669 4.479503 
0 -0.004456948 -0.003360547 -0.008508669 4.479503 
0 -0.004456948 -0.003360546 -0.008508669 4.479503 
0 -0.004456948 -0.003360545 -0.008508669 4.479503 
0 -0.004456947 -0.003360545 -0.008508669 4.479503 
0 -0.004456947 -0.003360544 -0.008508669 4.479503 
0 -0.004233339 -0.003187338 -0.008508669 4.479503 
0 -0.004233338 -0.003187338 -0.008508669 4.479503 
0 -0.004233337 -0.003187337 -0.008508669 4.479503 
0 -0.004230486 -0.003187337 -0.008508669 4.479503 
0 -0.004230874 -0.003187337 -0.008508669 4.479502 
0 -0.00423119 -0.003187337 -0.008508669 4.479501 
0 -0.004230579 -0.003187337 -0.008508669 4.479504 
0 -0.003806763 -0.003187337 -0.008508669 4.481623 
0 -0.003807211 -0.003187337 -0.008508669 4.481621 
0 -0.003459304 -0.003187337 -0.008508669 4.483041 
0 -0.003288922 -0.003187337 -0.008508669 4.484025 
0 -0.003117173 -0.003187337 -0.008508669 4.484726 
0 -0.002944957 -0.003187337 -0.008508669 4.4853 
0 -0.002945345 -0.003187337 -0.008508669 4.485299 
0 -0.003210513 -0.003187337 -0.008508669 4.484798 
0 -0.003011387 -0.002801732 -0.008508669 4.485296 
0 -0.003015399 -0.0028095 -0.008508669 4.485287 
0 -0.003015398 -0.002809499 -0.008508669 4.485287 
0 -0.003015398 -0.002809498 -0.008508669 4.485287 
0 -0.003015397 -0.002809496 -0.008508669 4.485287 
0 -0.003015397 -0.002809496 -0.008508669 4.485287 
0 -0.003015397 -0.002809495 -0.008508669 4.485287 
0 -0.003015396 -0.002809495 -0.008508669 4.485287 
0 -0.003015396 -0.002809494 -0.008508669 4.485287 
0 -0.003015395 -0.002809493 -0.008508669 4.485287 
0 -0.003015395 -0.003155903 -0.008508669 4.485287 
0 -0.003015395 -0.003155902 -0.008508669 4.485287 
0 -0.003015394 -0.003155901 -0.008508669 4.485287 
0 -0.003015394 -0.0031559 -0.008508669 4.485287 
0 -0.003015393 -0.003155899 -0.008508669 4.485287 
0 -0.003015393 -0.003455899 -0.008508669 4.485287 
0 -0.003015392 -0.003455898 -0.008508669 4.485287 
0 -0.003015391 -0.003455897 -0.008508669 4.485287 
0 -0.00301539 -0.003455896 -0.008508669 4.485287 
0 -0.003015389 -0.003455896 -0.008508669 4.485287 
0 -0.003015388 -0.003455895 -0.008508669 4.485287 
0 -0.003015387 -0.003455895 -0.008508669 4.485287 
0 -0.003015386 -0.003455894 -0.008508669 4.485287 
0 -0.003015385 -0.003455894 -0.008508669 4.485287 
0 -0.003009676 -0.003455894 -0.008508669 4.485287 
0 -0.003010361 -0.003455894 -0.008508669 4.485285 
0 -0.003010995 -0.003455894 -0.008508669 4.485284 
0 -0.003011574 -0.003455894 -0.008508669 4.485282 
0 -0.003012092 -0.003455894 -0.008508669 4.485281 
0 -0.00301254 -0.003455894 -0.008508669 4.48528 
0 -0.003012906 -0.003455894 -0.008508669 4.485278 
0 -0.003013165 -0.003455894 -0.008508669 4.485277 
0 -0.003013165 -0.003455894 -0.008508669 4.485277 
0 -0.003013164 -0.003455894 -0.008508669 4.485277 
0 -0.003013164 -0.003455894 -0.008508669 4.485277 
0 -0.003013163 -0.003455894 -0.008508669 4.485277 
0 -0.003258112 -0.003455894 -0.008508669 4.485277 
0 -0.003258111 -0.003455894 -0.008508669 4.485277 
0 -0.003258111 -0.003455894 -0.008508669 4.485277 
0 -0.003258111 -0.003455894 -0.008508669 4.485277 
0 -0.003258111 -0.003455894 -0.008508669 4.485277 
0 -0.00325811 -0.003455894 -0.008508669 4.485277 
0 -0.00325811 -0.003455894 -0.008508669 4.485277 
0 -0.003258109 -0.003455891 -0.008508669 4.485277 
0 -0.002941881 -0.003455891 -0.008508669 4.485277 
0 -0.00294188 -0.003455891 -0.008508669 4.485277 
0 -0.00294188 -0.003455891 -0.008508669 4.485277 
0 -0.00294188 -0.003455891 -0.008508669 4.485277 
0 -0.002941889 -0.003455891 -0.008508669 4.485277 
0 -0.002941888 -0.003455891 -0.008508666 4.485277 
0 -0.003341886 -0.003455891 -0.009508662 4.485277 
0 -0.003565491 -0.003455891 -0.009955872 4.485277 
0 -0.003810438 -0.003787551 -0.01036412 4.485277 
0 -0.003810436 -0.003787549 -0.01036411 4.485277 
0 -0.003810435 -0.003787547 -0.01036411 4.485277 
0 -0.003810433 -0.003787545 -0.01036411 4.485277 
0 -0.003810431 -0.003787544 -0.01036411 4.485277 
0 -0.003810429 -0.003787542 -0.0103641 4.485277 
0 -0.003810414 -0.003787532 -0.01036409 4.485277 
0 -0.003810427 -0.00378754 -0.01036409 4.485277 
0 -0.003810411 -0.003787532 -0.01036407 4.485277 
0 -0.00381041 -0.003787531 -0.01036407 4.485277 
0 -0.03209468 -0.01378753 -0.01036407 4.485277 
0 -0.05854684 -0.01378753 -0.01036407 4.485277 
0 -0.08304229 -0.01378753 -0.01036407 4.435276 
0 -0.1054035 -0.01378753 -0.01036407 4.385275 
0 -0.1254039 -0.03614869 -0.01036407 4.335274 
0 -0.1427248 -0.0606441 -0.01036407 4.285273 
0 -0.1568672 -0.08710218 -0.01036407 4.235271 
0 -0.1741881 -0.115387 -0.01036407 4.18527 
0 -0.1941885 -0.1418451 -0.01036407 4.135269 
0 -0.2165496 -0.17013 -0.01036407 4.085268 
0 -0.2410454 -0.2001311 -0.01036407 4.035266 
0 -0.2610458 -0.2301316 -0.01036407 3.990544 
0 -0.2710475 -0.2617599 -0.01036407 3.945815 
